{"lstm.weight_ih_l0": [[-0.0005295459995977581], [0.039430420845746994], [0.07648490369319916], [0.0011532909702509642], [-0.0029940693639218807], [0.04047722741961479], [0.0022901054471731186], [0.014227867126464844], [-0.0030505298636853695], [-0.004188938066363335], [0.009042549878358841], [0.029849093407392502], [-0.005551271606236696], [0.010325892828404903], [0.0056556095369160175], [0.0024291432928293943], [0.028646107763051987], [-0.03974185883998871], [-0.005776240956038237], [0.04473550245165825], [0.005061262287199497], [0.013276900164783001], [-0.016918208450078964], [-0.07979092001914978], [-0.012022064998745918], [0.0023263131733983755], [0.020636234432458878], [0.001325249788351357], [0.004438888747245073], [-0.0025930344127118587], [0.007824059575796127], [0.008604508824646473], [0.002522130496799946], [0.04313649609684944], [-0.08489371091127396], [0.000549204065464437], [-0.0032079967204481363], [0.005227291956543922], [0.0013904683291912079], [0.03250858932733536], [-0.002394207054749131], [-0.0022396687418222427], [-0.002866956638172269], [0.012886939570307732], [-0.003398222615942359], [-5.380759830586612e-05], [-0.0017041604733094573], [0.001066066324710846], [0.0132876792922616], [-0.054531414061784744], [-0.01205976027995348], [0.05868815258145332], [0.012763310223817825], [-0.034853123128414154], [-0.012237928807735443], [0.05036725476384163], [-0.008865322917699814], [0.006767670623958111], [-0.06462675333023071], [0.2262388914823532], [0.001999033149331808], [-0.005293606780469418], [-0.0005094702355563641], [0.004449250642210245], [-0.12002847343683243], [0.4770453870296478], [-1.1327818632125854], [0.01892736367881298], [-0.6265082359313965], [0.15036123991012573], [0.2662596106529236], [-0.6153518557548523], [0.10313864052295685], [-0.422201544046402], [-0.395270973443985], [-0.014716532081365585], [-0.3293517529964447], [-0.14403505623340607], [0.3975224792957306], [-0.10467380285263062], [0.8682384490966797], [0.6029172539710999], [0.5430461168289185], [-0.45119020342826843], [-0.27061524987220764], [-1.0957069396972656], [-0.695502758026123], [1.5059030055999756], [-0.718423068523407], [-0.07099328935146332], [-5.529676914215088], [2.2884128093719482], [-0.43670085072517395], [-0.19115422666072845], [0.3212961256504059], [-0.4171046316623688], [0.00014602448209188879], [0.01418079249560833], [-0.09180396795272827], [0.001704297261312604], [-0.009074750356376171], [0.07021179795265198], [-0.013664685189723969], [0.011157192289829254], [-0.05026350915431976], [-0.011753518134355545], [0.004329868592321873], [0.03493858873844147], [-0.021949857473373413], [0.0014978275867179036], [0.007295616902410984], [0.006927163805812597], [0.07482711970806122], [-0.043538305908441544], [-0.01738038845360279], [0.10926207900047302], [-0.0025615361519157887], [-0.00016598223010078073], [-0.0019503380171954632], [-0.052444253116846085], [0.003928090911358595], [-0.03193730488419533], [0.09879941493272781], [0.05403690040111542], [0.0021649773698300123], [-0.02343602664768696], [-0.010982749052345753], [-0.014727604575455189]], "lstm.weight_hh_l0": [[-0.0013983381213620305, -0.0027836598455905914, 0.005066487472504377, -0.000113068672362715, 0.0014035239582881331, 0.005945833865553141, -0.001969576347619295, -0.0005113771767355502, 0.004762082826346159, 0.0010297506814822555, -0.0011495758080855012, -0.003066601697355509, 0.002532394602894783, -0.0020439629442989826, 0.0005149008356966078, 0.0014919848181307316, -0.0058529190719127655, 0.00026962487027049065, 0.0037030079402029514, -0.002674378687515855, -0.005715515930205584, 0.0005375508335418999, -0.0014787736581638455, -0.005105810239911079, -0.0016411251854151487, -0.0098368339240551, 0.009324195794761181, -0.003963930066674948, -0.0006834111991338432, -0.006973685696721077, 0.004129704087972641, -0.006715093739330769], [0.004509644582867622, -0.0297141931951046, -0.0996302142739296, 0.003541948739439249, -0.006390793714672327, 0.02262447401881218, -0.008997940458357334, 0.02707107737660408, 0.04949922114610672, -0.006157371215522289, 0.017548147588968277, 0.05002947151660919, -0.0009067702339962125, 0.04504096880555153, -0.004881097935140133, 0.017134016379714012, 0.0186361912637949, 0.01039489358663559, 0.04390990361571312, -0.02251066453754902, -0.025714287534356117, -0.04360782355070114, -0.038248468190431595, 0.025625891983509064, -0.04078582301735878, -0.06007528305053711, -0.10254012793302536, 0.06466693431138992, -0.004855267703533173, -0.050881825387477875, 0.02491360530257225, -0.05124285817146301], [-0.017484162002801895, 0.04788917303085327, 0.058393608778715134, 0.01463549304753542, -0.021624289453029633, -0.1425003856420517, 0.004971729591488838, 0.02139185555279255, 0.16620993614196777, -0.03967687115073204, 0.024307100102305412, 0.15133029222488403, -0.020616143941879272, 0.16245876252651215, -0.01795785315334797, 0.05474386364221573, -0.0373152494430542, -0.014857115224003792, 0.12394940108060837, -0.16956071555614471, -0.1185155138373375, -0.03459103778004646, -0.04821242019534111, 0.24821323156356812, -0.0438847579061985, -0.2224293202161789, -0.2220163494348526, 0.2544543743133545, 0.0031818929128348827, -0.10542065650224686, 0.05418185889720917, -0.13002954423427582], [-0.001099129905924201, 0.0022195458877831697, -0.0034508819226175547, 0.0004663273866754025, 0.0008084725122898817, -0.0011873914627358317, -3.287318759248592e-05, -9.9988956208108e-06, 0.00475948816165328, -0.0005240141763351858, 0.00011591902148211375, 0.0018078478751704097, -0.00144824234303087, 0.0009587323293089867, 0.0004300271684769541, 0.000763034273404628, 0.003885610494762659, -0.0020635335240513086, 0.0018584543140605092, -0.0012102683540433645, -0.0021268781274557114, -0.004572095815092325, 0.0015617001336067915, 0.001605584635399282, -0.00028981518698856235, -0.0007427016389556229, -0.006771499756723642, 0.0073660677298903465, 0.00012185044033685699, -0.0012178568867966533, 0.0009300636011175811, -0.001454172539524734], [0.00038179155671969056, -0.006555346772074699, 0.0024985731579363346, 6.36043623671867e-05, 0.0036745741963386536, -0.007072634529322386, -0.006300071720033884, 0.00521638710051775, 0.024864010512828827, 0.0013572069583460689, 0.005221188999712467, 0.018146028742194176, 0.003168211318552494, 0.00830005668103695, -0.004498661961406469, 0.005921847652643919, -0.005412802565842867, -3.979707616963424e-05, 0.014115999452769756, -0.009116150438785553, -0.01454322598874569, 5.430861347122118e-05, -0.006489594932645559, 0.016805529594421387, -0.0072275977581739426, -0.03328632935881615, -0.012281164526939392, 0.011003188788890839, 0.0011717851739376783, -0.019705604761838913, 0.009574283845722675, -0.019519399851560593], [-0.022177960723638535, 0.03704429045319557, -0.07283257693052292, 0.011794724501669407, -0.011056201532483101, 0.05033133924007416, 0.005348565522581339, -0.044496115297079086, 0.10211973637342453, -0.02722732536494732, -0.009928311221301556, 0.045321933925151825, -0.015197763219475746, -0.0029626796022057533, 0.010915122926235199, 0.02401139959692955, -0.021494291722774506, 0.0320589579641819, 0.1178785115480423, -0.14888666570186615, -0.09823127090930939, -0.023650631308555603, -0.018233349546790123, 0.25984716415405273, -0.035870783030986786, -0.14617161452770233, -0.24327345192432404, 0.19964195787906647, -0.011048858053982258, -0.12243378162384033, 0.04513731598854065, -0.06814836710691452], [0.00024530140217393637, -0.0005147871561348438, -0.022913461551070213, 0.0008879548986442387, -0.002747787395492196, 0.009533452801406384, 0.00011926240404136479, 0.0026420278009027243, 0.011457442305982113, -0.0029605820309370756, 0.0005076154484413564, 0.008361812680959702, -0.0034235892817378044, 0.009643341414630413, 0.001429943135008216, 0.0026303071063011885, 0.007152996491640806, -0.0017594675300642848, 0.012766201049089432, -0.007448667194694281, -0.008822892792522907, -0.012682091444730759, -0.010617812164127827, 0.01946534588932991, -0.011181559413671494, -0.014157340861856937, -0.012342146597802639, 0.016985582187771797, -0.0024386916775256395, -0.011758821085095406, 0.007476209197193384, -0.013506224378943443], [-0.015044650994241238, 0.03733426705002785, 0.08131274580955505, 0.005543960724025965, -0.015947677195072174, -0.12082146108150482, 0.02887696772813797, -0.03774261102080345, 0.034852512180805206, -0.02099286951124668, -0.004233459942042828, 0.05077674612402916, -0.025127416476607323, -0.0249575637280941, -0.005423953291028738, 0.005339297000318766, -0.00887327827513218, -0.0423315092921257, 0.027334406971931458, -0.0434291772544384, -0.03306729346513748, 0.0006490935338661075, 0.02554537169635296, 0.27053728699684143, 0.026631150394678116, -0.011696494184434414, 0.018672393634915352, 0.06741566956043243, 0.010261905379593372, 0.016355089843273163, -0.014946194365620613, -0.008673501200973988], [-0.0056915306486189365, 0.011433091945946217, 0.023883124813437462, 0.006817369256168604, -0.009416993707418442, -0.0381641685962677, 0.006662920117378235, -0.010779645293951035, 0.033798832446336746, -0.011378245428204536, 0.0010339310392737389, 0.029449215158820152, -0.007686889264732599, -0.01112969871610403, -0.003616651054471731, 0.00645346799865365, -0.01609785296022892, -0.0012572879204526544, 0.006719741504639387, -0.03306405246257782, -0.016070863232016563, 0.0016661060508340597, -0.0017022495158016682, 0.10166385024785995, -0.005194054450839758, -0.03905437886714935, 0.014178511686623096, -0.005577100440859795, -0.0015644016675651073, -0.00846058689057827, 0.006920558866113424, -0.015438342466950417], [-0.002419787924736738, 0.002933224430307746, 0.004866844974458218, 0.0023611150681972504, -5.677915760315955e-05, -0.013016466051340103, 0.0003877489943988621, -0.003920295275747776, 0.029384374618530273, -0.0015782227274030447, 0.0012284624390304089, 0.013993402011692524, -0.001939548528753221, -0.0016480444464832544, -0.0029153411742299795, 0.005411622580140829, -0.009983918629586697, -0.006183144636452198, 0.017012812197208405, -0.01897379197180271, -0.02025849185883999, -0.0004883218207396567, -0.0028160163201391697, 0.038421884179115295, -0.003504722146317363, -0.04188340902328491, 0.003037941176444292, 0.0036479283589869738, 0.000884735956788063, -0.021155325695872307, 0.008080394007265568, -0.023961711674928665], [0.006577332969754934, -0.014720589853823185, -0.0009210949647240341, 0.00042203758493997157, 0.0013839828316122293, -0.04162939265370369, -0.0059736198745667934, 0.019557388499379158, 0.01992937922477722, -0.00025498709874227643, 0.014979448169469833, 0.03909255936741829, 0.005503465421497822, 0.033029329031705856, -0.007427505683153868, 0.007886163890361786, 0.01451869122684002, -0.0018235183088108897, 0.015019320882856846, -0.00393342599272728, -0.0015887883491814137, -0.00375183904543519, -0.006430365145206451, 0.10655780881643295, -0.004636016674339771, -0.0242634117603302, -0.04935365170240402, 0.05210815370082855, 0.004600697662681341, -0.021892087534070015, 0.001358662499114871, -0.010867828503251076], [0.004298937972635031, -0.01138394046574831, 0.06637512147426605, 0.009580203332006931, -0.0016290699131786823, -0.03281163051724434, 0.002865269547328353, 0.01977360062301159, 0.007304741535335779, -0.008528019301593304, 0.027465054765343666, 0.07173891365528107, -0.006827306468039751, 0.006640686187893152, -0.008682766929268837, 0.012551684863865376, 0.023999709635972977, -0.028925051912665367, 0.02205241098999977, -0.014456599950790405, -0.01139378733932972, -0.02299846149981022, 0.010078204795718193, 0.14822198450565338, 0.008962418884038925, -0.0171237513422966, -0.08507490903139114, 0.08306554704904556, 0.009776728227734566, -0.033214300870895386, -0.0015549868112429976, -0.010209523141384125], [-0.0015433261869475245, 0.002064706292003393, -0.004520305432379246, 0.001540211378596723, -0.0013525921385735273, 0.003492681309580803, 0.0006613515433855355, -0.002251134254038334, 0.017795663326978683, -0.0023339809849858284, -0.0011361601063981652, 0.004638831131160259, -0.0029696589335799217, 0.0037779374979436398, 0.0003662164672277868, 0.003705789567902684, -0.0034477009903639555, -0.003630955470725894, 0.015045765787363052, -0.01246515940874815, -0.014946912415325642, -0.005274690221995115, -0.00756032532081008, 0.02633299119770527, -0.007179978769272566, -0.0260440856218338, 0.0022118675988167524, 0.00765325827524066, -0.0006356416852213442, -0.0158655047416687, 0.008449935354292393, -0.018080925568938255], [-0.01732809469103813, 0.06793919205665588, 0.23565572500228882, 0.022395825013518333, 0.002256083767861128, -0.21273396909236908, 0.01787145808339119, -0.042061321437358856, 0.12841182947158813, -0.018085015937685966, 0.013051374815404415, 0.1326969861984253, -0.016282647848129272, -0.009731028228998184, -0.03301401063799858, 0.025838959962129593, -0.05256571248173714, -0.04776685684919357, 0.04900888353586197, -0.12590503692626953, -0.08793427795171738, 0.028027882799506187, 0.035380322486162186, 0.40519246459007263, 0.031342554837465286, -0.15272891521453857, -0.0467962920665741, 0.09226302802562714, 0.022819174453616142, -0.03418081998825073, 0.00755865266546607, -0.05927227437496185], [0.005937278736382723, -0.003679614746943116, 0.032905131578445435, 0.0019481094786897302, 0.0006052895914763212, -0.08054390549659729, -0.0018964172340929508, 0.00766014726832509, -0.005695152096450329, 0.0005023805424571037, 0.00801205076277256, 0.013881316408514977, 0.003339861985296011, 0.004800810478627682, -0.0041700564324855804, 0.002563999267295003, -0.015164094977080822, -0.001916557434014976, -0.007387888617813587, 0.002739876974374056, -0.003077672328799963, -0.003229419933632016, 0.0034296694211661816, 0.09864494949579239, 0.003036150708794594, -0.03746584430336952, -0.026428136974573135, 0.02392669767141342, 0.002012311713770032, -0.021242747083306313, -0.004445030819624662, -0.0001137482249760069], [0.001018053269945085, -0.005196449346840382, 0.0015876032412052155, -5.606689228443429e-05, 0.002835277933627367, -0.007876665331423283, -0.002016890561208129, 0.004653451032936573, 0.0057390411384403706, 0.0008751194691285491, 0.003390157362446189, 0.010491100139915943, 0.0016284656012430787, 0.007989774458110332, -0.0019826104398816824, 0.0016682334244251251, 0.002700092038139701, -0.00512757757678628, 0.0027522100135684013, 0.0034263450652360916, -0.00019765697652474046, -0.0012368704192340374, 0.001385097042657435, 0.03996007516980171, 0.0024859439581632614, -0.004487539175897837, -0.016157004982233047, 0.018632691353559494, 0.0029489852022379637, -0.0031682346016168594, -0.0007379287853837013, -0.0021310639567673206], [-0.00516241230070591, 0.039611853659152985, 0.09778209775686264, 0.007812661118805408, -0.02014424465596676, -0.031406957656145096, 0.016931302845478058, -0.07135768234729767, 0.022296469658613205, -0.007268667221069336, -0.02695830538868904, -0.015062904916703701, -0.013524488545954227, -0.1291843056678772, 0.005311311688274145, -0.018732769414782524, -0.07225821167230606, 0.008296900428831577, -0.005084319971501827, -0.030785929411649704, -0.02394345961511135, 0.02373291738331318, 0.014325996860861778, 0.03187631070613861, 0.005884830839931965, -0.032769009470939636, 0.1258707046508789, -0.17694498598575592, -0.015468137338757515, 0.0011123348958790302, -0.00043711005127988756, 0.0010504069505259395], [0.005014963448047638, -0.015627596527338028, 0.06168242171406746, 0.00047400713083334267, 0.013268803246319294, -0.030911363661289215, -0.018362419679760933, 0.008213838562369347, 0.04996500909328461, 0.012101300992071629, 0.01208359096199274, 0.023680519312620163, 0.017889387905597687, -0.005185963585972786, -0.015439772047102451, 0.010083651170134544, -0.03464953973889351, 0.0038453033193945885, 0.016796760261058807, -0.024746164679527283, -0.025748172774910927, 0.042882297188043594, -0.006199100986123085, -0.08795151859521866, -0.004377095028758049, -0.07566371560096741, 0.08277568966150284, -0.06258586794137955, 0.0030657267197966576, -0.045045092701911926, 0.017502157017588615, -0.036609500646591187], [-0.0027599530294537544, -0.000686549348756671, 0.002435744507238269, 0.0032509872689843178, -0.003216310404241085, -0.007799446117132902, -0.0007726580370217562, -0.0110496636480093, 0.016281157732009888, -0.0025527372490614653, 0.0009178322507068515, 0.010884872637689114, 0.0049568647518754005, -0.013673706911504269, -0.0020944077987223864, 0.0017336736200377345, -0.034680500626564026, 0.010718710720539093, 0.0038174123037606478, -0.022303231060504913, -0.012352241203188896, 0.01323432195931673, -0.0027527681086212397, -0.026450105011463165, -0.0052643222734332085, -0.022377531975507736, 0.03203364461660385, -0.025365155190229416, -0.004823762457817793, -0.008956536650657654, 0.005542008671909571, -0.008386919274926186], [-0.006954549811780453, -0.014023669995367527, -0.020798444747924805, 0.0016779161524027586, 0.013046962209045887, 0.002032394055277109, -0.012234539724886417, 0.0009044284233823419, 0.05214330181479454, 0.003068022197112441, 0.006383304018527269, 0.02638694830238819, 0.006288815755397081, 0.022218504920601845, -0.006239990703761578, 0.011919762007892132, -0.03368356078863144, -0.0012651454890146852, 0.02721703052520752, -0.022446274757385254, -0.036521900445222855, -0.00947366189211607, -0.0074610961601138115, -0.02763233706355095, -0.010407678782939911, -0.072135791182518, -0.05160871520638466, 0.054028723388910294, 0.0010343557223677635, -0.040681980550289154, 0.018462445586919785, -0.04358892887830734], [-0.008864065632224083, 0.0021240240894258022, 0.009668402373790741, 0.002044955501332879, -0.004947574809193611, -0.008457175455987453, -0.0010629690950736403, -0.02283620834350586, -0.006153239868581295, -0.0026307690422981977, -0.007359195500612259, -0.006801874842494726, -0.00046287442091852427, -0.0340239591896534, 0.0016615076456218958, 0.00017735862638801336, -0.04993264749646187, 0.008274290710687637, 0.00890157651156187, -0.02105983905494213, -0.01395971979945898, 0.013416532427072525, -0.0035892915911972523, 0.039143484085798264, -0.0068443454802036285, -0.018914682790637016, 0.056367870420217514, -0.04466598853468895, -0.005121335387229919, 0.013769788667559624, 0.008720878511667252, -0.004624088294804096], [-0.015948425978422165, 0.05426878482103348, 0.19618716835975647, 0.020665649324655533, -0.013183957897126675, -0.20408190786838531, 0.02070629596710205, -0.05054289847612381, 0.10044769942760468, -0.021452613174915314, 0.007188897579908371, 0.08752410858869553, -0.007073164917528629, -0.03348798677325249, -0.022808993235230446, 0.01811610907316208, -0.1110580712556839, -0.03758576884865761, 0.03210367634892464, -0.11099894344806671, -0.08024869114160538, 0.04672970995306969, 0.03601737692952156, 0.276739239692688, 0.03858553245663643, -0.11312644183635712, 0.027684343978762627, -0.007077845279127359, 0.007176531013101339, -0.02195190265774727, 0.005831842310726643, -0.052590515464544296], [-0.0002295985905220732, 0.00824926607310772, 0.1342121660709381, 0.004001348279416561, 0.010609667748212814, -0.08869004249572754, -0.013638266362249851, -0.013899791985750198, 0.0587155818939209, 0.012432697229087353, 0.005583819001913071, 0.024616263806819916, 0.015462808310985565, -0.03515734151005745, -0.017252232879400253, 0.009321663528680801, -0.06559190899133682, -0.011523203924298286, 0.01042097806930542, -0.04302181676030159, -0.03924526274204254, 0.057630617171525955, 0.007810559123754501, -0.04689304903149605, 0.01308485772460699, -0.0878177210688591, 0.11149318516254425, -0.08617228269577026, 0.0054102991707623005, -0.04148755967617035, 0.014843644574284554, -0.035848744213581085], [-0.03320363536477089, -0.05747486650943756, 0.28611376881599426, 0.018926439806818962, 0.060259703546762466, -0.19438916444778442, -0.02739916741847992, -0.060932792723178864, 0.10697019845247269, 0.019295403733849525, 0.044688157737255096, 0.1867171823978424, 0.025946123525500298, -0.13614344596862793, -0.08601941913366318, 0.0641544759273529, -0.3615769147872925, -0.08741459250450134, 0.02142152562737465, -0.0449148491024971, -0.11050211638212204, 0.14097119867801666, 0.08902495354413986, 0.13836732506752014, 0.07586784660816193, -0.15697453916072845, 0.3762809932231903, -0.1497727781534195, 0.07446354627609253, -0.0031924829818308353, 0.032094866037368774, -0.06694316864013672], [-0.0007811098475940526, 0.014963608235120773, 0.11927570402622223, 0.00478557450696826, 0.00981961190700531, -0.08093129843473434, -0.010024062357842922, -0.010051469318568707, 0.055336132645606995, 0.009736021980643272, 0.004682212136685848, 0.02450452744960785, 0.010479774326086044, -0.02332013100385666, -0.015289811417460442, 0.008383156731724739, -0.04900678992271423, -0.013158351182937622, 0.012394961901009083, -0.037414029240608215, -0.036536380648612976, 0.04883131384849548, 0.010269601829349995, -0.003582658478990197, 0.014325188472867012, -0.08287641406059265, 0.09514162689447403, -0.06850600242614746, 0.006264478899538517, -0.03339996933937073, 0.011890542693436146, -0.032940249890089035], [-0.007864127866923809, 0.023127416148781776, 0.054910216480493546, 0.007930821739137173, -0.006463431287556887, -0.044546451419591904, 0.005732543300837278, -0.020350031554698944, 0.03647758439183235, -0.007500864565372467, -0.005316412542015314, 0.021914895623922348, -0.004759722389280796, -0.026090649887919426, -0.002004025736823678, 0.0056586782447993755, -0.03181861340999603, -0.008549993857741356, 0.016318101435899734, -0.045830126851797104, -0.03296208754181862, 0.0074713570065796375, 0.0006008045747876167, 0.05476544052362442, -0.0027962950989603996, -0.04723656177520752, 0.03473762422800064, -0.026144128292798996, -0.0022403602488338947, -0.01733376644551754, 0.010169267654418945, -0.023586003109812737], [-0.018160449340939522, 0.021217474713921547, 0.3266608715057373, 0.0343763642013073, 0.02125084586441517, -0.33170875906944275, -0.02496708370745182, -0.030233317986130714, 0.3359314799308777, -0.0061820936389267445, 0.048208605498075485, 0.27410754561424255, 0.020911557599902153, -0.002433326095342636, -0.06713014096021652, 0.0664132833480835, -0.16177812218666077, -0.037233784794807434, 0.13203167915344238, -0.26027795672416687, -0.20816005766391754, 0.05878562852740288, 0.012978286482393742, 0.46315160393714905, -0.0005739082116633654, -0.4466356635093689, 0.020885132253170013, -0.0023866049014031887, 0.01660745218396187, -0.18406333029270172, 0.07196506857872009, -0.19762760400772095], [0.023426633328199387, -0.01018768735229969, 0.1586058884859085, 0.01670137047767639, 0.022664325311779976, -0.192702978849411, -0.021724505349993706, 0.052270762622356415, 0.12647537887096405, 0.016567913815379143, 0.06558699160814285, 0.13759064674377441, 0.030302926898002625, 0.040231335908174515, -0.0474897101521492, 0.02835225872695446, -0.05046364292502403, -0.014426620677113533, 0.024816514924168587, -0.061562299728393555, -0.03078356385231018, 0.03414979204535484, 0.026415474712848663, 0.13217337429523468, 0.02160501852631569, -0.16508473455905914, -0.04355129599571228, 0.01800011284649372, 0.01497137825936079, -0.06461693346500397, -0.002787593752145767, -0.052566174417734146], [-0.0005984673625789583, -0.0073480550199747086, 0.0023888072464615107, 0.0015614404110237956, 0.00035315484274178743, -0.012733526527881622, -0.0022435933351516724, 0.0022146666888147593, 0.013823344372212887, -0.0010699888225644827, 0.0044967313297092915, 0.016985107213258743, 0.0017398936906829476, 0.0046401177532970905, -0.002968934830278158, 0.004368550609797239, -0.0060973395593464375, -0.0020417519845068455, 0.007839002646505833, -0.009190702810883522, -0.00825021043419838, -0.0021848641335964203, -0.0006392198847606778, 0.031141212210059166, -0.0010333542013540864, -0.016056759282946587, -0.013211006298661232, 0.014361867681145668, 0.0012183991493657231, -0.007359395269304514, 0.003546070773154497, -0.008720098994672298], [-0.004652692936360836, 0.013943292200565338, 0.0015905281761661172, 0.0032475613988935947, -0.006303516682237387, 0.0009113519918173552, 0.00380311137996614, -0.01408662460744381, 0.005654939915984869, -0.004496847745031118, -0.00871901586651802, -0.010138336569070816, -0.0044627427123487, -0.020251162350177765, 0.005128344986587763, -0.001947492710314691, -0.015658678486943245, 0.006322254426777363, 0.00452006421983242, -0.018385183066129684, -0.010936960577964783, -0.002739490242674947, -0.005741228815168142, 0.005952701438218355, -0.00964601244777441, -0.010702941566705704, 0.026075439527630806, -0.02657189592719078, -0.006287031807005405, -0.0014665198978036642, 0.0056990222074091434, -0.004911146592348814], [-0.001691037556156516, 0.004768011160194874, -0.009141047485172749, 0.002562633715569973, -0.007192430552095175, -0.001942264847457409, 0.004201033152639866, -0.005068762693554163, 0.00847986713051796, -0.006220783106982708, -0.00171856046654284, 0.008436528034508228, -0.0033437954261898994, -0.00296601839363575, 0.0016410923562943935, 0.0006482460303232074, -0.001844598213210702, 0.004670952912420034, 0.007113922853022814, -0.013444680720567703, -0.007339161355048418, -0.005001123063266277, -0.007328692823648453, 0.016681989654898643, -0.008485721424221992, -0.00945725105702877, -0.0058701192028820515, -0.0004393513372633606, -0.004246785305440426, -0.005045491736382246, 0.003157308092340827, -0.0071048797108232975], [-0.00994626060128212, 0.009308050386607647, 0.009443012997508049, 0.0023488737642765045, -0.007259739562869072, -0.06341765075922012, -0.0005316556780599058, -0.031783632934093475, 0.017007863149046898, -0.00574203347787261, -0.019300587475299835, -0.01743145100772381, -0.0044364482164382935, -0.04305717721581459, 0.005449766758829355, -0.0007058526971377432, -0.05469479039311409, 0.01627371832728386, 0.021143997088074684, -0.04303121566772461, -0.009234076365828514, 0.007424705196171999, -0.007269738242030144, 0.10943742096424103, -0.01284742821007967, 0.013334641233086586, 0.065654456615448, -0.07199189811944962, -0.009328939020633698, 0.015551337972283363, 0.001871383748948574, 0.003901194781064987], [-0.001858764560893178, -0.0017665231134742498, -0.0006477126153185964, 7.08542502252385e-05, -0.0004912394215352833, 0.006966894958168268, 2.014821620832663e-05, -0.002429727930575609, -0.007295240182429552, -0.0006308562005870044, -0.0029280332382768393, -0.008320117369294167, 0.0018868943443521857, -0.006256148684769869, 0.002823885530233383, -0.0014167515328153968, -0.006090444978326559, -0.00011850440932903439, -0.0016932121943682432, 0.002649992238730192, 0.0010432257549837232, -0.0014247812796384096, -5.164791218703613e-05, -0.0026994962245225906, 0.00027340074302628636, 0.00736242113634944, -0.0025586867704987526, 0.0001364370109513402, -0.0012317373184487224, 0.0036902560386806726, 0.0006110506365075707, 0.0031698073726147413], [0.004873940721154213, 0.007545314729213715, -0.13758084177970886, 0.006543811876326799, -0.015771158039569855, 0.006138569209724665, 0.005130165722221136, 0.028504906222224236, 0.006442429032176733, -0.015561172738671303, 0.020047783851623535, 0.04656483978033066, -0.005428466014564037, 0.07402411103248596, -0.002369752386584878, 0.010675028897821903, 0.04280567169189453, 0.009150960482656956, 0.020321855321526527, -0.016798237338662148, 0.0019173730397596955, -0.06098718196153641, -0.024301791563630104, 0.07611392438411713, -0.02547287940979004, 0.013312277384102345, -0.17915454506874084, 0.14577320218086243, -0.0039855423383414745, -0.00335075706243515, 0.002405505394563079, -0.011639283038675785], [-0.021366531029343605, 0.11539319157600403, 0.19473394751548767, 0.0239303857088089, -0.0017916823271661997, -0.3885785639286041, 0.035707924515008926, 0.06672542542219162, 0.021809561178088188, -0.03782626986503601, 0.05350300669670105, 0.07039319723844528, -0.042526088654994965, 0.20144979655742645, -0.014259399846196175, 0.022266127169132233, 0.0006303649861365557, -0.03790032118558884, 0.06032852455973625, -0.04378072917461395, 0.026576407253742218, 0.051419276744127274, 0.06954118609428406, 0.2832549214363098, 0.05970590561628342, 0.05211305990815163, -0.011763526126742363, 0.2842063903808594, 0.022470366209745407, 0.06555858999490738, -0.06058475002646446, 0.07484140247106552], [-0.0007009092951193452, 0.0025092868600040674, 0.0005430354503914714, 0.0005625411286018789, 0.0007362189935520291, -0.0031530980486422777, 0.00016774778487160802, 8.394190081162378e-05, 0.002663827035576105, -0.0003154094738420099, 0.00037881897878833115, 0.0028480906039476395, -0.0012307030847296119, 0.0006666897097602487, -0.00014131701027508825, 0.0007000032928772271, 0.0033273918088525534, -0.0025866334326565266, 0.0012009309139102697, -0.0013155628694221377, -0.001634106389246881, -0.003176013706251979, 0.0025082093197852373, 0.005132929887622595, 0.0009945621713995934, -0.0021987021900713444, -0.003501667408272624, 0.005069281440228224, 0.0005128040793351829, -0.00037650790181942284, 0.0004242077120579779, -0.000760744558647275], [0.0007483269437216222, -0.005110322497785091, -0.019393321126699448, -0.0007862498750910163, -0.001976501662284136, 0.010487262159585953, 0.0002785321557894349, 0.0012641237117350101, -0.009160159155726433, -0.001032680389471352, 0.00046044288319535553, -0.002955210627987981, 0.0006107520312070847, 0.001474265125580132, 0.0018754983320832253, -0.0008117028628475964, 0.0020943046547472477, 0.0016583630349487066, -0.0021980018354952335, 0.005316683556884527, 0.0060214996337890625, -0.003560979850590229, -0.002179620321840048, -0.01236648391932249, -0.0020651870872825384, 0.014206165447831154, -0.017726987600326538, 0.01151016540825367, -0.0008245044737122953, 0.005244693718850613, -0.0013828602386638522, 0.005449507851153612], [-0.029547112062573433, -0.02672426402568817, -0.0892898216843605, 0.017663780599832535, 0.022483566775918007, 0.13625232875347137, -0.022954847663640976, -0.023668451234698296, 0.15489037334918976, -0.014146694913506508, -0.03912067785859108, -0.060433439910411835, -0.0120182354003191, 0.10191629827022552, 0.044470567256212234, -0.01736856997013092, -0.026876676827669144, -0.021935617551207542, 0.0910281240940094, -0.07038167864084244, -0.06124845892190933, -0.02328229323029518, 0.02443666383624077, 0.14336107671260834, -0.004546621814370155, -0.03836742416024208, -0.026431404054164886, 0.2252057045698166, 0.011903648264706135, -0.04080168902873993, 0.05874519422650337, -0.11680325120687485], [0.0010611019097268581, 0.0033238702453672886, -0.0180766973644495, 0.00015488440112676471, -0.005811361130326986, 0.0042384350672364235, 0.005139670800417662, 0.0025283540599048138, -0.007534106262028217, -0.004546945448964834, 0.00017099590331781656, 0.0035225171595811844, -0.004246081691235304, 0.010999947786331177, 0.002640831284224987, -0.0003595167654566467, 0.01440890971571207, -0.0020564876031130552, 0.0005524927983060479, -0.0016556482296437025, 0.004229692276567221, -0.013253607787191868, -0.0034646992571651936, 0.02281816117465496, -0.0037430538795888424, 0.014905096031725407, -0.014315864071249962, 0.02330506592988968, -0.0017994389636442065, 0.006797784473747015, -0.002556002698838711, 0.004540019668638706], [0.003962428774684668, 0.004723784979432821, -0.06601238995790482, 0.0018605474615469575, -0.013977454043924809, 0.028112785890698433, 0.009613721631467342, 0.005636413116008043, -0.01617708057165146, 0.000545333547051996, -0.0076173110865056515, -0.027715887874364853, -0.012596547603607178, -0.024074558168649673, 0.004682149738073349, -0.010171077214181423, -0.008786874823272228, -0.019952867180109024, 0.004371154587715864, 0.030278149992227554, 0.01335582323372364, 0.012200257740914822, -0.007255886681377888, -0.10543893277645111, 0.001258977921679616, 0.045109041035175323, 0.01562868431210518, -0.02814684435725212, -0.0033896155655384064, 0.005302837584167719, -0.006740214303135872, 0.009960390627384186], [-0.007634513080120087, 0.013781080953776836, 0.02393980696797371, 0.008092883042991161, -0.010850310325622559, -0.053516749292612076, 0.007811949588358402, -0.016032041981816292, 0.04206957668066025, -0.013919596560299397, -4.785422424902208e-05, 0.029035255312919617, -0.009500136598944664, -0.01750081405043602, -0.006204825360327959, 0.005856780800968409, -0.030039789155125618, 0.0008278262102976441, 0.023398658260703087, -0.03371574357151985, -0.022289935499429703, 0.006436347030103207, -0.0029786580707877874, 0.08916725963354111, -0.006222238298505545, -0.02930028736591339, 0.018370337784290314, -0.02249886840581894, -0.0022423011250793934, -0.003575689159333706, 0.00539123360067606, -0.023864226415753365], [-0.0011871781898662448, 0.00783756747841835, -0.0027817708905786276, 0.0018682803492993116, -0.0029843489173799753, -0.009269125759601593, 0.004789052065461874, -0.0029569135513156652, -0.013961531221866608, -0.00380476051941514, -0.0015492970123887062, -0.0034214614424854517, -0.0036108919885009527, -0.004367462825030088, 0.0014366180403158069, -0.001811119494959712, 0.008398656733334064, -0.007545188535004854, -0.0039903284050524235, -0.0012242041993886232, 0.004587624222040176, -0.0050146691501140594, 0.0032917612697929144, 0.03756842389702797, 0.004593249876052141, 0.022550852969288826, -0.007966295816004276, 0.011462081223726273, 0.0011326854582875967, 0.0163529422134161, -0.004997126758098602, 0.011074955575168133], [0.005551372189074755, -0.012116516008973122, -0.015493667684495449, 0.0010426193475723267, 0.0028632800094783306, -0.039921849966049194, -0.006109472364187241, 0.0209989994764328, 0.019322074949741364, -0.0001462208165321499, 0.01433825958520174, 0.012205074541270733, 0.005534361582249403, 0.038488373160362244, -0.006523814983665943, 0.005561453755944967, 0.020485250279307365, -0.00445295125246048, 0.02606566809117794, -0.006187737453728914, -0.009067348204553127, -0.0059977625496685505, -0.0069600241258740425, 0.12922421097755432, -0.004894337151199579, -0.0059060947969555855, -0.06420696526765823, 0.0675038993358612, 0.004508545622229576, -0.03566160053014755, 0.004806207958608866, -0.020466314628720284], [0.002990631153807044, -0.027764881029725075, 0.0045349253341555595, 0.010595153085887432, 0.006855717394500971, 0.011877073906362057, -0.002311860444024205, 0.0517856664955616, 0.02554175816476345, -0.011143959127366543, 0.027365047484636307, 0.10009163618087769, -0.004376159515231848, 0.07448416203260422, -0.020861158147454262, 0.020736323669552803, 0.027652816846966743, -0.034703753888607025, 0.08888590335845947, -0.027174653485417366, -0.027932239696383476, -0.04180227592587471, 0.004757555667310953, 0.22135663032531738, 0.0020627216435968876, -0.0481286458671093, -0.17028287053108215, 0.19897562265396118, 0.02107582613825798, -0.07128628343343735, 0.014995443634688854, -0.054100535809993744], [0.0002740012714639306, 0.005225846078246832, -0.02691570669412613, 0.0006491597159765661, -0.005446545779705048, 0.012303902767598629, 0.006106797605752945, 0.0005347297992557287, -0.017390605062246323, -0.004399572033435106, -0.0024578773882240057, -0.008756651543080807, -0.007102201692759991, 0.007197853177785873, 0.004414575174450874, -0.002798693021759391, 0.015334666706621647, -0.0009267202694900334, -0.002453403314575553, 0.006368686910718679, 0.008021185174584389, -0.012404797598719597, -0.003661165712401271, 0.019803568720817566, -0.003489827271550894, 0.028847219422459602, -0.0168645977973938, 0.022173864766955376, -0.0007131128804758191, 0.01360662654042244, -0.00426905183121562, 0.009571724571287632], [0.0005450231255963445, 0.02438812144100666, -0.006379249505698681, -0.001183260465040803, -0.01321934163570404, -0.012684290297329426, 0.01374968234449625, -0.03632495924830437, -0.04671620577573776, -0.0012446804903447628, -0.013152160681784153, -0.028622882440686226, -0.002730865264311433, -0.08222540467977524, 0.005398232024163008, -0.01582920178771019, 0.0016763731837272644, 0.0023991658817976713, -0.02036663331091404, 0.025076888501644135, 0.026939429342746735, 0.02232261747121811, 0.006225932855159044, -0.023479361087083817, 0.010959259234368801, 0.08564592897891998, -0.01872922107577324, -0.010274078696966171, -0.0030474290251731873, 0.052613258361816406, -0.023733627051115036, 0.03914332017302513], [0.004829333629459143, -0.005709815304726362, 0.008478628471493721, 0.00225052866153419, 0.00812405627220869, -0.05499286204576492, -0.004271734040230513, 0.009491284377872944, -0.03283527120947838, 0.0017279537860304117, 0.008319433778524399, 0.004536289721727371, 0.004545925185084343, 0.0016554727917537093, -0.010309609584510326, 0.0026527370791882277, 0.021663954481482506, -0.0025432275142520666, 0.006848584860563278, -0.014116442762315273, -0.0031422192696481943, -0.01253002230077982, -0.00031359217246063054, 0.16196417808532715, -0.0013495964230969548, 0.001656902488321066, -0.02583310939371586, 0.03568907827138901, 0.01301616057753563, -0.01927214488387108, 0.0023274621926248074, -0.021317260339856148], [0.0017473615007475019, -0.0056860074400901794, -0.007449052296578884, -0.0005188127397559583, 0.002613646211102605, -0.0006354640354402363, -0.0024516938719898462, 0.004539960529655218, -0.00046073374687694013, 0.0015856132376939058, 0.002920516300946474, -0.00030102895107120275, 0.00202210433781147, 0.004968930501490831, -0.0015580971958115697, 0.0007293839589692652, 0.00437108613550663, -0.003278563730418682, 0.0027376331854611635, 0.006528270430862904, 0.0009901417652145028, -0.00038455415051430464, -0.00011231310782022774, 0.006191438063979149, 0.00080707116285339, -0.0034202311653643847, -0.016488512977957726, 0.012804434634745121, 0.002206968143582344, -0.005719752516597509, -0.00019061550847254694, -0.0011875997297465801], [-0.011109192855656147, 0.041728321462869644, 0.14974261820316315, 0.009649857878684998, 0.0029207998886704445, -0.02422361820936203, 0.009641747921705246, -0.12924475967884064, 0.0023263636976480484, 0.0036613044794648886, -0.041012953966856, -0.0381588414311409, -0.0014385657850652933, -0.1442716121673584, 0.005546194966882467, -0.031613901257514954, -0.20366060733795166, 0.006536476314067841, -0.02009161375463009, -0.03136441484093666, -0.03388242423534393, 0.09535600990056992, 0.03340676426887512, 0.0008285552612505853, 0.02528834156692028, -0.013000840321183205, 0.25000858306884766, -0.26031196117401123, -0.012755651958286762, 0.012639649212360382, 0.004863247275352478, 0.002242304151877761], [7.173817721195519e-05, 0.01098768413066864, 0.03589322417974472, 0.0006142377387732267, 0.00343769951723516, -0.00938736367970705, 0.0007927169208414853, -0.02145715057849884, -0.021865738555788994, 0.004967577755451202, -0.0014637623680755496, -0.027334710583090782, 0.008629050105810165, -0.04557269066572189, -0.0028639286756515503, -0.0068247090093791485, -0.053638581186532974, 0.008249626494944096, -0.02486351691186428, 0.0003960977483075112, 0.01098041795194149, 0.04742948338389397, 0.016957251355051994, -0.10340137779712677, 0.019296126440167427, 0.022838803008198738, 0.0955142229795456, -0.06590019911527634, 0.0011234929552301764, 0.019765453413128853, -0.00915595144033432, 0.0225203987210989], [-0.0017892153700813651, -0.003930996172130108, -0.0057076141238212585, 0.0028182563837617636, -0.0018849677871912718, 0.0028062413912266493, -0.003442842746153474, -0.005061574280261993, 0.011495465412735939, -0.0017059757374227047, 0.002365696243941784, 0.00933066289871931, 0.006347238551825285, -0.007294449023902416, -0.0023956408258527517, 0.002361767692491412, -0.03618691861629486, 0.014486025087535381, 0.0032785667572170496, -0.017813539132475853, -0.00859532319009304, 0.01631917990744114, -0.007960743270814419, -0.05518330633640289, -0.010528264567255974, -0.014460064470767975, 0.036150287836790085, -0.014919831417500973, -0.004353610333055258, -0.009159309789538383, 0.00785171426832676, -0.009747921489179134], [-0.003910205326974392, 0.01195613481104374, 0.031895678490400314, 0.0049199508503079414, 0.004963464569300413, -0.058378614485263824, 0.0033432103227823973, -0.008901581168174744, -0.017118534073233604, -0.0014687757939100266, 0.0031844228506088257, 0.0016592893516644835, 0.0006769903702661395, -0.005323249381035566, -0.0019932587165385485, -0.004172761458903551, -0.02089693583548069, -0.011615165509283543, -0.017620084807276726, 0.016537966206669807, 0.0036459160037338734, -0.0017128942999988794, 0.022112449631094933, -0.026537999510765076, 0.02127045951783657, 0.034695886075496674, -0.04626220092177391, 0.05220598727464676, 0.005215947981923819, 0.024680444970726967, -0.012543793767690659, 0.016235051676630974], [-0.011218547821044922, 0.006668880581855774, 0.025984542444348335, 0.002817802131175995, -0.008189576677978039, -0.01704600639641285, 0.00021222732902970165, -0.032332319766283035, -0.0016825094353407621, -0.004516194108873606, -0.010495223104953766, -0.01302694994956255, -0.0022599168587476015, -0.046457789838314056, 0.0009857021505013108, -0.0019923667423427105, -0.06540928035974503, 0.009722302667796612, 0.009186462499201298, -0.017452795058488846, -0.017914732918143272, 0.019460812211036682, -0.0036087804473936558, 0.021425938233733177, -0.006609816569834948, -0.01995336078107357, 0.06867735087871552, -0.06137186661362648, -0.006879862397909164, -0.00010815684800036252, 0.008109943941235542, -0.010861664079129696], [-0.009723199531435966, 0.06442776322364807, 0.1380898654460907, 0.01885843463242054, -0.01213782373815775, -0.13070940971374512, 0.03656281530857086, -0.06024101376533508, 0.008662217296659946, -0.02255123294889927, -0.017030959948897362, -0.006372762843966484, -0.032161373645067215, -0.056655775755643845, -0.006632269360125065, -0.003210823517292738, -0.07891177386045456, -0.06133407726883888, -0.013351806439459324, -0.031067369505763054, -0.037566665560007095, 0.014474946074187756, 0.05076202005147934, 0.22422243654727936, 0.05016840249300003, 0.008045176975429058, 0.09651399403810501, -0.04100986570119858, 0.006426521576941013, 0.022426923736929893, -0.017141813412308693, -0.0003516835276968777], [0.0038731726817786694, 0.014965477399528027, 0.07959658652544022, 0.0007504314999096096, -0.0001336254208581522, -0.04758474603295326, -0.0008694436401128769, -0.014087796211242676, -0.003043847857043147, 0.008750186301767826, -0.004702661652117968, -0.021033914759755135, 0.0028174526523798704, -0.029342642053961754, -0.0019389461958780885, -0.006369194947183132, -0.020801855251193047, -0.011723469011485577, -0.02246680296957493, 0.0036915591917932034, -0.0034097996540367603, 0.03462216630578041, 0.014863177202641964, -0.07768482714891434, 0.02245168387889862, 0.005335185676813126, 0.10462048649787903, -0.06773439049720764, 0.0018461218569427729, 0.016206061467528343, -0.005524138920009136, 0.008174300193786621], [0.035952575504779816, -0.01047496683895588, 0.24509382247924805, 0.01801859214901924, -0.027574585750699043, -0.29798367619514465, 0.02379949390888214, -0.07731464505195618, -0.05981746315956116, -0.00615527993068099, 0.06987248361110687, 0.13849367201328278, -0.0057664671912789345, -0.20247720181941986, -0.07405950874090195, 0.023656664416193962, -0.1844513863325119, -0.008692111819982529, -0.05929805710911751, 0.06956841051578522, 0.061160117387771606, 0.04728570953011513, 0.033213719725608826, 0.09225336462259293, 0.0369422510266304, 0.08189083635807037, -0.20741717517375946, 0.018015308305621147, 0.05965809151530266, 0.22588524222373962, -0.054015468806028366, 0.0678597018122673], [0.002270335564389825, 0.020916689187288284, 0.059007640928030014, 0.0003698434156831354, -0.001403233502060175, -0.030826594680547714, 0.0053374385461211205, -0.0100048603489995, -0.01692575216293335, 0.004774539265781641, -0.004621647763997316, -0.018090076744556427, -0.001513271825388074, -0.011785808019340038, -0.0005531966453418136, -0.006220080424100161, -0.00511553417891264, -0.01324106752872467, -0.019331295043230057, 0.0043564774096012115, 0.01095438003540039, 0.026310255751013756, 0.020324958488345146, -0.023112427443265915, 0.026228273287415504, 0.023234426975250244, 0.08078744262456894, -0.03470121696591377, 0.00251774862408638, 0.021973127499222755, -0.015008262358605862, 0.021568065509200096], [-0.010482421144843102, 0.03051016665995121, 0.06589143723249435, 0.012258389964699745, -0.009446107782423496, -0.05441359803080559, 0.0067009166814386845, -0.02616753801703453, 0.05171603709459305, -0.010390679351985455, -0.006716525182127953, 0.0304089467972517, -0.006517456378787756, -0.028690064325928688, -0.0018913280218839645, 0.008421562612056732, -0.042356256395578384, -0.01156690251082182, 0.024930352345108986, -0.0616292804479599, -0.047524627298116684, 0.008003432303667068, -0.0027968822978436947, 0.06891214102506638, -0.007167351432144642, -0.06749966740608215, 0.04097437486052513, -0.029314378276467323, -0.0038452630396932364, -0.028224149718880653, 0.01647231914103031, -0.03686625137925148], [0.017117924988269806, 0.020909130573272705, 0.120389424264431, 0.033545851707458496, -0.06879953294992447, -0.2570466697216034, 0.031137913465499878, -0.017831968143582344, -0.021123306825757027, -0.00840031448751688, 0.03168381005525589, 0.028704987838864326, 0.005035243928432465, -0.016949696466326714, -0.00016167736612260342, -0.011194446124136448, -0.15925712883472443, -0.041523464024066925, -0.03999314084649086, -0.03586248680949211, 0.020490579307079315, 0.06944728642702103, 0.09133125841617584, -0.028832266107201576, 0.0971193015575409, 0.05146537348628044, -0.009180513210594654, -0.04303356632590294, -0.021880999207496643, 0.09542184323072433, -0.05234772711992264, 0.056136250495910645], [0.026449035853147507, 0.05776665359735489, 0.16007764637470245, 0.016599494963884354, -0.018519284203648567, -0.3753066658973694, -0.016058454290032387, 0.017895637080073357, -0.0012927778298035264, 0.008864766918122768, 0.06028060242533684, 0.002462864387780428, 0.04985792189836502, -0.11927974969148636, -0.04415620490908623, -0.013352022506296635, -0.012864098884165287, -0.027570737525820732, 0.05703924596309662, -0.0017307681264355779, 0.06736187636852264, 0.017467539757490158, 0.07481563836336136, 0.006729923188686371, 0.08271162211894989, 0.0032373371068388224, -0.3524404466152191, 0.2115064263343811, 0.022083792835474014, 0.0666513442993164, -0.016971029341220856, 0.07351171225309372], [5.8759298553923145e-05, -0.005872046109288931, -0.005964332725852728, 0.0005431217141449451, 0.00043771270429715514, -0.003413835307583213, -0.002458099042996764, 0.0025822080206125975, 0.008896573446691036, -0.000278122432064265, 0.0034204970579594374, 0.010138673707842827, 0.0014519431861117482, 0.004054210614413023, -0.0016625947318971157, 0.003151909215375781, -0.0017173736123368144, 0.0003597739851102233, 0.006493887398391962, -0.0050864205695688725, -0.005143408197909594, -0.001980557106435299, -0.0032292099203914404, 0.007989895530045033, -0.003363091731444001, -0.011284044943749905, -0.013064783066511154, 0.011186079122126102, 9.256164776161313e-05, -0.007361432071775198, 0.003612641477957368, -0.007409796584397554], [-0.004946298431605101, 0.015833398327231407, 0.0033481477294117212, 0.002724563702940941, -0.007154075428843498, 0.0006396592943929136, 0.00475463317707181, -0.01543535478413105, 0.0010648422176018357, -0.0051821437664330006, -0.010339206084609032, -0.014338275417685509, -0.004993004724383354, -0.021355239674448967, 0.006096391938626766, -0.0030655176378786564, -0.015874823555350304, 0.007920756004750729, 0.001851027482189238, -0.018449008464813232, -0.010022744536399841, -0.0023251131642609835, -0.006393767893314362, 0.0029102209955453873, -0.010522154159843922, -0.007699999958276749, 0.028509726747870445, -0.02964136004447937, -0.0068965270183980465, 0.0018612149870023131, 0.004918214865028858, -0.0031568692065775394], [-0.001895761233754456, 0.007413866929709911, -0.009735902771353722, 0.0021377047523856163, -0.0055486178025603294, 0.0031391396187245846, 0.0037847019266337156, -0.004132212605327368, 0.008329298347234726, -0.005583049729466438, -0.0024369528982788324, 0.003632021602243185, -0.0036286888644099236, -0.0027764555998146534, 0.002005896996706724, 0.00044159579556435347, -0.00107626523822546, 0.005512184463441372, 0.009416474960744381, -0.011674994602799416, -0.006081656087189913, -0.003031197702512145, -0.00839224737137556, 0.009163614362478256, -0.009577881544828415, -0.011731919832527637, 0.004987356252968311, -0.006332686636596918, -0.0041819303296506405, -0.0021775916684418917, 0.004571198485791683, -0.006763809360563755], [-0.01649531163275242, 0.009928763844072819, -0.03812401369214058, 0.0009582267375662923, -0.007708623073995113, -0.016767824068665504, -0.003383814124390483, -0.03444833680987358, 0.03409503027796745, -0.005523316562175751, -0.0257720984518528, -0.002090663183480501, -0.005637050606310368, -0.04246337711811066, -0.00012641558714676648, 0.0012733428739011288, -0.06297896057367325, 0.017918182536959648, -0.030084647238254547, -0.027308188378810883, -0.0021166589576750994, 0.007317979820072651, -0.008238669484853745, 0.011474431492388248, -0.014039733447134495, -0.018010832369327545, 0.06741371005773544, -0.03932610899209976, -0.011450395919382572, 0.005146953277289867, 0.023074347525835037, 0.009983949363231659], [-0.04829812049865723, 0.06554143875837326, -0.13368278741836548, 0.006940685678273439, 0.04198124259710312, -0.12374750524759293, 0.05119938775897026, 0.025107165798544884, 0.041009463369846344, -0.05973882973194122, 0.028561018407344818, -0.03739934042096138, -0.04459806904196739, 0.1945999562740326, 0.0015381390694528818, -0.004210957791656256, 0.15186354517936707, 0.04531688243150711, -0.047730062156915665, 0.04012073948979378, 0.056388989090919495, -0.007898129522800446, -0.01718139462172985, 0.014425123110413551, -0.04423762485384941, 0.09358692169189453, 0.20583529770374298, 0.11598663032054901, 0.01912843808531761, 0.04442897066473961, -0.040057435631752014, 0.01521863043308258], [0.05233742669224739, -0.016369231045246124, 0.44744715094566345, -0.035122450441122055, 0.04776761308312416, -0.2734234631061554, -0.07185381650924683, 0.029342105612158775, 0.0005561512662097812, 0.07414644211530685, 0.02272447943687439, 0.0038764027412980795, 0.09624097496271133, 0.00536548113450408, -0.04579306021332741, -0.042199961841106415, 0.03297129645943642, -0.10227246582508087, -0.1586582362651825, 0.0914045125246048, -0.021615251898765564, 0.0737951397895813, 0.0949399471282959, -0.04776229336857796, 0.17698320746421814, -0.04296572878956795, -0.07700328528881073, -0.0333491675555706, 0.04763912037014961, 0.03916182741522789, 0.0134058129042387, 0.005669202655553818], [-0.23337645828723907, -0.0927932858467102, -0.024767985567450523, 0.054880883544683456, 0.28655362129211426, 0.03206975758075714, 0.03339375928044319, 0.5216425657272339, -0.17161311209201813, -0.10607466101646423, 0.1856227070093155, 0.04939509555697441, -0.09096264839172363, 0.6712762713432312, -0.17567694187164307, 0.10929112136363983, -0.39342302083969116, -0.09099696576595306, -0.18029478192329407, 0.11769813299179077, -0.014119616709649563, 0.6335425972938538, 0.1664847731590271, 0.4609604477882385, 0.07380399107933044, 0.08894265443086624, 1.0140693187713623, -0.050266727805137634, 0.22018451988697052, 0.030492344871163368, -0.1894189864397049, 0.012830531224608421], [-0.007067073602229357, -0.04785637557506561, 0.023758748546242714, -0.01580100506544113, 0.07154329121112823, -0.2126089185476303, 0.0212977584451437, -0.031407132744789124, 0.048951320350170135, -0.014659742824733257, -0.0012561969924718142, 0.07593557983636856, 0.016941700130701065, -0.15973544120788574, 0.07071339339017868, 0.01909436285495758, -0.009690598584711552, -0.0015712766908109188, -0.026632295921444893, -0.0024673468433320522, 0.0725373700261116, -0.14015333354473114, 0.03340908885002136, 0.01602281630039215, -0.01768844947218895, 0.02149147167801857, 0.06302287429571152, 0.11061807721853256, 0.002909698523581028, 0.0968109518289566, -0.02656364068388939, -0.008252185769379139], [0.033943772315979004, -0.03935254365205765, -0.12046746909618378, -0.00929370615631342, -0.05848749727010727, 0.17937123775482178, 0.023745158687233925, -0.06611911207437515, -0.050048526376485825, 0.0029470871668308973, 0.024419156834483147, -0.03926330804824829, -0.0018737104255706072, -0.17192064225673676, 0.044879380613565445, -0.090254046022892, 0.028830604627728462, 0.01426077913492918, -0.06396788358688354, -0.03864574059844017, 0.0446368046104908, 0.13103753328323364, 0.013671951368451118, 0.11423786729574203, 0.04320814460515976, 0.00907825492322445, -0.2731187343597412, -0.056982506066560745, -0.035326652228832245, -0.008275787346065044, -0.023444095626473427, 0.14606012403964996], [0.0655009001493454, 0.2810187339782715, -0.21304042637348175, -0.05081160366535187, -0.2107308804988861, 0.1262139230966568, 0.05293700471520424, -0.48593828082084656, -0.03669269010424614, -0.016634909436106682, -0.36926114559173584, -0.21814695000648499, -0.07436002045869827, -0.31504541635513306, 0.10738467425107956, -0.14005619287490845, 0.20560304820537567, 0.24314117431640625, 0.1406300961971283, -0.04598433896899223, 0.0361894816160202, -0.33276793360710144, -0.2583746612071991, -0.26534831523895264, -0.24854543805122375, -0.1111668050289154, -0.5062114596366882, -0.00252200523391366, -0.27660924196243286, -0.2325494885444641, 0.14584580063819885, -0.16605757176876068], [0.019196590408682823, -0.048347070813179016, 0.19307343661785126, -0.014679310843348503, 0.03823930770158768, -0.1588015854358673, -0.0623263455927372, 0.014955386519432068, 0.02442016452550888, 0.06430283933877945, 0.023922989144921303, -0.001358546782284975, 0.05498959869146347, -0.08994793891906738, -0.024656761437654495, 0.012470616959035397, -0.006932621821761131, -0.05465591698884964, -0.015456517226994038, 0.07103736698627472, 0.03097611479461193, 0.012218430638313293, 0.05650146305561066, 0.04089965298771858, 0.08637460321187973, -0.025955811142921448, -0.07284799218177795, -0.02943285182118416, 0.03449654579162598, -0.03179037943482399, -0.0066270832903683186, 0.020568734034895897], [-0.0013615060597658157, -0.19079841673374176, -0.1287757158279419, 0.09594843536615372, -0.14891448616981506, 0.25131773948669434, 0.05582928657531738, -0.16209369897842407, 0.05242714658379555, 0.06718967854976654, -0.02845117822289467, 0.08879140019416809, -0.014811203815042973, -0.2166411280632019, 0.04079645872116089, 0.004724063444882631, 0.13079874217510223, -0.17200276255607605, -0.016605045646429062, -0.02097856067121029, 0.040656927973032, -0.19496241211891174, 0.13938406109809875, 0.02283240668475628, 0.028536127880215645, -0.12237993627786636, -0.44332078099250793, 0.38446465134620667, -0.07600434869527817, -0.17007219791412354, 0.04932297766208649, 0.17092452943325043], [-0.03655954450368881, 0.059849292039871216, -0.0014374599559232593, 0.00917805079370737, -0.02362319827079773, -0.20870934426784515, 0.0674813985824585, -0.03471335768699646, -0.013399798423051834, -0.07484148442745209, 0.0008108975598588586, 0.13868892192840576, -0.045952677726745605, 0.014652600511908531, 0.008623199537396431, 0.010659675113856792, -0.02832677960395813, 0.006289627868682146, -0.02567334659397602, -0.1274576336145401, -0.11650276184082031, -0.008067063055932522, -0.015799516811966896, 0.02918819710612297, -0.0233417060226202, -0.0819602757692337, 0.048352889716625214, 0.08502984046936035, -0.03271522745490074, -0.07559339702129364, -0.014177501201629639, -0.09990034252405167], [-0.027546444907784462, 0.16498123109340668, -0.21027997136116028, 0.024905826896429062, -0.08932588249444962, 0.1953302025794983, 0.12145359814167023, 0.009851394221186638, -0.009936563670635223, -0.1333710104227066, 0.034643564373254776, -0.009824239648878574, -0.12152553349733353, 0.13960516452789307, -0.03498000651597977, 0.05512908846139908, 0.04661688581109047, 0.09222346544265747, 0.04256090894341469, -0.09130096435546875, -0.027344081550836563, 0.033728424459695816, -0.08975324779748917, 0.05116109922528267, -0.12485841661691666, -0.0704578310251236, 0.1627127230167389, -0.0664704293012619, 0.02618793584406376, 0.023326316848397255, 0.026084259152412415, 0.00203881342895329], [0.004818290937691927, -0.17119260132312775, -0.057723596692085266, 0.06894936412572861, 0.06260137259960175, -0.13881711661815643, -0.003313365625217557, 0.09481263905763626, 0.1260121464729309, 0.012219899334013462, -0.09451906383037567, 0.029123421758413315, 0.059684913605451584, -0.11381613463163376, -0.12679217755794525, -0.09184544533491135, 0.04747285693883896, -0.09283008426427841, 0.1035160943865776, 0.04856230691075325, 0.10722296684980392, -0.06003882735967636, 0.013004890643060207, 0.01625627651810646, 0.11935391277074814, -0.05619857460260391, -0.12955673038959503, 0.20655077695846558, 0.010006759315729141, -0.03687586635351181, 0.0061396206729114056, 0.02710689604282379], [0.018236476927995682, -0.07304319739341736, 0.07744160294532776, 0.030260082334280014, 0.04584360495209694, -0.1250907927751541, 0.0020433138124644756, 0.08388786762952805, 0.12826715409755707, -0.020059239119291306, 0.09238559752702713, 0.09532755613327026, 0.011715020053088665, -0.05678383260965347, 0.05802879482507706, 0.024601459503173828, 0.05021917447447777, -0.1533147543668747, 0.09629125893115997, -0.051843900233507156, 0.05623142793774605, 0.026957785710692406, 0.16264469921588898, 0.30825406312942505, 0.09549508988857269, 0.09045743197202682, 0.014817138202488422, 0.26915884017944336, -0.06719012558460236, -0.08151676505804062, 0.04210731387138367, -0.04346571862697601], [-0.1197211891412735, 0.0434730164706707, -0.18531692028045654, 0.003593056695535779, 0.03832606226205826, 0.06806879490613937, 0.06649011373519897, 0.08722751587629318, 0.0708976611495018, -0.08343511819839478, 0.15166622400283813, -0.018222332000732422, -0.09062941372394562, 0.20502978563308716, -0.07800613343715668, 0.04265386611223221, -0.14755165576934814, 0.08063920587301254, -0.07588299363851547, -0.09071579575538635, 0.08721785247325897, 0.08149396628141403, -0.029276635497808456, -0.066862091422081, -0.11367787420749664, -0.009938633069396019, 0.11282921582460403, -0.012194903567433357, -0.01921647973358631, 0.08425586670637131, -0.0357477031648159, 0.011820518411695957], [0.06505149602890015, 0.16585731506347656, -0.11445372551679611, 0.08196837455034256, -0.3705297112464905, 0.12769563496112823, 0.0046751839108765125, -0.10736385732889175, 0.1282520741224289, -0.023222973570227623, -0.16217106580734253, 0.1292576938867569, 0.07566959410905838, -0.45448917150497437, 0.05083959922194481, -0.09717648476362228, 0.252562552690506, 0.1346040964126587, 0.2770700752735138, -0.2136143445968628, -0.0944904163479805, -0.2819159924983978, -0.12124806642532349, -0.10877829790115356, -0.1983771175146103, -0.06346859782934189, -1.2422577142715454, 0.6594175696372986, -0.06083809956908226, -0.000676874304190278, 0.2284281849861145, -0.12400659918785095], [-0.08627345412969589, 0.12805970013141632, 0.02080937661230564, -0.11516477167606354, -0.07272683084011078, 0.010549988597631454, 0.13062942028045654, -0.046473219990730286, 0.019120153039693832, 0.05917728692293167, -0.1418924331665039, -0.12334389239549637, -0.06259889155626297, -0.0439099483191967, 0.07959853857755661, 0.08423396944999695, 0.013294972479343414, 0.11990363150835037, -0.1130191758275032, 0.07427342236042023, 0.0240310151129961, -0.10153400897979736, -0.14858049154281616, -0.05927131325006485, -0.009906673803925514, -0.08232171833515167, 0.06063060462474823, 0.026241889223456383, 0.08564776182174683, 0.03654053434729576, 0.0405266098678112, -0.1323276311159134], [0.03733806684613228, -0.06475108116865158, -0.017844099551439285, 0.02062883786857128, 0.02085987664759159, -0.09442485123872757, -0.03244442865252495, -0.028348365798592567, -0.10939522832632065, 0.0502387210726738, -0.0006753172492608428, -0.11539699882268906, 0.03741585090756416, -0.08856279402971268, -0.0709460899233818, -0.005588845815509558, -0.08398117870092392, -0.0537169948220253, 0.09461309760808945, 0.06191834434866905, -0.11126009374856949, -0.02397056482732296, 0.039604753255844116, 0.07442215830087662, 0.030001357197761536, 0.07023133337497711, -0.1581713855266571, 0.12771888077259064, 0.006226452998816967, -0.11723443865776062, 0.028192929923534393, -0.07398749142885208], [-0.11734388023614883, 0.02350088581442833, -0.03249719738960266, -0.11204001307487488, -0.2102428823709488, 0.023612631484866142, -0.11665657162666321, -0.17572945356369019, -0.016682317480444908, -0.11307749897241592, -0.15539348125457764, -0.08142843097448349, 0.05104173347353935, 0.00033083895687013865, 0.12903453409671783, -0.03696149215102196, 0.0767684355378151, 0.1689700335264206, 0.13123449683189392, -0.22429463267326355, -0.04192902520298958, -0.20214316248893738, -0.19960159063339233, 0.1517390012741089, -0.2204766571521759, -0.12797538936138153, -0.41160985827445984, 0.030146803706884384, -0.09061641246080399, 0.05305005609989166, 0.1472029685974121, -0.1667872816324234], [0.09143991768360138, -0.11614342778921127, 0.13035637140274048, -0.0014293247368186712, 0.1048935055732727, -0.11483979225158691, -0.15632548928260803, 0.14996416866779327, 0.007989834994077682, 0.0909380242228508, 0.009321445599198341, 0.021557290107011795, 0.1321280598640442, 0.05878273770213127, -0.005652356427162886, 0.0008723755017854273, 0.034646086394786835, -0.11036662012338638, -0.07185766100883484, 0.0173210296779871, -0.004294895566999912, 0.08357176929712296, 0.09910658001899719, -0.38757455348968506, 0.09630419313907623, -0.045491185039281845, -0.07776417583227158, -0.10781078785657883, 0.047657616436481476, -0.05435480177402496, 0.007610750384628773, -0.007803357206285], [-0.02032674290239811, 0.052897222340106964, -0.1337992399930954, 0.022011976689100266, -0.07770536094903946, -0.13069255650043488, 0.02423652820289135, -0.0349716916680336, -0.031768836081027985, -0.054608479142189026, -0.07338469475507736, 0.0475408211350441, -0.06163257360458374, -0.046955469995737076, 0.06500615924596786, -0.018485337495803833, -0.030942928045988083, 0.05785571411252022, 0.0639483854174614, -0.08836597204208374, -0.027869516983628273, -0.09221093356609344, -0.0904439389705658, -0.048241011798381805, -0.12066009640693665, -0.07461913675069809, -0.04701009765267372, 0.00018751305469777435, -0.06035155802965164, -0.04992508888244629, 0.01880721189081669, -0.031032994389533997], [-0.1571953296661377, 0.06999167054891586, -0.3362971246242523, -0.00012618894106708467, -0.03587036207318306, 0.35825470089912415, 0.10468865931034088, -0.0894261971116066, -0.05400890111923218, -0.13116437196731567, 0.011148914694786072, -0.0218813456594944, -0.11162550002336502, 0.09087099879980087, -0.02517983876168728, 0.0683327168226242, 0.14148534834384918, 0.11109363287687302, -0.07420320808887482, -0.12932565808296204, 0.00847218744456768, -0.04273524507880211, -0.1323111206293106, 0.06996894627809525, -0.16741669178009033, 0.14979664981365204, 0.06642069667577744, -0.012729313224554062, 0.028972715139389038, 0.014757741242647171, 0.024320805445313454, 0.03927652910351753], [0.07025276124477386, -0.055054739117622375, -0.08910135924816132, -0.011590197682380676, 0.026853423565626144, -0.011698085814714432, -0.026182150468230247, 0.036150190979242325, -0.005847429856657982, 0.059121273458004, 0.10213063657283783, 0.0820079818367958, 0.018870722502470016, 0.08570000529289246, -0.09823758900165558, 0.02789834700524807, 0.08816854655742645, -0.0617561973631382, 0.05652564391493797, 0.10798501968383789, -0.03938840329647064, 0.025180190801620483, 0.0935996025800705, -0.10912031680345535, 0.06401315331459045, 0.05956343933939934, 0.011835777200758457, 0.051166895776987076, 0.05946986377239227, -0.015484238043427467, -0.05190310627222061, 0.17195385694503784], [-0.05229631066322327, -0.17334172129631042, 0.18331332504749298, 0.05490756407380104, -0.0687340646982193, 0.014930980280041695, -0.06432927399873734, 0.13247942924499512, -0.05728764459490776, 0.027114911004900932, 0.1639816015958786, 0.08800118416547775, 0.042432740330696106, 0.2751728892326355, -0.13362643122673035, 0.11156018078327179, -0.13283774256706238, -0.11078103631734848, -0.25318068265914917, -0.03207632899284363, 0.17007842659950256, 0.0755995512008667, 0.16814112663269043, -0.17032422125339508, 0.17005309462547302, -0.07482760399580002, 0.13357862830162048, 0.004330199211835861, -0.025549354031682014, -0.06617359071969986, -0.21357734501361847, -0.022309880703687668], [0.04229189082980156, 0.096902996301651, 0.12208031862974167, -0.011523433029651642, -0.03550570458173752, 0.1550264209508896, 0.14272570610046387, -0.04595828801393509, -0.06445154547691345, -0.05038611963391304, -0.008464617654681206, 0.033611100167036057, -0.22848837077617645, -0.07260160148143768, -0.10129376500844955, -0.09680178016424179, 0.02940496616065502, -0.02522534318268299, 0.06807409226894379, -0.0017506219446659088, -0.16695579886436462, 0.09959205240011215, 0.032007187604904175, 0.22757850587368011, 0.05583524703979492, -0.045468252152204514, 0.1370994597673416, 0.20024943351745605, 0.08223400264978409, -0.009967762045562267, -0.005382813047617674, -0.08465820550918579], [0.13025151193141937, 0.05635991320014, 0.3223874866962433, 0.08302304893732071, -0.4370535612106323, -0.3730018138885498, -0.07389244437217712, -0.9850887060165405, 0.024440141394734383, -0.02999289333820343, -0.2898450791835785, -0.1734100729227066, 0.1901988983154297, -0.7246391773223877, 0.18531155586242676, -0.20344384014606476, 3.6140361771686e-05, 0.39139872789382935, 0.46892815828323364, -0.3049476742744446, -0.2918769121170044, -0.33163952827453613, -0.5106629133224487, 0.29621249437332153, -0.4086710512638092, -0.031927287578582764, -1.2314218282699585, 0.2595910131931305, -0.3383124768733978, -0.17989379167556763, 0.26579025387763977, -0.25145843625068665], [-0.038851719349622726, 0.11375866085290909, 0.00019892907585017383, 0.04490663483738899, -0.10080964118242264, -0.008027691394090652, 0.008134582079946995, -0.021379489451646805, 0.006310607772320509, -0.1179426908493042, 0.012209100648760796, -0.06447877734899521, -0.12185949087142944, 0.17798635363578796, -0.05034347623586655, 0.05675187334418297, -0.09177549928426743, 0.0073227048851549625, 0.08048971742391586, -0.06381670385599136, -0.09343765676021576, 0.12166603654623032, 0.01661292091012001, 0.3113478422164917, -0.028178734704852104, 0.06357493251562119, 0.2213047593832016, 0.07264500856399536, -0.012344085611402988, -0.068199522793293, 0.06534013152122498, -0.033646758645772934], [0.019969819113612175, -0.08339262008666992, -0.12995682656764984, -0.022255321964621544, 0.016283387318253517, 0.10506045818328857, -0.013632959686219692, 0.06453912705183029, -0.11073920130729675, 0.022550467401742935, 0.026302777230739594, -0.05523263290524483, 0.02438114583492279, 0.040518227964639664, -0.003090234473347664, -0.020570697262883186, 0.02002410776913166, 0.005631937179714441, -0.051465217024087906, 0.12135294079780579, 0.05415932089090347, -0.01373823918402195, 0.020890509709715843, -0.0862884521484375, 0.017278172075748444, 0.08175136893987656, -0.07921688258647919, 0.024969184771180153, 0.005043604876846075, 0.055322423577308655, -0.03167295455932617, 0.10393282771110535], [-0.09218588471412659, -0.0271487794816494, 0.0625414028763771, -0.08024793863296509, 0.1306437999010086, 0.16335316002368927, -0.05676877871155739, -0.11675304919481277, 0.050952568650245667, 0.11734623461961746, 0.05120880529284477, -0.1922917366027832, 0.027314580976963043, 0.10486062616109848, 0.07465460896492004, -0.030260838568210602, 0.06371975690126419, 0.06468237936496735, 0.05913633108139038, 0.09040044248104095, 0.00689456844702363, 0.47215160727500916, 0.12550075352191925, 0.21295547485351562, 0.113804891705513, -0.04870470240712166, 0.022280311211943626, 0.12395653873682022, -0.04021991789340973, -0.00613720016553998, 0.08148133009672165, 0.06267621368169785], [-0.011386980302631855, 0.35910114645957947, -0.175723135471344, 0.06536853313446045, -0.3628471791744232, -0.2109507918357849, 0.15024729073047638, -0.4001423120498657, -0.0260117519646883, -0.1025141105055809, -0.24790799617767334, -0.13393516838550568, -0.05498460307717323, -0.5756728053092957, 0.0764249712228775, -0.1906396448612213, 0.20603278279304504, 0.5496081709861755, 0.09181121736764908, -0.21402865648269653, -0.11405468732118607, -0.48700395226478577, -0.49428996443748474, 0.08451788872480392, -0.28613775968551636, -0.06358640640974045, -0.8995018601417542, -0.046775005757808685, -0.22471612691879272, -0.14456087350845337, 0.12516021728515625, -0.20351898670196533], [0.07881419360637665, -0.08425862342119217, -0.0206548310816288, 0.009402092546224594, -0.03649983927607536, 0.10515902191400528, -0.09235690534114838, 0.001800799509510398, 0.0017095307121053338, 0.054403290152549744, 0.08948924392461777, 0.04273415729403496, 0.05203747749328613, -0.12178783863782883, -0.07349766045808792, 0.007104869931936264, -0.060583535581827164, -0.039491601288318634, -0.08602222800254822, 0.054549362510442734, -0.026480255648493767, 0.11626651138067245, 0.01145206205546856, 0.2278260439634323, 0.013353735208511353, 0.10053244233131409, -0.1405268907546997, 0.02750411629676819, -0.01365529466420412, -0.007007781881839037, -0.010111316107213497, 0.08002915978431702], [-0.003266869578510523, -0.05399492010474205, 0.05654146894812584, 0.008774311281740665, 0.036019597202539444, 0.055543139576911926, -0.0041306596249341965, 0.017114153131842613, -0.14071159064769745, 0.010805569589138031, 0.14276821911334991, 0.06370870769023895, 0.022927241399884224, 0.009882092475891113, -0.07768098264932632, 0.08036096394062042, -0.16056689620018005, -0.055367760360240936, -0.10838337987661362, 0.06899160891771317, 0.07057730853557587, 0.12245938181877136, 0.06770667433738708, 0.1894770711660385, 0.10616213828325272, 0.12530553340911865, -0.06944063305854797, -0.0934586226940155, 0.11192122101783752, 0.049207109957933426, -0.043453898280858994, 0.0923699364066124], [-0.05603022128343582, 0.014007629826664925, -0.019637903198599815, -0.0574115589261055, -0.01725762151181698, 0.058641549199819565, -0.027997655794024467, -0.013291459530591965, -0.06642705947160721, -0.04227936267852783, -0.04509499669075012, -0.09984477609395981, -0.0213015154004097, -0.02747292071580887, 0.06429816037416458, 0.10609142482280731, -0.05229101702570915, 0.0860510841012001, -0.009859773330390453, 0.023725194856524467, 0.06286925077438354, -0.05320741608738899, -0.13181526958942413, -0.03774986043572426, -0.12430214136838913, -0.051689960062503815, 0.0036174915730953217, -0.0915386974811554, -0.10035888105630875, -0.019669851288199425, -0.06091027706861496, -0.08599468320608139], [0.04039081931114197, 0.014207843691110611, 0.13950420916080475, -0.02832164242863655, -0.030818196013569832, 0.013083926402032375, -0.04484890028834343, 0.03330454230308533, -0.16091683506965637, 0.05086715891957283, 0.05383453145623207, 0.05523231625556946, 0.005379065405577421, -0.00590947549790144, -0.04645779728889465, -0.018261024728417397, 0.07934567332267761, -0.07994250953197479, -0.053090039640665054, 0.14601103961467743, -0.10181308537721634, 0.05618509277701378, 0.10432855784893036, 0.03876600041985512, 0.14508645236492157, 0.06152298301458359, 0.06735167652368546, 0.034259431064128876, 0.1077604666352272, 0.10191772878170013, -0.07941438257694244, -0.057502929121255875], [-0.0013630172470584512, -0.0022590672597289085, 0.004748482722789049, -0.0001308728096773848, 0.0013181049143895507, 0.0060608466155827045, -0.0017779787303879857, 0.0005744137451983988, 0.004908714909106493, 0.0006035072146914899, -0.0009701662347652018, -0.002218154026195407, 0.002144139027222991, 0.001395546947605908, 0.000646995089482516, 0.0017856573686003685, -0.0028174971230328083, -0.0005973696825094521, 0.003836627583950758, -0.0029429562855511904, -0.005484709516167641, -0.0013991539599373937, -0.001387314056046307, 0.0032471606973558664, -0.0019246970769017935, -0.009748822078108788, 0.003482347121462226, 0.0006507541984319687, -0.0006723890546709299, -0.0069771017879247665, 0.0040586465038359165, -0.006716299802064896], [0.00018776196520775557, -0.03061312437057495, -0.15201663970947266, 0.0027075372636318207, -0.007500160485506058, 0.05903176590800285, -0.008258523419499397, 0.026335179805755615, 0.04611530900001526, -0.008414198644459248, 0.012008140794932842, 0.04038031026721001, -0.002057841746136546, 0.0677008181810379, 0.0002673921990208328, 0.016578879207372665, 0.025489620864391327, 0.01566460356116295, 0.04886830598115921, -0.022939715534448624, -0.028679387643933296, -0.05615643039345741, -0.04561610892415047, 0.04489670321345329, -0.04928835853934288, -0.056193578988313675, -0.11534934490919113, 0.11013980209827423, -0.008211707696318626, -0.051967792212963104, 0.029369667172431946, -0.05440884828567505], [-0.03400617465376854, 0.1020238846540451, 0.03618263825774193, 0.027276869863271713, 0.009185968898236752, -0.12523707747459412, 0.018433794379234314, 0.005506918765604496, 0.21323537826538086, -0.043086133897304535, 0.03675508126616478, 0.12998296320438385, -0.017146993428468704, 0.18162420392036438, -0.05029412358999252, 0.07242143899202347, -0.1453704535961151, -0.029818899929523468, 0.1687222719192505, -0.25885963439941406, -0.1751405894756317, 0.09334077686071396, -0.0039667547680437565, 0.13846175372600555, 0.001146786380559206, -0.2871811091899872, -0.01535265613347292, 0.19433796405792236, 0.024714317172765732, -0.13850753009319305, 0.051579609513282776, -0.173445925116539], [-0.0008430129964835942, 0.0011868163710460067, -0.0035256952978670597, 0.0003405714232940227, 0.0012745305430144072, -0.0012988833477720618, -0.00039944142918102443, 0.0019178445218130946, 0.003088215831667185, -0.0002846769930329174, 0.000787934463005513, 0.00171970936935395, -0.0012781376717612147, 0.004003947135061026, 0.00013734442472923547, 0.0011012760223820806, 0.0038847739342600107, -0.002598617924377322, 0.0019437450682744384, -0.0002923535357695073, -0.00180563994217664, -0.005335950292646885, 0.001430224860087037, -0.003011147491633892, -0.00028288972680456936, -0.002900626976042986, -0.006355657242238522, 0.009842634201049805, 0.0005705810035578907, -0.0013008702080696821, 0.0009271376766264439, -0.0010378436418250203], [-9.1386420535855e-05, -0.0067998385056853294, 0.00013465207302942872, 2.0667624994530343e-05, 0.0036791926249861717, -0.005841638892889023, -0.005911753047257662, 0.003775758435949683, 0.02520154044032097, 0.0006287446012720466, 0.004899824038147926, 0.01738620735704899, 0.003399658715352416, 0.006908254697918892, -0.004319559782743454, 0.005758796352893114, -0.005811302922666073, 0.0005762143991887569, 0.014808700419962406, -0.009966147132217884, -0.01520957238972187, -8.413945033680648e-05, -0.007509993389248848, 0.018009088933467865, -0.008653635159134865, -0.0338684506714344, -0.018531866371631622, 0.01592690870165825, 0.0008887677686288953, -0.01999659091234207, 0.010091891512274742, -0.0199926495552063], [-0.02562994323670864, -0.005969863850623369, -0.0982847660779953, 0.01123453676700592, 0.008211982436478138, 0.12758415937423706, -0.00863273348659277, 0.0028752435464411974, 0.1835990846157074, -0.023082679137587547, -0.008308996446430683, 0.09323908388614655, -0.012476213276386261, 0.0915195643901825, 0.033370427787303925, 0.00902350153774023, -0.0008947582682594657, 0.015860583633184433, 0.17263256013393402, -0.14016427099704742, -0.13455204665660858, -0.04645818471908569, -0.019760562106966972, 0.21501216292381287, -0.046310052275657654, -0.12830984592437744, -0.2165810465812683, 0.26980677247047424, -0.0034492441918700933, -0.07083269953727722, 0.06903205811977386, -0.10986366868019104], [-0.00043735612416639924, -0.001372199272736907, -0.034369099885225296, 0.0005976994871161878, -0.000704191334079951, 0.020760580897331238, -0.0001752718526404351, 0.004466801881790161, 0.011731826700270176, -0.002997157396748662, -0.00014589431521017104, 0.00677443714812398, -0.003308706684038043, 0.021407030522823334, 0.002335149561986327, 0.0028675904031842947, 0.0101834237575531, -1.3286240573506802e-05, 0.014741960912942886, -0.006768460385501385, -0.010033611208200455, -0.015300157479941845, -0.012246280908584595, 0.03361983224749565, -0.013183381408452988, -0.01435331255197525, -0.005554768722504377, 0.03327256441116333, -0.002939638216048479, -0.012793813832104206, 0.008825452998280525, -0.014977173879742622], [-0.010904687456786633, 0.028370700776576996, 0.1570264846086502, 0.004452143330127001, -0.004119357094168663, -0.19098010659217834, 0.018481770530343056, -0.03720354661345482, 0.03940322622656822, -0.007192172110080719, 0.006539461202919483, 0.05904211848974228, -0.011087778024375439, -0.07972229272127151, -0.017817294225096703, 0.004730383865535259, -0.06696651875972748, -0.04658230021595955, 0.014047554694116116, -0.03181005269289017, -0.02812066860496998, 0.050884343683719635, 0.04148058220744133, 0.16818155348300934, 0.04527720808982849, -0.024364598095417023, 0.028631310909986496, -0.009231148287653923, 0.017945827916264534, 0.01652449741959572, -0.023302674293518066, -0.004140773788094521], [-0.013615405187010765, 0.016125274822115898, 0.01703415811061859, 0.008392133750021458, -0.0056869033724069595, -0.03920174390077591, 0.010142880491912365, -0.01906333677470684, 0.011925967410206795, -0.016058139503002167, -0.00357136782258749, 0.029007839038968086, -0.010634076781570911, 0.008865063078701496, -0.0037382906302809715, 0.009425385855138302, -0.02474476397037506, 0.006600636523216963, -0.006053031887859106, -0.03639700263738632, -0.023829946294426918, 0.00897850003093481, -0.005434820894151926, 0.1321946531534195, -0.013248258270323277, -0.02218451537191868, 0.03987712413072586, 0.010168206878006458, -0.0043409219942986965, -0.0071385824121534824, 0.007632156368345022, -0.009361281991004944], [-0.002927846973761916, 0.003166167763993144, -0.006685590837150812, 0.0025792147498577833, 0.0005804049433209002, -0.006870930083096027, 0.0001097000713343732, -0.00304004386998713, 0.030659416690468788, -0.0015862713335081935, 0.0014787571271881461, 0.014218611642718315, -0.0016417381120845675, 0.006316634826362133, -0.0027917625848203897, 0.00632045604288578, -0.007127512712031603, -0.006893794052302837, 0.018813062459230423, -0.019840210676193237, -0.021523958072066307, -0.0029179330449551344, -0.0031873793341219425, 0.04663775861263275, -0.004585313145071268, -0.04305576533079147, 0.0021996162831783295, 0.01659313589334488, 0.0009298680815845728, -0.02225695177912712, 0.008832482621073723, -0.025464551523327827], [0.006036088336259127, -0.017238304018974304, -0.0028866874054074287, 0.0005635115667246282, 0.0032646870240569115, -0.052695147693157196, -0.007317259442061186, 0.019044307991862297, 0.03153146430850029, 0.0009934697300195694, 0.016125991940498352, 0.040880460292100906, 0.006407630629837513, 0.030407287180423737, -0.008203905075788498, 0.00894142035394907, 0.013579334132373333, -0.0026984266005456448, 0.01858537271618843, -0.003999096341431141, -0.0035887770354747772, -0.004521538037806749, -0.006309169344604015, 0.12373959273099899, -0.00461615389212966, -0.02361382357776165, -0.06111530214548111, 0.05893993377685547, 0.005312634631991386, -0.020825624465942383, 0.0018985726637765765, -0.013044719584286213], [-0.00028088840190321207, -0.014831094071269035, 0.012593457475304604, 0.013625037856400013, 0.011656172573566437, -0.1029602587223053, -0.0011532792123034596, 0.0355847105383873, 0.010637343861162663, -0.007620278745889664, 0.026590103283524513, 0.08236094564199448, -0.004890450742095709, 0.043764375150203705, -0.002676481381058693, 0.0007926218677312136, 0.012094507925212383, -0.05041109025478363, 0.07095576822757721, -0.050930000841617584, -0.030206793919205666, -0.04011226445436478, 0.0167540255934, 0.0990988239645958, 0.014896493405103683, -0.049252692610025406, -0.1707456111907959, 0.19794481992721558, 0.015124136582016945, -0.04145611822605133, 0.01424292754381895, -0.035361722111701965], [-0.002351117320358753, 0.0017124374862760305, -0.01818748004734516, 0.0016137334750965238, -0.00010976723569910973, 0.012779968790709972, 0.0006940140738151968, 0.0005116146057844162, 0.017661193385720253, -0.002691945293918252, -0.00105518929194659, 0.004070563707500696, -0.003220554208382964, 0.018375931307673454, 0.0011458606459200382, 0.004502648953348398, 0.0009999362519010901, -0.0026523207779973745, 0.017185810953378677, -0.011393139138817787, -0.015602475963532925, -0.00872393324971199, -0.009550082497298717, 0.043131023645401, -0.009303002618253231, -0.025110336020588875, 0.008698638528585434, 0.025296363979578018, -0.001108046737499535, -0.01642661541700363, 0.009211268275976181, -0.01927757076919079], [-0.02051664888858795, 0.0505640022456646, 0.2139936089515686, 0.018338877707719803, 0.008673961274325848, -0.19955351948738098, 0.01649506948888302, -0.038349300622940063, 0.09804536402225494, -0.015271513722836971, 0.010087080299854279, 0.10671426355838776, -0.018867304548621178, -0.022210638970136642, -0.028177408501505852, 0.023438427597284317, -0.05264060199260712, -0.05429942533373833, 0.04420815780758858, -0.09178023040294647, -0.07283716648817062, 0.03040802665054798, 0.02874450758099556, 0.3469800353050232, 0.027472661808133125, -0.1119045838713646, -0.08385507762432098, 0.13138428330421448, 0.030007699504494667, -0.018401576206088066, 0.0014550783671438694, -0.04622071608901024], [0.0060235788114368916, -0.005748358089476824, 0.030011242255568504, 0.0017286930233240128, 0.0006183774094097316, -0.04227444529533386, -0.0030826020520180464, 0.00809200294315815, 0.027911830693483353, 0.0016538536874577403, 0.004976426251232624, 0.027164354920387268, 0.00422504311427474, -0.00014661809836979955, -0.004363448824733496, 0.003954026848077774, 0.029058359563350677, -0.0026735886931419373, 0.009654891677200794, -0.0017751612467691302, -0.005432681180536747, -0.011447561904788017, 0.004387808497995138, 0.1828618347644806, 0.004199252929538488, -0.03424366936087608, -0.030224891379475594, 0.029094478115439415, -0.0034786718897521496, -0.00874141976237297, -0.004035202786326408, -0.0144503740593791], [0.001499898498877883, -0.006166887003928423, 0.0031199657823890448, -0.00010259707050863653, 0.0031294068321585655, -0.011203821748495102, -0.0025485646910965443, 0.0036434733774513006, 0.0035359561443328857, 0.0015006347093731165, 0.0038214761298149824, 0.008842128328979015, 0.0017953186761587858, 0.00010095218021888286, -0.002579221036285162, 0.001573631539940834, 2.623128420964349e-05, -0.006174694746732712, 0.00203193468041718, 0.004059298895299435, -6.624279194511473e-05, -0.0007069827988743782, 0.0025774191599339247, 0.041484933346509933, 0.003626747988164425, -0.004899770021438599, -0.02355114556849003, 0.014784690923988819, 0.0035124749410897493, -0.003937918692827225, -0.0011088543105870485, -0.0021385573782026768], [-0.015042335726320744, 0.03163835406303406, 0.13390140235424042, 0.007040733005851507, -0.014081521891057491, -0.037974752485752106, 0.009519710205495358, -0.11691384762525558, 0.040146756917238235, -0.0024537378922104836, -0.040502872318029404, -0.03056240826845169, -0.001464682980440557, -0.1752382069826126, 0.008345779031515121, -0.021964656189084053, -0.10903744399547577, 0.018724361434578896, -0.005540902726352215, -0.05384724587202072, -0.04733908921480179, 0.03923796862363815, 0.015644125640392303, 0.07612431049346924, 0.006381911225616932, -0.07287620007991791, 0.136685311794281, -0.21968252956867218, -0.024056266993284225, -0.009483419358730316, 0.012731034308671951, -0.01232282817363739], [0.005764640402048826, -0.014874421060085297, 0.05484959855675697, 0.00044447643449530005, 0.01448593009263277, -0.024684803560376167, -0.017771881073713303, 0.008697195909917355, 0.050230592489242554, 0.012457234784960747, 0.012995947152376175, 0.022473637014627457, 0.018629861995577812, -0.0045723868533968925, -0.016400648280978203, 0.010210312902927399, -0.033559978008270264, 0.00230064382776618, 0.01547157671302557, -0.02595529519021511, -0.02555955946445465, 0.04618535935878754, -0.0038408490363508463, -0.09642256051301956, -0.0017150011844933033, -0.07631724327802658, 0.09424594044685364, -0.060633450746536255, 0.0043376837857067585, -0.044601600617170334, 0.016769753769040108, -0.03560208901762962], [-0.004608664661645889, -0.002197092864662409, -0.016024723649024963, 0.003031862201169133, -0.004622436128556728, 0.011061374098062515, -4.588811862049624e-05, -0.012402183376252651, 0.01707119680941105, -0.004881655797362328, -0.001372230239212513, 0.009523251093924046, 0.004632088355720043, -0.002155207796022296, 0.0006283726543188095, 0.0007485603564418852, -0.03593720123171806, 0.01930134743452072, 0.006840679794549942, -0.024140385910868645, -0.014113119803369045, 0.01179951336234808, -0.009216539561748505, -0.015186832286417484, -0.013057866133749485, -0.0223473459482193, 0.043767113238573074, -0.015882205218076706, -0.008297310210764408, -0.010535899549722672, 0.008275543339550495, -0.010851596482098103], [-0.005971007514744997, -0.02282007224857807, -0.014014403335750103, 0.00014779227785766125, 0.012058564461767673, -0.009384037926793098, -0.016722990199923515, 0.0061977319419384, 0.04576011747121811, 0.005251187831163406, 0.005871993023902178, 0.02481769397854805, 0.007080816198140383, 0.010924826376140118, -0.0038408986292779446, 0.01482077594846487, -0.037065912038087845, -0.006925029214471579, 0.034638773649930954, -0.018309732899069786, -0.03991955146193504, -0.03088737279176712, -0.010991712100803852, -0.04821491613984108, -0.012238219380378723, -0.07671847194433212, -0.0910000428557396, 0.06336283683776855, 0.0009553433046676219, -0.04731224477291107, 0.023588696494698524, -0.05304408818483353], [-0.011924199759960175, 0.00682374183088541, 0.034038133919239044, 0.002492970786988735, -0.006320178043097258, -0.032056618481874466, 6.500475865323097e-05, -0.028861071914434433, -0.01321520283818245, -0.005642692558467388, -0.010221587494015694, 0.0007207687012851238, -0.00029372397693805397, -0.03163124620914459, 0.0026133686769753695, 0.0018138353480026126, -0.06395720690488815, 0.019497327506542206, -0.015860695391893387, -0.021616440266370773, -0.004478194750845432, 0.020525483414530754, -0.012113653123378754, 0.045183610171079636, -0.016082806512713432, 0.016536641865968704, 0.0764579325914383, -0.06376419961452484, -0.00864429771900177, -0.0007836592849344015, 0.010348080657422543, -0.012996675446629524], [-0.01671251468360424, 0.07478369027376175, 0.21778731048107147, 0.026447627693414688, -0.021066531538963318, -0.23036058247089386, 0.03527055308222771, -0.05063910409808159, 0.10173973441123962, -0.029813025146722794, 0.0067884717136621475, 0.10101824998855591, -0.025033243000507355, -0.03531897813081741, -0.021608881652355194, 0.020852098241448402, -0.08051741868257523, -0.06929396837949753, 0.0332600399851799, -0.11361834406852722, -0.083649642765522, 0.030212797224521637, 0.057662125676870346, 0.3712635934352875, 0.06066456064581871, -0.1076817661523819, 0.035026129335165024, 0.004197633359581232, 0.01262165978550911, -0.008849137462675571, -0.0023305073846131563, -0.04671541228890419], [0.003854927374050021, 0.011922525241971016, 0.16079361736774445, 0.004451056011021137, 0.007946278899908066, -0.1093437671661377, -0.014546139165759087, -0.017416028305888176, 0.05792119354009628, 0.015649903565645218, 0.007650989107787609, 0.02509407326579094, 0.018094100058078766, -0.05188751965761185, -0.020404184237122536, 0.008529317565262318, -0.07792071998119354, -0.015916291624307632, 0.012118975631892681, -0.043963827192783356, -0.03537636622786522, 0.07324802130460739, 0.012880035676062107, -0.08136589080095291, 0.021800648421049118, -0.08797993510961533, 0.1362210363149643, -0.11715267598628998, 0.0064486488699913025, -0.041155289858579636, 0.011934210546314716, -0.03742331638932228], [-0.02451152354478836, -0.06468181312084198, 0.31351345777511597, 0.02671349048614502, 0.06312891840934753, -0.2683851420879364, -0.031367093324661255, -0.05692305043339729, 0.09056184440851212, 0.01622108556330204, 0.08021905273199081, 0.2524031102657318, 0.02392648160457611, -0.11831220984458923, -0.12315699458122253, 0.10161784291267395, -0.37850522994995117, -0.11386317759752274, 0.022493915632367134, -0.022333797067403793, -0.09739585220813751, 0.12083569914102554, 0.08458198606967926, 0.08284520357847214, 0.08447251468896866, -0.12918978929519653, 0.1877710223197937, -0.0025514019653201103, 0.08769015967845917, 0.053747229278087616, 0.03217592462897301, -0.0778164342045784], [0.0036869996692985296, 0.015085103921592236, 0.14557591080665588, 0.005305251106619835, 0.009405258111655712, -0.09955605864524841, -0.0123397596180439, -0.011316441930830479, 0.05690395087003708, 0.014220225624740124, 0.008055130951106548, 0.027372535318136215, 0.01512737013399601, -0.036733463406562805, -0.01945011131465435, 0.008890001103281975, -0.061387039721012115, -0.019485248252749443, 0.006001030094921589, -0.03731454163789749, -0.036417022347450256, 0.06489776819944382, 0.016712768003344536, -0.0384846106171608, 0.02415764518082142, -0.08716386556625366, 0.12417986989021301, -0.10028133541345596, 0.00801160279661417, -0.03207002952694893, 0.009188330732285976, -0.029724255204200745], [-0.012072881683707237, 0.028197240084409714, 0.0437871515750885, 0.012824684381484985, -0.008737850934267044, -0.0388820543885231, 0.007168138865381479, -0.021224314346909523, 0.051905691623687744, -0.012413901276886463, -0.007056999020278454, 0.02739981934428215, -0.005650208797305822, 0.0008003073744475842, -0.0004520390648394823, 0.008586781099438667, -0.040757954120635986, -0.0057155899703502655, 0.02716953679919243, -0.0645759180188179, -0.04903828352689743, 0.012260651215910912, -0.00875354465097189, 0.05749199166893959, -0.01426114235073328, -0.06571266800165176, 0.06251058727502823, -0.011633218266069889, -0.005899596028029919, -0.030205950140953064, 0.018156349658966064, -0.03800128027796745], [-0.0003861550649162382, 0.0881815031170845, 0.40294110774993896, 0.05004657432436943, -0.003848846536129713, -0.3884117305278778, 0.0011043078266084194, -0.055949002504348755, 0.29959818720817566, -0.013316883705556393, 0.05835120379924774, 0.30879488587379456, 0.02051255851984024, -0.05120908468961716, -0.07228993624448776, 0.04057842865586281, -0.1098005473613739, 0.005543769337236881, 0.06136030703783035, -0.2718014121055603, -0.15043137967586517, 0.06606652587652206, 0.0796247273683548, 0.4537094533443451, 0.05818181112408638, -0.37559038400650024, -0.0760202407836914, -0.04917650669813156, -0.0005371847073547542, -0.1213204562664032, 0.01993473432958126, -0.11526001989841461], [0.06564067304134369, -0.06667793542146683, 0.06130898371338844, -0.0059102363884449005, -0.0038993211928755045, 0.040006380528211594, -0.03420460224151611, 0.1121843084692955, 0.049242064356803894, 0.03201482445001602, 0.05833477899432182, 0.13117603957653046, 0.05043230205774307, 0.13669198751449585, -0.018420126289129257, 0.001467915833927691, 0.02486349456012249, 0.07712644338607788, -0.025699729099869728, 0.03554658219218254, 0.07831039279699326, -0.007757275830954313, -0.004379683174192905, -0.00033796607749536633, -0.008796531707048416, -0.07851041853427887, 0.012654545716941357, -0.09545925259590149, -0.015818463638424873, -0.047432128340005875, -0.017762944102287292, -0.0067252665758132935], [-0.0009248277638107538, -0.0076072062365710735, 0.0003220635699108243, 0.0014816265320405364, 0.0004706119070760906, -0.011388294398784637, -0.002350661437958479, 0.0015389539767056704, 0.013695144094526768, -0.0012383249122649431, 0.004253997467458248, 0.016408318653702736, 0.0017715072026476264, 0.004375448916107416, -0.002787168836221099, 0.004266990814357996, -0.006418146658688784, -0.0013387462822720408, 0.008108763955533504, -0.009313555434346199, -0.008503859862685204, -0.002222448354586959, -0.001464786590076983, 0.02858312986791134, -0.001997105311602354, -0.01628917083144188, -0.018328780308365822, 0.01667868345975876, 0.0010293469531461596, -0.007668736856430769, 0.00391953531652689, -0.008991890586912632], [-0.007185176480561495, 0.013959625735878944, -0.026587944477796555, 0.003628799458965659, -0.007023818325251341, 0.01916751265525818, 0.0048675620928406715, -0.011735438369214535, 0.0043450030498206615, -0.00766714196652174, -0.010356837883591652, -0.013039260171353817, -0.005451987963169813, 0.0017732620472088456, 0.008116103708744049, -0.0015250802971422672, -0.010868106968700886, 0.012955263257026672, 0.006113761104643345, -0.0223409291356802, -0.013266014866530895, -0.009352856315672398, -0.01367769856005907, 0.03203977271914482, -0.018861103802919388, -0.006807850208133459, 0.03486298397183418, -0.011521464213728905, -0.008861611597239971, -0.0015676384791731834, 0.008427550084888935, -0.006830908823758364], [-0.00429817708209157, 0.006063997745513916, -0.02643778547644615, 0.002657643985003233, -0.005942753981798887, 0.011810929514467716, 0.005304698832333088, -0.00580840278416872, 0.009714560583233833, -0.00783669762313366, -0.003691362217068672, 0.00558309443295002, -0.004540559370070696, 0.007150702178478241, 0.0035165303852409124, 0.00021705917606595904, -0.0007395491120405495, 0.00963891576975584, 0.007791482377797365, -0.01480378769338131, -0.009783560410141945, -0.007292131427675486, -0.010559499263763428, 0.033966999500989914, -0.013051794841885567, -0.00537045206874609, 0.0029021380469202995, 0.009784749709069729, -0.006069184746593237, -0.003225270425900817, 0.004024085123091936, -0.005183999426662922], [-0.009626983664929867, 0.0235349889844656, 0.02936221845448017, 0.0047508529387414455, -0.011194425635039806, -0.14043684303760529, 0.009194489568471909, -0.018451906740665436, 0.04221947491168976, -0.015820570290088654, -0.01864711008965969, -0.017394423484802246, -0.007943492382764816, -0.009245319291949272, -0.01045227237045765, 0.02729075215756893, -0.03885668143630028, 0.03355158120393753, -0.0021404922008514404, -0.026613155379891396, -0.015952952206134796, 0.004762258380651474, -0.018203362822532654, 0.08548158407211304, -0.025843694806098938, 0.058417849242687225, 0.07702124118804932, -0.09049970656633377, -0.013268371112644672, 0.04421381279826164, 0.012107002548873425, 0.004723093006759882]], "lstm.bias_ih_l0": [0.0440102145075798, 0.19625239074230194, 0.5289808511734009, 0.00037617399357259274, 0.14062653481960297, 0.25770843029022217, 0.06834331154823303, 0.11929401755332947, 0.013133308850228786, 0.14190629124641418, 0.10518071055412292, 0.06271219998598099, 0.09128054231405258, 0.35646021366119385, -0.014506145380437374, 0.04789600148797035, 0.17605635523796082, 0.24624213576316833, 0.10071536153554916, 0.20254984498023987, 0.0972069650888443, 0.3136149048805237, 0.2261144071817398, 0.4155521094799042, 0.2212221324443817, 0.13371913135051727, 1.1087965965270996, 0.6048387289047241, 0.018699301406741142, 0.09033838659524918, 0.07510195672512054, 6.43628227408044e-05, -0.029518242925405502, -0.038603659719228745, -0.17677494883537292, -0.029914982616901398, -0.06309717893600464, 0.11274329572916031, -0.05266594514250755, -0.10623794049024582, 0.08841435611248016, -0.09635338932275772, -0.01722811907529831, 0.01635921746492386, -0.07685678452253342, -0.33127862215042114, -0.14209340512752533, -0.07833220064640045, 0.08952343463897705, -0.06899391859769821, 0.048403240740299225, -0.04699968919157982, 0.05299543961882591, -0.08061043918132782, -0.00277164438739419, 0.15294715762138367, -0.05223407223820686, 0.1726425290107727, -0.26763275265693665, 0.02860339730978012, -0.04068683832883835, 0.04327875003218651, -0.013689999468624592, 0.04081087186932564, 0.08918671309947968, -0.1444668024778366, 0.13849933445453644, -0.10224875062704086, 0.06952956318855286, -0.09756515175104141, -0.1627136766910553, -0.01813063770532608, 0.12390487641096115, 0.023339902982115746, 0.051750849932432175, 0.12384416908025742, -0.02489234134554863, -0.046914272010326385, -0.023423492908477783, 0.1313202828168869, -0.0474320687353611, 0.09702856093645096, 0.032592687755823135, 0.04209977015852928, -0.08046739548444748, 0.03376012668013573, -0.17863382399082184, 0.062058914452791214, -0.03366094455122948, -0.15586936473846436, -0.03787597641348839, -0.03749290853738785, -0.09251590073108673, -0.20765331387519836, 0.10309918969869614, -0.1888427734375, 0.04615171253681183, 0.20489254593849182, 0.4010036289691925, -0.08603275567293167, 0.14838603138923645, 0.1100325733423233, 0.0659160241484642, 0.10010609030723572, 0.1073358878493309, 0.14354625344276428, 0.060579102486371994, -0.0065822722390294075, 0.09336165338754654, 0.2885141968727112, -0.056575216352939606, 0.014342539012432098, 0.12667153775691986, 0.25549525022506714, 0.08575817942619324, 0.16224902868270874, 0.057319823652505875, 0.15501627326011658, 0.17278200387954712, 0.36767399311065674, 0.19272702932357788, 0.06753752380609512, 0.8047123551368713, 0.5265300869941711, 0.06466776877641678, 0.052519988268613815, 0.09361475706100464, 0.012049495242536068], "lstm.bias_hh_l0": [0.04956156015396118, 0.2068251222372055, 0.5712857246398926, -0.08385024964809418, 0.14007559418678284, 0.21324649453163147, 0.06554032862186432, 0.06391167640686035, 0.03877955302596092, 0.14157162606716156, 0.027506068348884583, 0.06387796252965927, 0.09700184315443039, 0.3768596649169922, 0.14338944852352142, -0.03220776841044426, 0.20420588552951813, 0.23395419120788574, 0.0998692661523819, 0.2002583146095276, 0.12327248603105545, 0.2349897176027298, 0.25725576281547546, 0.4168296456336975, 0.24532480537891388, 0.14549747109413147, 1.1089407205581665, 0.5763782262802124, 0.09963136166334152, 0.037537481635808945, 0.05259392783045769, 0.0843123123049736, -0.031590595841407776, -0.037995319813489914, -0.32905444502830505, -0.02383921481668949, -0.05367288738489151, -0.031321246176958084, -0.050308965146541595, -0.009755993261933327, 0.14231303334236145, -0.09719028323888779, -0.06500820815563202, 0.09124170243740082, -0.07242102921009064, -0.3458870053291321, -0.06457888334989548, 0.029521776363253593, 0.15996351838111877, -0.06313937902450562, 0.0646856501698494, -0.02314136177301407, -0.025270633399486542, 0.06257234513759613, -0.06516959518194199, 0.016677290201187134, -0.027939261868596077, 0.06780008971691132, -0.27357184886932373, 0.0288790725171566, -0.06550765037536621, -0.017436249181628227, 0.013397494331002235, 0.05582399666309357, -0.03375496342778206, 0.007399384398013353, 0.06583110243082047, 0.11185383796691895, 0.09832128882408142, -0.05213712900876999, 0.006606025621294975, 0.08606524020433426, 0.19088098406791687, 0.012523147277534008, -0.05672993138432503, -0.010617871768772602, 0.1255049854516983, 0.10024261474609375, -0.03734790161252022, -0.031287726014852524, -0.07726161926984787, -0.12820300459861755, 0.1397995501756668, -0.12974755465984344, -0.14156655967235565, -0.02173278108239174, 0.03652554005384445, 0.09988807141780853, -0.1490495353937149, -0.2565792202949524, -0.012068900279700756, -0.00722122797742486, 0.12300598621368408, -0.08686605095863342, 0.08480732887983322, -0.09515435248613358, 0.04490934684872627, 0.20426364243030548, 0.4008610248565674, 0.046590741723775864, 0.1362893432378769, 0.2723143696784973, 0.07088430970907211, 0.11751066148281097, -0.03068486601114273, 0.14404958486557007, 0.027285810559988022, 0.026309525594115257, 0.09230184555053711, 0.30200645327568054, 0.11031640321016312, 0.03851180523633957, 0.1807280331850052, 0.24864943325519562, 0.05805659294128418, 0.2249489724636078, -0.0023541043046861887, 0.24829629063606262, 0.24567697942256927, 0.5046262741088867, 0.19567865133285522, 0.154079407453537, 0.803036093711853, 0.530749499797821, 0.07588016241788864, 0.05241338163614273, -0.021547874435782433, 0.1320776343345642], "dense.weight": [[0.15426278114318848, -0.3619091212749481, 0.8193920850753784, -0.008278774097561836, -0.0025454217102378607, -0.08490771055221558, -0.21706682443618774, -0.6328372955322266, 0.15698017179965973, 0.33083900809288025, -0.20388402044773102, -0.16317568719387054, 