{"lstm.weight_ih_l0": [[0.0794372409582138], [0.03175497055053711], [0.07416573166847229], [0.0253373384475708], [-0.06248393654823303], [0.08684055507183075], [0.10789830982685089], [-0.09016065299510956], [0.10984869301319122], [-0.044252410531044006], [0.09760749340057373], [0.036006852984428406], [0.04934212565422058], [0.03890429437160492], [0.09220848977565765], [-0.059330761432647705], [-0.06703177094459534], [-0.037310272455215454], [-0.046138495206832886], [0.049573272466659546], [0.013193592429161072], [-0.008581966161727905], [-0.09760983288288116], [0.12109562754631042], [-0.009616777300834656], [0.11321091651916504], [0.10768209397792816], [-0.045824259519577026], [0.05662430822849274], [-0.08243481814861298], [-0.09697522222995758], [0.08906267583370209], [0.03328680992126465], [-0.12274099886417389], [-0.019423186779022217], [-0.017673999071121216], [0.0276777446269989], [0.11352072656154633], [0.040867939591407776], [0.12445136904716492], [0.08547830581665039], [0.1188599169254303], [-0.08961659669876099], [0.06570635735988617], [0.12481522560119629], [-0.06749337911605835], [-0.12486428022384644], [0.06381721794605255], [-0.11238633096218109], [0.10350918769836426], [-0.05428381264209747], [0.0917913168668747], [-0.03411273658275604], [-0.034465402364730835], [-0.11356863379478455], [0.02516809105873108], [0.05213189125061035], [0.10379718244075775], [-0.09049536287784576], [0.02716939151287079], [-0.08451643586158752], [-0.03379739820957184], [0.018689334392547607], [0.02047039568424225], [0.045995742082595825], [-0.06396442651748657], [-0.08386750519275665], [-0.033673375844955444], [-0.06984101235866547], [0.049208030104637146], [-0.0015945136547088623], [-0.07136060297489166], [0.05623209476470947], [-0.042898207902908325], [-0.016683682799339294], [0.07454508543014526], [0.04640614986419678], [-0.03368188440799713], [0.12193194031715393], [-0.10207565128803253], [-0.003950595855712891], [0.0554487407207489], [-0.07074207067489624], [0.038404181599617004], [0.035698771476745605], [0.019787997007369995], [-0.05718065798282623], [0.08411368727684021], [0.09933033585548401], [0.022588983178138733], [-0.11056722700595856], [0.0895080417394638], [0.09190438687801361], [0.08549521863460541], [0.05026566982269287], [-0.045960932970047], [0.12474124133586884], [-0.009137928485870361], [-0.08322536945343018], [0.07532542943954468], [-0.04367758333683014], [0.021229445934295654], [0.0995694249868393], [-0.12073735892772675], [0.12438724935054779], [0.0859333723783493], [0.0012034177780151367], [-0.08146502077579498], [0.079806849360466], [-0.02818158268928528], [0.12339363992214203], [0.07676446437835693], [0.06824833154678345], [-0.1136956661939621], [0.009394273161888123], [0.09272243082523346], [0.007227256894111633], [0.02866607904434204], [-0.0165787935256958], [0.0333922803401947], [-0.12174764275550842], [0.08368435502052307], [-0.06101255118846893], [0.04007770121097565], [-0.05860060453414917], [-0.06323422491550446], [0.0329630970954895], [-0.08192862570285797], [-0.048678621649742126], [-0.05750073492527008], [-0.08192373812198639], [-0.07218779623508453], [0.03639470040798187], [-0.042969509959220886], [0.11330486834049225], [-0.09421157836914062], [0.08222824335098267], [-0.05993899703025818], [-0.026218503713607788], [-0.08940854668617249], [0.043451517820358276], [-0.052061185240745544], [-0.010736808180809021], [-0.03424292802810669], [0.04334235191345215], [-0.05164864659309387], [0.1039724200963974], [-0.09869644045829773], [0.03446383774280548], [-0.06944049894809723], [0.10851263999938965], [-0.11268360912799835], [-0.038747504353523254], [-0.07765057682991028], [-0.034533992409706116], [0.06560660898685455], [-0.12006579339504242], [-0.07094015181064606], [-0.03909994661808014], [0.06355349719524384], [-0.02301657199859619], [0.039932504296302795], [0.0453479140996933], [0.05527612566947937], [0.07041013240814209], [0.02414362132549286], [-0.10374762117862701], [-0.00911770761013031], [0.02944035828113556], [-0.08446817100048065], [0.07691006362438202], [-0.123191237449646], [-0.0440087616443634], [0.09033815562725067], [-0.06881459057331085], [-0.00012134015560150146], [0.03163793683052063], [0.071085125207901], [0.03535221517086029], [-0.08074413239955902], [-0.10657158493995667], [-0.024904996156692505], [-0.07436949014663696], [0.10183113813400269], [0.07062329351902008], [0.0283433198928833], [-0.12291435897350311], [0.09520061314105988], [-0.08817316591739655], [0.026083797216415405], [-0.012809768319129944], [0.0845288336277008], [-0.11511249840259552], [-0.07719764113426208], [-0.02515256404876709], [0.02314397692680359], [-0.02228337526321411], [-0.09348206222057343], [0.07027781009674072], [-0.029602155089378357], [-0.03700263798236847], [0.05546613037586212], [-0.03384941816329956], [-0.07773995399475098], [0.019078880548477173], [0.09139204025268555], [0.08841609954833984], [-0.062205731868743896], [-0.10241302847862244], [0.010432317852973938], [0.12113775312900543], [0.04485480487346649], [-0.03084789216518402], [-0.08450958132743835], [0.035830214619636536], [-0.10671412944793701], [-0.020403772592544556], [0.02888558804988861], [-0.036147430539131165], [-0.09161505103111267], [0.02568700909614563], [0.008643105626106262], [-0.08097968995571136], [-0.04335452616214752], [0.017913058400154114], [-0.02789163589477539], [-0.04878804087638855], [-0.02565014362335205], [-0.09796421229839325], [-0.07894182205200195], [-0.12046344578266144], [-0.050173982977867126], [0.05226080119609833], [-0.08266948163509369], [0.035756975412368774], [0.10103176534175873], [-0.024430841207504272], [-0.04754364490509033], [-0.1166427731513977], [-0.09439949691295624], [0.08471702039241791], [-0.06435804069042206], [-0.06065244972705841], [-0.07843570411205292], [-0.11965614557266235], [0.04762658476829529], [0.11467410624027252], [0.03704752027988434], [0.05356532335281372], [0.009373784065246582], [0.055208057165145874], [-0.026558145880699158], [0.07696309685707092], [0.07255028188228607], [0.07263483107089996], [-0.09685693681240082]], "lstm.weight_hh_l0": [[-0.0987943708896637, 0.019739463925361633, 0.05217765271663666, -0.08431823551654816, -0.02160710096359253, -0.02972397208213806, -0.08520722389221191, 0.08707484602928162, -0.08104309439659119, 0.06962260603904724, -0.010844424366950989, -0.07583180069923401, -0.07682183384895325, 0.07857394218444824, -0.08647668361663818, 0.06829878687858582, -0.06208576261997223, -0.12163656949996948, -0.020198136568069458, -0.1011151671409607, 0.07138392329216003, 0.03667989373207092, 0.04864493012428284, -0.04345393180847168, -0.09091523289680481, -0.0214567631483078, -0.05329914391040802, 0.02399897575378418, 0.04706348478794098, -0.010387301445007324, 0.020462289452552795, -0.08414077758789062, 0.0960959792137146, 0.0032531768083572388, -0.08472771942615509, -0.024965554475784302, -0.03478677570819855, -0.07744692265987396, -0.10180985927581787, -0.03212711215019226, -0.06951315701007843, -0.11889809370040894, 0.11084237694740295, 0.05704928934574127, 0.07498016953468323, 0.05017280578613281, -0.06677204370498657, 0.03990170359611511, 0.07450400292873383, 0.0965891033411026, -0.05301740765571594, 0.035673320293426514, 0.09393748641014099, -0.025946617126464844, -0.12026038765907288, 0.08762232959270477, -0.06398308277130127, 0.07589079439640045, -0.01837046444416046, 0.002186715602874756, -0.06205630302429199, -0.12255668640136719, 0.010309383273124695, 0.056414514780044556], [-0.05689053237438202, -0.017215535044670105, 0.0038163065910339355, 0.12133470177650452, -0.10428476333618164, 0.06533396244049072, -0.060376569628715515, 0.017857372760772705, 0.046952202916145325, 0.08190543949604034, 0.025490015745162964, -0.10657455027103424, -0.11549894511699677, -0.05726596713066101, -0.10552647709846497, 0.008568793535232544, 0.0787041187286377, -0.06379258632659912, 0.004688188433647156, -0.0010103434324264526, 0.12275268137454987, 0.023401960730552673, -0.0803559422492981, 0.11177915334701538, -0.01890091598033905, 0.12235841155052185, 0.08735449612140656, -0.04063473641872406, 0.0771484225988388, -0.05436109006404877, 0.12353524565696716, -0.020069584250450134, -0.03962869942188263, -0.035394132137298584, 0.09161056578159332, -0.019736871123313904, -0.12376712262630463, -0.0278618186712265, -0.052542492747306824, -0.09927932918071747, 0.062066346406936646, -0.016947120428085327, -0.08013853430747986, 0.0703744888305664, 0.05307026207447052, 0.09929461777210236, 0.12014195322990417, 0.09725594520568848, 0.11429663002490997, -0.02954728901386261, -0.05054035782814026, -0.062446728348731995, -0.02738088369369507, -0.04753328859806061, 0.07641108334064484, 0.07652370631694794, 0.10385218262672424, 0.04149758815765381, -0.023474976420402527, -0.007790505886077881, 0.11309218406677246, -0.10240484774112701, -0.008849352598190308, -0.015093863010406494], [-0.06877504289150238, 0.09492199122905731, -0.08025191724300385, 0.10823334753513336, 0.024625465273857117, -0.007112190127372742, -0.11002346873283386, 0.012745112180709839, 0.028050586581230164, 0.0952451080083847, 0.0793338418006897, -0.001782923936843872, 0.07203371822834015, -0.09290421009063721, -0.04266224801540375, -0.07245109975337982, 0.0885978639125824, -0.047622889280319214, -0.06039820611476898, 0.09820050001144409, -0.12054517865180969, -0.030434921383857727, -0.0022940635681152344, -0.10144701600074768, 0.02791006863117218, 0.062450483441352844, -0.0004115551710128784, -0.1140349954366684, 0.03677752614021301, -0.032766371965408325, -0.01553487777709961, -0.09789302945137024, 0.031341418623924255, -0.06077025830745697, -0.061213403940200806, -0.06737488508224487, -0.08595478534698486, 0.010878130793571472, -0.07987417280673981, 0.09765645861625671, 0.11462418735027313, 0.03737877309322357, -0.11380895972251892, 0.11033901572227478, -0.11799809336662292, 0.06682004034519196, 0.11531879007816315, 0.10513526201248169, -0.07745449244976044, 0.053565606474876404, 0.07993209362030029, 0.0028738081455230713, -0.03374609351158142, 0.0662744790315628, 0.076627716422081, 0.009763047099113464, 0.05344201624393463, -0.07304507493972778, 0.0176323801279068, -0.12123711407184601, 0.04183749854564667, 0.06779918074607849, -0.08959804475307465, -0.02752421796321869], [0.10522392392158508, -0.09414874017238617, -0.009569540619850159, 0.07690687477588654, -0.059517309069633484, -0.0008918195962905884, -0.07412305474281311, 0.08024430274963379, -0.12276209890842438, 0.002734839916229248, 0.08911828696727753, 0.09093630313873291, -0.011114329099655151, 0.0393529087305069, -0.03174436092376709, 0.08006885647773743, -0.04115194082260132, -0.029948681592941284, 0.015188202261924744, 0.06569395959377289, 0.010017797350883484, -0.11907663941383362, 0.04544501006603241, 0.04066994786262512, 0.07324174046516418, -0.022967100143432617, 0.10535858571529388, -0.049447640776634216, 0.02114000916481018, 0.040983647108078, -0.016190871596336365, -0.1050039529800415, -0.045304059982299805, -0.05308365821838379, -0.09747005999088287, 0.043815240263938904, -0.05686648190021515, -0.012546956539154053, -0.09942041337490082, 0.09668119251728058, -0.04721572995185852, 0.12190423905849457, 0.061775267124176025, 0.08601875603199005, -0.08823986351490021, -0.08236975967884064, 0.006365641951560974, -0.07326610386371613, -0.11000634729862213, -0.08154888451099396, -0.08646722137928009, 0.07011468708515167, 0.0663154274225235, 0.025679409503936768, 0.08031715452671051, -0.0835523009300232, 0.10902321338653564, -0.015537917613983154, -0.028811797499656677, 0.03267095983028412, -0.00030641257762908936, -0.001435592770576477, -0.007802858948707581, 0.03627876937389374], [0.09982545673847198, 0.018344059586524963, 0.005087628960609436, -0.042468681931495667, -0.05676822364330292, -0.10988162457942963, 0.12466144561767578, -0.0976269543170929, -0.08798147737979889, 0.06979799270629883, 0.04857882857322693, 0.05025547742843628, -0.01457938551902771, -0.10429257154464722, 0.0648135095834732, 0.060576289892196655, -0.046223074197769165, 0.028305694460868835, 0.009951680898666382, 0.02266557514667511, -0.01859964430332184, 0.07001397013664246, -0.07953840494155884, -0.05674554407596588, 0.017011180520057678, 0.033434122800827026, -0.11671176552772522, 0.012158706784248352, -0.025822371244430542, -0.09695650637149811, -0.1077374517917633, -0.07974092662334442, -0.02927432954311371, -0.09884503483772278, 0.05299445986747742, -0.07140500843524933, 0.03062814474105835, 0.032199278473854065, -0.02146977186203003, -0.020900562405586243, 0.10515038669109344, -0.00011236965656280518, 0.03754819929599762, -0.06107534468173981, -0.0495731383562088, -0.07866136729717255, -0.10347992181777954, 0.1000031977891922, 0.022860035300254822, -0.0766756534576416, 0.10099060833454132, 0.07094244658946991, -0.02136245369911194, -0.054170966148376465, -0.09521938860416412, 0.11085371673107147, 0.03202129900455475, 0.0707004964351654, 0.07859064638614655, -0.0455445796251297, 0.08525319397449493, 0.031664565205574036, -0.09411509335041046, -0.050005048513412476], [0.08436456322669983, 0.010941296815872192, -0.1007852852344513, 0.06136396527290344, -0.09245389699935913, 0.10147486627101898, -0.11665856838226318, 0.05704605579376221, 0.07699209451675415, 0.09161321818828583, 0.004902854561805725, 0.11574441194534302, -0.10263089835643768, 0.005355507135391235, -0.1180536150932312, 0.08996798098087311, -0.0888078510761261, 0.07060423493385315, -0.0867069810628891, 0.07056178152561188, -0.11794814467430115, -0.05490419268608093, -0.11449149250984192, -0.1026732474565506, -0.09176450967788696, -0.09113515913486481, 0.07015752792358398, -0.032784461975097656, -0.035298317670822144, -0.0553516149520874, 0.044822633266448975, 0.04910746216773987, 0.10422959923744202, 0.010627686977386475, -0.008553266525268555, -0.12100642919540405, 0.10012491047382355, -0.0583348274230957, 0.09769858419895172, 0.026019975543022156, 0.11631366610527039, -0.015272155404090881, 0.0772942453622818, 0.07145819067955017, -0.08615481853485107, -0.0044561028480529785, 0.11721307039260864, 0.0689343512058258, -0.03833100199699402, -0.12145435810089111, -0.10397304594516754, 0.003823801875114441, 0.0019785016775131226, -0.007851332426071167, -0.04329928755760193, -0.026278629899024963, 0.04308515787124634, 0.012068212032318115, 0.012045532464981079, 0.04075457155704498, -0.11661973595619202, 0.018968209624290466, -0.08021476864814758, -0.10733921825885773], [-0.03403009474277496, -0.12028659880161285, -0.0907246470451355, 0.10555772483348846, -0.12423129379749298, -0.021849825978279114, -0.053716644644737244, -0.09323184192180634, 0.12088407576084137, -0.0602472722530365, -0.0856551080942154, -0.0032005012035369873, -0.0577012300491333, -0.102312371134758, 0.06169416010379791, 0.09420906007289886, -0.09220507740974426, -0.09078188240528107, 0.07637117803096771, 0.09476345777511597, -0.08085744082927704, 0.10089689493179321, 0.06583264470100403, 0.011361435055732727, 0.03327856957912445, 0.10219044983386993, 0.030647948384284973, -0.08576320111751556, 0.11679339408874512, 0.030490636825561523, -0.035074204206466675, -0.0009603202342987061, -0.04077056050300598, -0.0783056914806366, -0.08635677397251129, 0.003020361065864563, -0.0790773332118988, -0.011601537466049194, -0.10497540235519409, 0.04373598098754883, 0.03211335837841034, 0.10830192267894745, 0.05134914815425873, -0.06478527188301086, -0.12106232345104218, -0.09865535795688629, -0.07053540647029877, 0.022416934370994568, 0.06370094418525696, -0.038994356989860535, -0.021616414189338684, -0.0925942212343216, 0.06687864661216736, -0.09942059218883514, -0.08180753886699677, 0.03337042033672333, 0.10332871973514557, -0.00949840247631073, -0.10207994282245636, 0.11573691666126251, -0.006807193160057068, -0.10619291663169861, 0.013802513480186462, -0.014801666140556335], [-0.04670725762844086, 0.06933294236660004, 0.09251987934112549, -0.10739372670650482, 0.072026327252388, -0.003494247794151306, -0.08434130251407623, 0.08865386247634888, -0.0647762268781662, 0.015612587332725525, 0.03429067134857178, 0.045632749795913696, 0.11837784945964813, 0.12078593671321869, 0.02316930890083313, -0.0439484566450119, 0.05578431487083435, 0.08389750123023987, -0.11414189636707306, -0.008461162447929382, -0.012605533003807068, 0.013110622763633728, -0.053561314940452576, 0.05830797553062439, 0.032527387142181396, 0.03008970618247986, -0.07889379560947418, 0.09177407622337341, 0.010383740067481995, 0.022241845726966858, 0.03503040969371796, -0.12297022342681885, 0.05314716696739197, 0.017930835485458374, 0.032199859619140625, 0.010607779026031494, -0.06840451061725616, 0.06764830648899078, -0.005245640873908997, -0.1080133467912674, 0.009179800748825073, -0.008008643984794617, 0.05217564105987549, -0.11193813383579254, 0.06761904060840607, 0.12092404067516327, -0.10333605110645294, 0.019701749086380005, -0.059607356786727905, -0.024393528699874878, 0.1067417711019516, 0.10285542905330658, 0.061105817556381226, 0.11278387904167175, 0.1230982095003128, 0.018218517303466797, 0.004587814211845398, -0.050502464175224304, 0.02421914041042328, 0.07441288232803345, -0.049384117126464844, 0.03141854703426361, -0.04308095574378967, -0.02304999530315399], [0.008118808269500732, 0.07260744273662567, -0.12131576240062714, 0.040440917015075684, -0.09288650751113892, -0.1077704131603241, -0.10064977407455444, 0.0003193765878677368, -0.05931471288204193, 0.12078376114368439, -0.09460881352424622, -0.051775604486465454, 0.0023337751626968384, -0.011793598532676697, 0.11476694047451019, -0.0826309472322464, -0.07892048358917236, -0.049059852957725525, 0.03161567449569702, -0.06932733952999115, -0.007568418979644775, -0.116986483335495, 0.0865989476442337, 0.07701651751995087, 0.04626038670539856, 0.07716040313243866, 0.0713881403207779, 0.06427162885665894, 0.06178660690784454, -0.04912179708480835, 0.00014699995517730713, 0.06905455887317657, -0.04121963679790497, 0.03842483460903168, 0.0020297765731811523, 0.020981475710868835, -0.022678256034851074, -0.09880329668521881, 0.03889511525630951, 0.033718228340148926, -0.0054928213357925415, 0.010760292410850525, -0.05477176606655121, -0.11781351268291473, -0.0735391229391098, -0.05301317572593689, -0.0403028279542923, -0.10919718444347382, -0.04457014799118042, -0.07231985032558441, -0.02555975317955017, 0.06558306515216827, 0.09873263537883759, -0.044347405433654785, -0.016555652022361755, -0.06713004410266876, 0.06993453204631805, -0.05107107758522034, -0.0976889431476593, -0.09442858397960663, -0.08131137490272522, -0.029067590832710266, -0.03597696125507355, 0.04375101625919342], [-0.01886141300201416, -0.11586369574069977, -0.05345182120800018, -0.05135364830493927, 0.023289650678634644, -0.06420516967773438, 0.021778196096420288, -0.03483717143535614, 0.05408407747745514, 0.09772549569606781, 0.08441615104675293, 0.03841233253479004, 0.06897097826004028, -0.08986683189868927, 0.005333557724952698, -0.014617443084716797, -0.004584655165672302, -0.006412088871002197, 0.07433044910430908, -0.11655524373054504, 0.08980968594551086, -0.04280109703540802, 0.07794715464115143, 0.017780080437660217, 0.02180562913417816, -0.021320044994354248, 0.10379430651664734, -0.0006697028875350952, -0.027770251035690308, -0.04346141219139099, 0.06261143088340759, -0.12499809265136719, 0.08768387138843536, 0.11812381446361542, 0.07329355180263519, -0.008677572011947632, -0.12203153967857361, 0.06894974410533905, 0.04050867259502411, -0.0020456314086914062, 0.09651060402393341, -0.07751674950122833, -0.09279869496822357, -0.08090029656887054, -0.08772890269756317, 0.04562833905220032, 0.029693424701690674, -0.027291640639305115, -0.001369386911392212, -0.07272693514823914, 0.1065274029970169, -0.01744827628135681, -0.0024097412824630737, 0.052974164485931396, -0.12152296304702759, 0.027270197868347168, 0.09986981749534607, -0.09423334896564484, -0.03984406590461731, 0.09050680696964264, 0.006243422627449036, 0.05912525951862335, 0.017494797706604004, -0.11387626826763153], [0.01166747510433197, -0.05027490854263306, 0.061341673135757446, 0.02947501838207245, -0.07316963374614716, -0.10171757638454437, -0.09721599519252777, 0.11072596907615662, -0.10902667045593262, 0.002266421914100647, 0.01604481041431427, 0.12317965924739838, 0.07924732565879822, 0.07417908310890198, -0.03775140643119812, 0.06429778039455414, 0.11697559058666229, 0.05591878294944763, 0.12215755879878998, 0.08193625509738922, -0.034253790974617004, 0.11605159938335419, 0.030970901250839233, 0.08253468573093414, 0.05870291590690613, -0.08754341304302216, 0.019376173615455627, -0.10399898886680603, 0.0611044317483902, 0.08267644047737122, -0.08818431198596954, -0.11692644655704498, 0.07639743387699127, -0.11180947721004486, -0.0901772528886795, -0.03396718204021454, 0.09954443573951721, 0.01994335651397705, -0.01944790780544281, 0.052771687507629395, -0.018460795283317566, 0.01670755445957184, 0.010838612914085388, 0.03942205011844635, 0.057857438921928406, 0.10006137192249298, 0.1146136224269867, -0.03968192636966705, 0.014085054397583008, -0.03416195511817932, 0.04871462285518646, -0.07319501042366028, -0.06960229575634003, -0.10065191984176636, -0.10920137166976929, -0.08507254719734192, -0.016558319330215454, -0.11293274164199829, 0.10811492800712585, -0.05137735605239868, 0.07640652358531952, -0.036543264985084534, -0.09780730307102203, 0.06434883177280426], [0.07097895443439484, 0.03874467313289642, 0.11849300563335419, 0.00035090744495391846, -0.11112789809703827, 0.0677577555179596, 0.08960318565368652, -0.006465896964073181, -0.06268461048603058, 0.08429540693759918, 0.0593179315328598, 0.11979909241199493, -0.08436675369739532, -0.009621083736419678, -0.05611574649810791, 0.017905980348587036, -0.10982969403266907, -0.10705584287643433, 0.09012377262115479, 0.0798034518957138, 0.06544479727745056, -0.07552042603492737, -0.11526300013065338, -0.050929367542266846, -0.007453858852386475, 0.09884181618690491, -0.10219405591487885, -0.04728780686855316, 0.029245898127555847, -0.033765941858291626, 0.04724368453025818, -0.0954086035490036, 0.10215896368026733, 0.08869478106498718, 0.06104794144630432, 0.05945228040218353, -0.005162104964256287, -0.07813780009746552, 0.08229117095470428, -0.002033546566963196, -0.11190764605998993, 0.01990695297718048, -0.04104936122894287, -0.11542288959026337, -0.08808436989784241, -0.028471484780311584, -0.028597652912139893, 0.10725142061710358, -0.043691039085388184, 0.04426044225692749, 0.05051238834857941, -0.05970852077007294, -0.10534770786762238, 0.0022806674242019653, 0.09265539050102234, -0.07743190228939056, 0.00581398606300354, -0.12100371718406677, 0.09563064575195312, 0.0052023231983184814, 0.12379786372184753, 0.06493516266345978, 0.12482446432113647, 0.11366139352321625], [0.1195463091135025, 0.05576257407665253, -0.09755218029022217, 0.010776937007904053, -0.042260244488716125, 0.0643218606710434, -0.11241477727890015, 0.11805970966815948, -0.07288001477718353, -0.04145701229572296, -0.04736700654029846, -0.010708212852478027, -0.12138938903808594, 0.10685569047927856, 0.008759289979934692, -0.11555562913417816, -0.053287118673324585, -0.09863133728504181, 0.08246338367462158, 0.06255532801151276, -0.03879949450492859, -0.04893496632575989, 0.08435027301311493, -0.05390651524066925, -0.004786491394042969, -0.054144084453582764, 0.022225916385650635, 0.011605978012084961, -0.10498577356338501, -0.015819117426872253, -0.09729094803333282, 0.05175715684890747, -0.012599557638168335, -0.09645025432109833, 0.004174932837486267, -0.0024766623973846436, -0.011924341320991516, -0.11813366413116455, 0.05885504186153412, -0.015453457832336426, -0.12048771977424622, -0.03332586586475372, 0.03332623839378357, -0.05041117966175079, 0.07420216500759125, 0.08217716217041016, -0.12025576829910278, 0.02484355866909027, -0.03443393111228943, -0.05270136892795563, 0.10295118391513824, 0.11491560935974121, -0.0011705011129379272, 0.05671346187591553, 0.10411673784255981, 0.025041356682777405, 0.035623207688331604, -0.08272585272789001, -0.10563328862190247, 0.07122418284416199, -0.05636748671531677, -0.10409201681613922, -0.026768147945404053, 0.10992513597011566], [0.03925681114196777, -0.11217591166496277, -0.12196847796440125, 0.018440768122673035, 0.006839841604232788, -0.11883926391601562, -0.11340425908565521, 0.09588423371315002, -0.11788703501224518, 0.06990697979927063, -0.08720120787620544, -0.014850392937660217, -0.05801539123058319, -0.03429153561592102, -0.1176721453666687, 0.031091824173927307, -0.03667786717414856, -0.11151795089244843, -0.07693251967430115, 0.01581549644470215, -0.09406499564647675, 0.001411333680152893, -0.08857156336307526, 0.10865770280361176, 0.10134513676166534, -0.1211705207824707, -0.09013159573078156, -0.10871925950050354, 0.036934494972229004, 0.06558394432067871, -0.11524535715579987, -0.06699053943157196, -0.12037982046604156, -0.04456500709056854, 0.1097177267074585, 0.10956455767154694, 0.10149620473384857, -0.051881179213523865, 0.10170234739780426, 0.053233563899993896, -0.08797954022884369, 0.03254362940788269, -0.024623751640319824, -0.060614630579948425, -0.10699130594730377, 0.010236844420433044, 0.09267309308052063, -0.0808943659067154, 0.033043235540390015, 0.04717554152011871, -0.06654131412506104, -0.04929503798484802, 0.12429629266262054, -0.049031078815460205, 0.10162797570228577, -0.0709901750087738, 0.012623369693756104, -0.08689932525157928, -0.11642684042453766, -0.04736040532588959, -0.06762728095054626, 0.08314569294452667, 0.0904129147529602, -0.018536850810050964], [0.012168332934379578, -0.04834887385368347, -0.04098723828792572, -0.018689781427383423, 0.022487401962280273, 0.10570791363716125, -0.06356582045555115, -0.07429355382919312, -0.10772009193897247, -0.04401056468486786, -0.06950913369655609, -0.07588377594947815, 0.05405789613723755, 0.09737390279769897, -0.012180671095848083, -0.06850036978721619, 0.0652773529291153, -0.013755574822425842, 0.0029673725366592407, 0.015167668461799622, 0.06141255795955658, 0.12287776172161102, 0.0137251615524292, 0.0736171156167984, -0.07061868906021118, -0.022227615118026733, 0.11241953074932098, -0.01404474675655365, 0.065238356590271, 0.07218901813030243, -0.11256256699562073, 0.1154407411813736, 0.0728796124458313, -0.016766950488090515, 0.05280144512653351, -0.0012209713459014893, -0.007428467273712158, 0.06409108638763428, -0.10119013488292694, 0.08583757281303406, -0.08625803887844086, 0.028701215982437134, -0.07910729944705963, 0.0955975204706192, -0.06342671811580658, -0.11765304207801819, 0.11413732171058655, 0.03167925775051117, 0.0334317684173584, 0.10454043745994568, 0.12469074130058289, 0.050787538290023804, -0.12165394425392151, -0.07017368078231812, 0.06274320185184479, 0.11240579187870026, -0.04168258607387543, 0.07349823415279388, -0.08660325407981873, 0.08481767773628235, 0.09957002103328705, 0.021615058183670044, 0.10445813834667206, -0.06080392003059387], [-0.09081153571605682, 0.017180174589157104, 0.04682977497577667, 0.02588754892349243, 0.04244475066661835, -0.10636988282203674, -0.032050296664237976, -0.01245129108428955, 0.10770992934703827, -0.06594908237457275, -0.08041399717330933, 0.044846877455711365, 0.05061686038970947, 0.11867572367191315, -0.11949829757213593, -0.00908932089805603, -0.010289251804351807, 0.11923617124557495, -0.04794438183307648, -0.08496402204036713, 0.01075907051563263, 0.07391564548015594, 0.0305832177400589, 0.009581401944160461, 0.0628928542137146, -0.03451153635978699, 0.10666495561599731, 0.006007105112075806, 0.07961961627006531, 0.08578789234161377, -0.09543274343013763, 0.12277966737747192, -0.033327966928482056, -0.10821464657783508, 0.06458285450935364, 0.07811495661735535, 0.07454156875610352, -0.04052214324474335, 0.10098256170749664, 0.12335990369319916, -0.061882853507995605, -0.00496964156627655, 0.09393879771232605, -0.1233987957239151, 0.11868536472320557, 0.11986102163791656, -0.12433750927448273, 0.04613344371318817, -0.10979202389717102, 0.050681039690971375, -0.047270119190216064, 0.061424002051353455, -0.06996884942054749, -0.1051623672246933, -0.012714236974716187, -0.016231819987297058, 0.057375162839889526, -0.0422782301902771, 0.11097805202007294, -0.05144226551055908, -0.006655991077423096, -0.0961071252822876, 0.008678540587425232, -0.021593213081359863], [0.015607848763465881, 0.06462648510932922, 0.07325460016727448, -0.09307931363582611, -0.001698821783065796, -0.08749808371067047, 0.12273634970188141, 0.06606006622314453, 0.04695376753807068, -0.12070564925670624, 0.04680006206035614, 0.0687481164932251, 0.07536834478378296, 0.04243585467338562, -0.012594535946846008, 0.018295347690582275, -0.035408154129981995, 0.10930895805358887, -0.01941607892513275, 0.0632428526878357, 0.02648782730102539, 0.11987131834030151, -0.053011029958724976, 0.11187969148159027, -0.038239285349845886, -0.004397392272949219, -0.11796179413795471, -0.12037435173988342, 0.028956979513168335, -0.07289038598537445, -0.00782310962677002, 0.11855335533618927, -0.04385252296924591, -0.0038514435291290283, 0.017260536551475525, 0.03605617582798004, 0.09220902621746063, 0.08214926719665527, 0.021343156695365906, -0.10176803171634674, -0.10050036013126373, 0.10845409333705902, -0.10468891263008118, -0.01708391308784485, 0.05543975532054901, 0.09827810525894165, 0.08092169463634491, -0.044610872864723206, -0.009060755372047424, 0.02111552655696869, 0.04129408299922943, 0.11359988152980804, 0.07324805855751038, 0.0557127445936203, -0.1178092360496521, 0.12177176773548126, 0.12066091597080231, -0.060058146715164185, 0.005869701504707336, -0.09202517569065094, -0.0076240599155426025, -0.08058400452136993, 0.038936957716941833, -0.018775835633277893], [0.08302347362041473, -0.08194246888160706, -0.0928896814584732, -0.0932883620262146, 0.05074946582317352, 0.0533260703086853, 0.045302197337150574, -0.09142130613327026, -0.1074909120798111, 0.08336760103702545, 0.11343508958816528, 0.051909103989601135, -0.014689072966575623, -0.005098059773445129, -0.001294642686843872, 0.052199289202690125, 0.022789135575294495, 0.00439906120300293, -0.06355200707912445, -0.09557326138019562, 0.09092877805233002, -0.07467931509017944, 0.002185612916946411, 0.012815773487091064, -0.05814585089683533, -0.08941265940666199, -0.1220666766166687, 0.10256986320018768, -0.049162015318870544, -0.030107513070106506, -0.0029080063104629517, -0.025837182998657227, -0.07882954180240631, -0.08134831488132477, -0.12371747195720673, 0.11407315731048584, 0.1097152978181839, -0.03768362104892731, 0.004657000303268433, 0.05965135991573334, -0.08283281326293945, 0.07892371714115143, -0.0788559764623642, 0.08272174000740051, -0.027812331914901733, 0.07472723722457886, 0.10240265727043152, -0.10155951976776123, -0.11824391782283783, -0.057885006070137024, 0.010843262076377869, -0.0411701500415802, -0.10127344727516174, 0.09653259813785553, -0.03486758470535278, 0.0190088152885437, 0.07235632836818695, 0.05508542060852051, -0.005277901887893677, -0.021997123956680298, 0.07019804418087006, -0.05076563358306885, -0.042847514152526855, 0.03601433336734772], [-0.07139891386032104, 0.09016276895999908, -0.11370037496089935, -0.08454912900924683, 0.10806842148303986, -0.07438153028488159, -0.11696496605873108, -0.10192032158374786, 0.025592416524887085, 0.022002145648002625, -0.07816280424594879, -0.12133955955505371, -0.01111014187335968, -0.055842623114585876, 0.058845654129981995, -0.11321550607681274, 0.04561915993690491, -0.0818551629781723, -0.09756889939308167, 0.07797925174236298, -0.04497997462749481, 0.09707954525947571, 0.07538998126983643, 0.025096610188484192, -0.038432806730270386, 0.08388650417327881, -0.048708125948905945, -0.06055225431919098, -0.011855408549308777, 0.06316395103931427, 0.07108677923679352, -0.04048223793506622, -0.06480059027671814, 0.006220117211341858, 0.035823047161102295, 0.04486285150051117, -0.10582244396209717, 0.11110475659370422, 0.017231598496437073, -0.08737115561962128, -0.06397703289985657, 0.1240987777709961, 0.03985695540904999, 0.06976447999477386, 0.10886354744434357, -0.12025044858455658, -0.08579012751579285, -0.022962242364883423, -0.02750188112258911, -0.006300151348114014, -0.055971160531044006, -0.057521045207977295, -0.10516190528869629, -0.002244621515274048, -0.03844088315963745, 0.07591870427131653, 0.08723701536655426, -0.022664502263069153, -0.05302071571350098, 0.05235901474952698, 0.01240113377571106, -0.10936775803565979, -0.11370886862277985, -0.0733432024717331], [0.010867565870285034, 0.011466741561889648, 0.10822746157646179, -0.12173981964588165, 0.08583314716815948, -0.03556232154369354, 0.01718907058238983, 0.08928412199020386, -0.11795414984226227, 0.06164677441120148, 0.007207617163658142, -0.1185406893491745, 0.05708184838294983, -0.05172266066074371, -0.08768989145755768, 0.06582491099834442, 0.02143341302871704, 0.09533631801605225, -0.00011259317398071289, -0.035583868622779846, -0.10016439855098724, -0.12427404522895813, -0.05215948820114136, -0.03320161998271942, -0.012295857071876526, 0.09114021062850952, 0.06006622314453125, -0.10665008425712585, -0.11761099100112915, 0.06528851389884949, 0.09661011397838593, -0.023824959993362427, 0.08562248945236206, 0.04801782965660095, -0.060019105672836304, -0.015104800462722778, -0.09304578602313995, 0.10126334428787231, -0.06251120567321777, 0.0707319974899292, -0.1240314245223999, -0.06610614061355591, -0.055852144956588745, -0.04684603214263916, -0.06422403454780579, -0.013908818364143372, 0.03832903504371643, -0.12061284482479095, 0.08980435132980347, 0.04354594647884369, -0.008694201707839966, 0.08287562429904938, -0.05021621286869049, 0.03784461319446564, 0.07187214493751526, -0.07379435002803802, -0.06838518381118774, -0.07634758949279785, -0.08176539838314056, 0.10891973972320557, 0.010968223214149475, -0.07755814492702484, 0.05791714787483215, -0.07541938126087189], [0.11121600866317749, 0.0357254296541214, -0.08180035650730133, -0.056619346141815186, -0.02191232144832611, -0.03707902133464813, 0.09944294393062592, 0.0036189109086990356, -0.032787978649139404, -0.06147027015686035, 0.12086120247840881, -0.07874105870723724, 0.10950891673564911, 0.12074984610080719, -0.056272104382514954, -0.06423971056938171, 0.03287632763385773, -0.11025677621364594, 0.061089709401130676, 0.11103841662406921, 0.07177124917507172, -0.0271175354719162, -0.08426792919635773, 0.017052501440048218, 0.07879327237606049, -0.05852629244327545, -0.008655980229377747, -0.0948764830827713, 0.024192005395889282, -0.08846698701381683, -0.05693742632865906, -0.026687368750572205, -0.0939265638589859, -0.08257727324962616, -0.11730341613292694, -0.07948784530162811, 0.10763095319271088, 0.03218184411525726, 0.008862793445587158, 0.008689075708389282, 0.10371418297290802, -0.04069127142429352, -0.01261332631111145, -0.03994978964328766, 0.10502026975154877, 0.11349363625049591, -0.058974385261535645, -0.007328256964683533, -0.06203940510749817, 0.029933646321296692, -0.005718141794204712, 0.08326348662376404, -0.11155834794044495, -0.10717032849788666, -0.033558547496795654, 0.095828577876091, -0.04707758128643036, -0.01785379648208618, -0.12474003434181213, 0.11636511981487274, 0.0033343881368637085, 0.062186092138290405, 0.08873839676380157, 0.07359310984611511], [-0.04301545023918152, -0.019073426723480225, -0.03043656051158905, 0.033323854207992554, -0.013513624668121338, -0.09094710648059845, -0.09740452468395233, 0.03951427340507507, -0.0488327294588089, -0.09336332976818085, -0.030183613300323486, 0.08268733322620392, -0.02762049436569214, -0.07865184545516968, 0.007484182715415955, 0.08148473501205444, -0.0801781415939331, 0.020577698945999146, 0.11558537185192108, -0.01081743836402893, 0.0053988248109817505, 0.012036159634590149, 0.12091788649559021, 0.11865361034870148, 0.018845200538635254, -0.04339621961116791, 0.09278960525989532, 0.062291219830513, -0.047348394989967346, 0.09252901375293732, -0.007584363222122192, 0.0982213020324707, -0.03327549993991852, 0.023639768362045288, -0.08541691303253174, -0.04096183180809021, -0.07236748933792114, 0.07088585197925568, 0.014119669795036316, 0.1175428181886673, -0.02345830202102661, -0.011060401797294617, 0.01026982069015503, 0.06753398478031158, -0.009089633822441101, 0.03113250434398651, 0.04676660895347595, 0.09088508784770966, -0.06342767179012299, 0.12166248261928558, 0.05360622704029083, -0.04112429916858673, -0.10202425718307495, -0.026515930891036987, 0.10718461871147156, 0.084374338388443, 0.020450115203857422, 0.10925355553627014, 0.025066345930099487, 0.11043918132781982, 0.06808331608772278, -0.08227424323558807, 0.04154016077518463, 0.12410131096839905], [-0.04093322157859802, -0.11678889393806458, 0.016115576028823853, -0.0944577306509018, -0.08770456910133362, 0.012725353240966797, -0.09776833653450012, -0.02207241952419281, -0.10814499855041504, -0.05994896590709686, 0.03622394800186157, 0.029050394892692566, 0.04503771662712097, -0.10147279500961304, 0.04560887813568115, -0.07572579383850098, -0.05260343849658966, -0.07484813034534454, -0.003637969493865967, 0.009272411465644836, -0.0587165504693985, -0.1202181726694107, 0.07989087700843811, -0.003167450428009033, -0.02302001416683197, -0.06196920573711395, -0.046905845403671265, -0.08209086954593658, -0.08819660544395447, 0.08081579208374023, 0.08652949333190918, 0.040948107838630676, 0.01536443829536438, -0.08692508935928345, -0.05749036371707916, -0.018893882632255554, -0.1188950389623642, -0.05204176902770996, -0.08092054724693298, -0.07588879764080048, -0.04090169072151184, 0.1057131439447403, -0.09006552398204803, -0.05907687544822693, 0.0859040915966034, 0.04884380102157593, -0.11821269989013672, -0.08368487656116486, 0.07242676615715027, -0.050769492983818054, -0.04373747110366821, -0.1121203750371933, 0.0944145917892456, -0.09147295355796814, 0.08847770094871521, -0.0366445928812027, 0.014257505536079407, 0.05673682689666748, -0.12273700535297394, 0.10137791931629181, 0.0853452980518341, -0.07512722909450531, 0.021529734134674072, -0.08854685723781586], [0.03566671907901764, 0.024185165762901306, -0.08301319181919098, 0.036776721477508545, 0.0961686223745346, 0.005034208297729492, -0.08750705420970917, 0.11897793412208557, -0.005866378545761108, -0.01751081645488739, 0.017596706748008728, 0.09374746680259705, -0.015166908502578735, -0.051833778619766235, 0.021908476948738098, -0.04197968542575836, -0.06112608313560486, -0.009438097476959229, 0.0854053944349289, -0.02222605049610138, 0.085551917552948, 0.07291580736637115, 0.035280048847198486, -0.029284358024597168, -0.07156164944171906, 0.07324926555156708, -0.11726148426532745, 0.0795450508594513, -0.046634867787361145, 0.07575657963752747, -0.025648042559623718, 0.045696601271629333, 0.07969169318675995, -0.0034820884466171265, -0.08174800872802734, 0.023735910654067993, -0.012915998697280884, 0.07387922704219818, -0.1068027913570404, 0.1049002856016159, 0.11620980501174927, -0.0519966185092926, 0.10718569159507751, -0.05688510835170746, 0.002258315682411194, -0.015456676483154297, -0.018724292516708374, -0.10889913141727448, -0.0382150262594223, -0.060902103781700134, 0.04010559618473053, -0.04762834310531616, -0.002947211265563965, -0.0658964067697525, 0.11716154217720032, 0.016628071665763855, -0.04371607303619385, -0.0027938485145568848, 0.10361213982105255, -0.07080945372581482, 0.02244652807712555, 0.08244740962982178, 0.009204685688018799, -0.019808202981948853], [-0.02691422402858734, -0.0763796865940094, -0.03532207012176514, 0.08536642789840698, 0.11626113951206207, -0.1028105616569519, -0.11014306545257568, -0.04060244560241699, -0.11736394464969635, -0.07402227818965912, -0.11967696249485016, 0.011154189705848694, -0.11389224231243134, 0.12121127545833588, -0.11649449169635773, -0.0156068354845047, -0.07396885752677917, -0.11599351465702057, -0.02486981451511383, -0.08381371200084686, 0.08237425982952118, 0.023025408387184143, -0.030535370111465454, 0.029258057475090027, -0.04339362680912018, 0.09581434726715088, -0.11621646583080292, 0.04952138662338257, -0.10793983936309814, 0.002626955509185791, 0.08424073457717896, 0.10591793060302734, -0.0009249448776245117, 0.012576237320899963, -0.01884324848651886, -0.0950210839509964, 0.03671565651893616, -0.09673842787742615, -0.011173054575920105, 0.10199089348316193, -0.05640631914138794, 0.12084193527698517, 0.01344318687915802, 0.10136942565441132, -0.10192140936851501, -0.09195135533809662, 0.04748263955116272, 0.08933913707733154, -0.09331877529621124, 0.03227521479129791, -0.03742304444313049, -0.0624171644449234, 0.09071160852909088, -0.10577519237995148, 0.06856095790863037, 0.11073799431324005, 0.10061365365982056, -0.06483887135982513, 0.015489086508750916, -0.060547858476638794, 0.06984642148017883, -0.05997699499130249, 0.11084122955799103, -0.002745702862739563], [-0.05256474018096924, 0.10280594229698181, -0.11422039568424225, 0.11035744845867157, -0.01713922619819641, 0.050215110182762146, 0.07012017071247101, -0.043559640645980835, 0.10319922864437103, 0.03288649022579193, -0.04001040756702423, -0.03565123677253723, 0.038786739110946655, -0.06142610311508179, 0.09209124743938446, -0.042978331446647644, -0.051926225423812866, -0.10415160655975342, 0.013941049575805664, -0.0864281952381134, -0.03092961013317108, -0.0399882048368454, -0.08463267982006073, 0.05316723883152008, -0.06842654943466187, 0.06550811231136322, 0.006041884422302246, -0.08526591956615448, 0.10498130321502686, 0.07432018220424652, -0.09094876050949097, -0.05941168963909149, 0.0574294775724411, -0.025854527950286865, -0.10900519788265228, -0.027230829000473022, 0.03652523458003998, 0.09275391697883606, -0.03903636336326599, -0.05145387351512909, 0.014311805367469788, 0.03940226137638092, 0.022202298045158386, -0.04494105279445648, -0.06713420152664185, 0.08563904464244843, -0.03011588752269745, 0.017385005950927734, 0.037892863154411316, 0.044313445687294006, 0.0017680078744888306, 0.11724336445331573, 0.0982586145401001, -0.029607772827148438, -0.022386133670806885, 0.09531596302986145, 0.019343793392181396, 0.038583844900131226, 0.019314691424369812, -0.0522855669260025, -0.06436002254486084, 0.01672324538230896, 0.10998620092868805, -0.08807964622974396], [0.07909935712814331, 0.03005295991897583, 0.09125326573848724, -0.10272601246833801, -0.09922118484973907, 0.11109837889671326, -0.025436848402023315, 0.0955314040184021, -0.09936030209064484, -0.04452802240848541, -0.030283883213996887, -0.11983676254749298, 0.07990080118179321, 0.029935970902442932, 0.06391815841197968, -0.10430268943309784, 0.009481832385063171, -0.08009746670722961, -0.013504192233085632, -0.07617047429084778, 0.061893150210380554, -0.018695414066314697, -0.05382852256298065, -0.05056561529636383, -0.01897980272769928, -0.08681146800518036, 0.07594133913516998, -0.054763421416282654, 0.09427393972873688, 0.05122418701648712, 0.0028826743364334106, -0.07789579033851624, 0.042635589838027954, -0.05819806456565857, 0.05799345672130585, 0.1145113855600357, -0.025962501764297485, 0.013431861996650696, 0.011273473501205444, -0.020701438188552856, 0.12218202650547028, 0.07796603441238403, -0.08017371594905853, 0.11103564500808716, -0.02287459373474121, -0.09836561977863312, 0.0736740231513977, -0.05848352611064911, 0.08806653320789337, -0.018395602703094482, -0.011875614523887634, -0.0119122713804245, 0.03242279589176178, -0.11544869840145111, 0.07303875684738159, -0.0852254182100296, -0.06693889200687408, -0.0037924349308013916, -0.08189797401428223, -0.06798453629016876, 0.10682851076126099, 0.02858668565750122, -0.05935710668563843, 0.002761140465736389], [0.0035180002450942993, 0.015449106693267822, -0.06530338525772095, -0.10301722586154938, -5.4523348808288574e-05, -0.11826547980308533, -0.12323512136936188, 0.04997876286506653, -0.11904239654541016, 0.01134394109249115, -0.10717451572418213, 0.04902958869934082, 0.017081305384635925, 0.10848638415336609, 0.09454436600208282, -0.10025626420974731, -0.02251516282558441, -0.03803686797618866, -0.014626666903495789, 0.03965260088443756, -0.05967915058135986, -0.07827594876289368, -0.07589635252952576, 0.014474987983703613, -0.0058866143226623535, -0.1018930971622467, 0.033024027943611145, -0.09060066938400269, 0.0719834417104721, 0.02283024787902832, -0.033222466707229614, 0.005978524684906006, -0.09143483638763428, -0.003596097230911255, -0.0926055759191513, 0.09933590888977051, 0.06947311758995056, 0.0429845005273819, 0.0516810417175293, -0.092880979180336, 0.0023137181997299194, 0.05073961615562439, -0.027306750416755676, 0.002630472183227539, -0.025538548827171326, 0.05700024962425232, 0.08532801270484924, -0.09991449117660522, -0.008486658334732056, 0.11666686832904816, 0.021871745586395264, -0.09958729147911072, 0.04806548357009888, -0.023518845438957214, 0.11610819399356842, 0.012434303760528564, 0.029340699315071106, 0.09950661659240723, 0.031070023775100708, -0.08455796539783478, -0.004460841417312622, -0.0933561772108078, -0.04510505497455597, 0.10324715077877045], [-0.05344465374946594, 0.09347794950008392, 0.007454007863998413, -0.02496124804019928, -0.11635035276412964, 0.06634193658828735, 0.06052325665950775, -0.09127984941005707, 0.06524971127510071, 0.0049368590116500854, 0.019207239151000977, -0.00349445641040802, 0.009058326482772827, 0.03713242709636688, 0.04683569073677063, -0.06835050880908966, -0.020473450422286987, -0.05834847688674927, 0.006602182984352112, -0.0962107926607132, -0.06312263011932373, 0.05468443036079407, 0.1010795384645462, -0.025312811136245728, -0.08149310946464539, 0.05511932075023651, 0.10773921012878418, -0.05479420721530914, -0.08171170949935913, -0.11094328761100769, 0.10053421556949615, -0.05336959660053253, -0.0875471830368042, -0.10343369841575623, 0.08112733066082001, -0.0028236061334609985, -0.005642428994178772, 0.06765337288379669, -0.1074424535036087, -0.044783011078834534, 0.01701359450817108, -0.0872904509305954, -0.038009971380233765, -0.11714127659797668, -0.043120115995407104, -0.04862120747566223, 0.11832979321479797, -0.02416527271270752, -0.04779566824436188, -0.09969054162502289, 0.01574939489364624, -0.0694817453622818, 0.07929463684558868, 0.015341803431510925, 0.00896407663822174, 0.033762186765670776, -0.008981704711914062, -0.07985064387321472, 0.019919201731681824, -0.036781445145606995, 0.0863669216632843, 0.0782524049282074, -0.09673935174942017, -0.10272577404975891], [-0.11398269236087799, 0.0946616530418396, -0.010370597243309021, 0.09426580369472504, 0.0614522248506546, 0.09209372103214264, 0.034152910113334656, 0.10029783844947815, 0.11765047907829285, -0.03664344549179077, 0.041944846510887146, 0.02132391929626465, -0.1171737015247345, 0.03553597629070282, 0.04773549735546112, 0.08493892848491669, 0.08479295670986176, -0.07040232419967651, 0.0660289078950882, 0.10874678194522858, -0.02362959086894989, 0.11063876748085022, 0.12148286402225494, -0.024715006351470947, -0.06457892060279846, -0.06283830106258392, -0.025988876819610596, -0.06906367838382721, -0.023787498474121094, 0.048625752329826355, 0.09975677728652954, -0.08017919957637787, 0.07224814593791962, -0.11860924959182739, -0.030180975794792175, 0.11943735182285309, -0.025946959853172302, -0.11103931069374084, -0.07616913318634033, 0.11188602447509766, 0.06416268646717072, -0.07611079514026642, -0.021121636033058167, -0.1195702999830246, -0.05542492866516113, -0.08981531858444214, -0.049644142389297485, -0.06552162766456604, 0.07659712433815002, -0.0329112708568573, 0.05714578926563263, -0.020898595452308655, -0.0007552802562713623, -0.004204690456390381, 0.06298977136611938, 0.10367201268672943, 0.08191505074501038, 0.03102843463420868, -0.10345129668712616, 0.09607204794883728, -0.08988393843173981, -0.0735677182674408, -0.04445870220661163, 0.051931172609329224], [0.11718463897705078, -0.07248710095882416, 0.04589378833770752, 0.10735785961151123, 0.11070103943347931, -0.07812610268592834, -0.029657527804374695, 0.08463093638420105, 0.07726459205150604, -0.04623737931251526, 0.06775340437889099, 0.02136915922164917, 0.07555538415908813, 0.11649307608604431, 0.081931471824646, -0.055894702672958374, -0.017392337322235107, -0.009789153933525085, 0.01737073063850403, -0.07053200900554657, -0.04099731147289276, 0.09136092662811279, 0.039201945066452026, -0.06695634126663208, 0.08135424554347992, -0.08139495551586151, 0.07551448047161102, -0.042549505829811096, 0.056832537055015564, 0.007984697818756104, 0.11462937295436859, -0.08191318809986115, -0.11677998304367065, -0.052722781896591187, 0.021948054432868958, 0.058157145977020264, -0.11526013910770416, 0.06643882393836975, 0.02763749659061432, 0.04947024583816528, 0.10038864612579346, 0.1242838203907013, -0.1096128523349762, 0.028344452381134033, 0.09618104994297028, 0.036171674728393555, -0.04991327226161957, -0.023013129830360413, 0.03742818534374237, 0.08406846225261688, 0.057756468653678894, -0.056351736187934875, 0.03338536620140076, -0.10815215110778809, -0.03914529085159302, 0.08793190121650696, -0.09430645406246185, 0.02359609305858612, -0.05602744221687317, -0.001142948865890503, 0.08458602428436279, 0.022275656461715698, -0.0005624592304229736, 0.018298521637916565], [0.022697478532791138, -0.040933698415756226, -0.021417468786239624, 0.07214164733886719, 0.08309100568294525, -0.008474573493003845, 0.12185588479042053, -0.10158723592758179, 0.03224410116672516, 0.05350464582443237, 0.007273957133293152, -0.09458751976490021, 0.0460556298494339, -0.050913915038108826, 0.08710627257823944, 0.08094914257526398, 0.10513274371623993, 0.0006580203771591187, -0.0016696006059646606, -0.044698625802993774, -0.06089833378791809, -0.03447164595127106, -0.09135137498378754, 0.029253795742988586, 0.08626674115657806, 0.12253232300281525, 0.08034341037273407, -0.09297777712345123, -0.09451335668563843, 0.07091069221496582, -0.0013091564178466797, -0.1058862954378128, -0.02195999026298523, 0.008329823613166809, -0.11886574327945709, 0.09516508877277374, -0.10531483590602875, -0.01723042130470276, -0.04537278413772583, 0.07663032412528992, -0.06271752715110779, 0.11208190023899078, -0.020277127623558044, -0.011970549821853638, 0.0902627557516098, 0.01859968900680542, 0.029878154397010803, 0.09068794548511505, 0.061565205454826355, 0.010469973087310791, -0.030510514974594116, 0.024559393525123596, -0.04936304688453674, -0.07094727456569672, -0.02178443968296051, -0.10866080224514008, -0.10390836000442505, -0.08778543770313263, 0.04512976109981537, -0.04026952385902405, 0.10330508649349213, -0.04413248598575592, 0.0660327672958374, -0.07140953838825226], [0.09069086611270905, -0.08316697180271149, 0.08522078394889832, 0.0675266683101654, -0.026209279894828796, -0.05772446095943451, 0.038478851318359375, 0.00621969997882843, 0.09587475657463074, -0.10696591436862946, -0.04771609604358673, 0.09787783026695251, -0.04001840949058533, -0.040555328130722046, -0.07054087519645691, 0.05448070168495178, 0.10120950639247894, -0.10059456527233124, 0.007814943790435791, -0.04268287122249603, -0.006765708327293396, -0.12385986745357513, 0.046719521284103394, 0.054451584815979004, -0.06427498161792755, 0.05440002679824829, -0.022409066557884216, 0.0886612981557846, -0.01227550208568573, 0.02611197531223297, 0.06777697801589966, -0.07183195650577545, 0.039841920137405396, 0.016216784715652466, 0.07181300222873688, 0.07480393350124359, -0.07414411008358002, 0.04281376302242279, -0.03884482383728027, 0.012848898768424988, -0.011473894119262695, -0.0151568204164505, 0.0019434690475463867, -0.014215737581253052, 0.09037946164608002, -0.053122296929359436, 0.0593363493680954, -0.045285746455192566, -0.029432788491249084, -0.11429329216480255, 0.041590675711631775, -0.0006697922945022583, 0.07917268574237823, 0.10787327587604523, -0.0852329432964325, 0.06634949147701263, -0.08709894120693207, -0.001338168978691101, 0.026526734232902527, 0.11723701655864716, 0.0510333776473999, 0.052893102169036865, 0.11938498914241791, -0.07173681259155273], [-0.12224103510379791, -0.010716646909713745, 0.03787299990653992, 0.03562062978744507, -0.09786972403526306, 0.021641939878463745, 0.07869771122932434, 0.036551862955093384, -0.017525389790534973, -0.0387367308139801, -0.04937857389450073, 0.05530714988708496, -0.03653214871883392, 0.06808403134346008, 0.09142954647541046, 0.11819775402545929, -0.017029404640197754, 0.012420803308486938, -0.031496286392211914, 0.057911306619644165, 0.03640250861644745, -0.010521650314331055, 0.05561235547065735, 0.043139249086380005, 0.0686415433883667, 0.022528275847434998, 0.12019702792167664, 0.01616540551185608, 0.05194219946861267, -0.08244343101978302, 0.05653601884841919, -0.05742228031158447, -0.06468687951564789, 0.09662929177284241, -0.03094904124736786, 0.05610944330692291, 0.04865032434463501, -0.09766466915607452, -0.04120367765426636, -0.02163700759410858, -0.06151801347732544, -0.060828596353530884, 0.03081318736076355, 0.0030996501445770264, 0.050450921058654785, -0.016862764954566956, -0.09877598285675049, 0.06497308611869812, -0.12267006933689117, -0.07941339910030365, -0.08468322455883026, -0.11015059053897858, -0.041793882846832275, -0.05824372172355652, 0.04894112050533295, -0.10990981757640839, -0.010941684246063232, -0.011928871273994446, -0.11843797564506531, -0.08229038119316101, 0.10051117837429047, 0.08272862434387207, 0.04800058901309967, -0.02030712366104126], [-0.10551410913467407, -0.08453799784183502, 0.07218730449676514, -0.11029157042503357, 0.0033349841833114624, 0.08643555641174316, -0.03327170014381409, -0.00817805528640747, -0.12368126213550568, 0.06360365450382233, -0.009935662150382996, -0.004693731665611267, 0.05542314052581787, -0.02675396203994751, 0.057263508439064026, 0.020698875188827515, -0.08465185761451721, -0.00874975323677063, 0.0763852596282959, 0.014576554298400879, -0.03856398165225983, -0.12439757585525513, 0.10408738255500793, -0.07444398105144501, -0.06720563769340515, -0.0024186372756958008, 0.09920811653137207, -0.01325315237045288, -0.11968432366847992, -0.046658024191856384, 0.10903322696685791, 0.05352164804935455, 0.08234706521034241, 0.07021677494049072, 0.10502368211746216, 0.006082013249397278, 0.030079349875450134, 0.01268264651298523, 0.059798792004585266, -0.1156872808933258, -0.09619824588298798, 0.03274407982826233, -0.027455702424049377, -0.12430953979492188, 0.043983832001686096, -0.002275511622428894, 0.04163902997970581, 0.09171326458454132, 0.04317769408226013, 0.10185050964355469, -0.03829137980937958, 0.12331648170948029, 0.055262163281440735, 0.028169527649879456, 0.007108166813850403, -0.09570607542991638, -0.004661247134208679, 0.07677163183689117, 0.005695074796676636, 0.08129803836345673, -0.02270004153251648, 0.013225957751274109, 0.0515359491109848, 0.008297517895698547], [-0.02483147382736206, -0.008169487118721008, 0.09439928829669952, 0.0963921844959259, 0.032703742384910583, 0.06651575863361359, -0.12403753399848938, -0.007157459855079651, -0.03627079725265503, -0.1001179963350296, -0.09854137897491455, -0.07256054878234863, -0.09379267692565918, 0.0693768858909607, -0.04019743204116821, -0.0629073977470398, -0.09685824811458588, 0.025249868631362915, 0.01670059561729431, -0.07750017940998077, 0.11187624931335449, -0.030821487307548523, 0.0739467442035675, 0.11686110496520996, 0.04778259992599487, 0.08796538412570953, 0.016803011298179626, 0.06817054748535156, 0.05398900806903839, -0.07630035281181335, -0.06786718964576721, 0.11772558093070984, -0.06072773039340973, -0.0695466548204422, -0.08144998550415039, -0.07316192984580994, 0.03305673599243164, -0.10993620753288269, 0.11345502734184265, -0.10864871740341187, -0.032875776290893555, -0.12323036789894104, 0.058505669236183167, -0.10520577430725098, 0.026229441165924072, -0.07378341257572174, 0.036446839570999146, 0.020322784781455994, -0.0009411424398422241, 0.09270079433917999, 0.10206317901611328, -0.0355740487575531, -0.12139727175235748, -0.032594501972198486, -0.08008556067943573, 0.075593501329422, -0.04461860656738281, -0.04274028539657593, 0.0929449051618576, -0.0026471316814422607, 0.03500589728355408, 0.07835017144680023, 0.11712338030338287, -0.08743695914745331], [0.04637584090232849, -0.019176334142684937, 0.12370534241199493, 0.08251403272151947, -0.03700217604637146, 0.04957425594329834, -0.007789477705955505, 0.030695214867591858, -0.10279299318790436, -0.058001428842544556, -0.09680886566638947, -0.1055138111114502, -0.08233124017715454, -0.009575217962265015, -0.07723388075828552, 0.059271782636642456, -0.09019947052001953, 0.10368764400482178, 0.04449667036533356, 0.03941646218299866, -0.10259810090065002, -0.05651775002479553, -0.018933475017547607, -0.04442837834358215, -0.010656699538230896, 0.10731969773769379, -0.12012071907520294, -0.03214748203754425, 0.10985112190246582, -0.10190410912036896, -0.06190815567970276, -0.09677103161811829, -0.027346163988113403, 0.06375393271446228, -0.10797540843486786, -0.050698280334472656, 0.0308084636926651, -0.11079008877277374, -0.10194097459316254, -0.06824001669883728, -0.11474733054637909, 0.053951963782310486, -0.08721272647380829, -0.03755103051662445, 0.08662556111812592, 0.07987941801548004, -0.01794438064098358, 0.03648427128791809, -0.030258774757385254, 0.04970952868461609, 0.01550602912902832, 0.03432843089103699, -0.017619982361793518, -0.09223334491252899, 0.060734108090400696, -0.09812037646770477, -0.11757132411003113, 0.04383076727390289, -0.03950174152851105, 0.07853375375270844, 0.0777847021818161, 0.005649000406265259, 0.09742799401283264, -0.05211816728115082], [0.07303105294704437, 0.012340128421783447, 0.11991004645824432, 0.03781573474407196, -0.019234254956245422, -0.10306735336780548, 0.0019247978925704956, 0.08665356040000916, 0.10005421936511993, -0.10520187020301819, -0.0305558443069458, -0.07096192240715027, -0.1087779849767685, 0.0008408427238464355, -0.059640511870384216, 0.05722895264625549, 0.06378002464771271, -0.11151289939880371, -0.06834262609481812, 0.002547323703765869, -0.08100728690624237, 0.07590524852275848, -0.003805875778198242, 0.09877113997936249, 0.08181372284889221, -0.015432924032211304, -0.0390477180480957, -0.011603772640228271, 0.05323287844657898, -0.07644103467464447, -0.047801822423934937, -0.09075553715229034, -0.06921018660068512, 0.09365116059780121, 0.07121269404888153, -0.04437266290187836, -0.11522573232650757, 0.027811795473098755, -0.11309097707271576, -0.10394051671028137, 0.047073811292648315, -0.09299597144126892, -0.03590221703052521, 0.028025925159454346, 0.09770777821540833, 0.013917028903961182, 0.012540310621261597, 0.011195093393325806, -0.08875226974487305, 0.0022953152656555176, 0.08451086282730103, -0.008116677403450012, -0.07375483214855194, -0.07291235029697418, -0.11501073837280273, -0.013834178447723389, 0.04731805622577667, -0.08413265645503998, -0.09492766857147217, -0.020854055881500244, 0.10795803368091583, 0.05035877227783203, -0.06046953797340393, -0.11242260038852692], [-0.028546661138534546, -0.10090409219264984, 0.019025295972824097, -0.10430169105529785, -0.012318462133407593, 0.034101977944374084, -0.03087957203388214, 0.0044358521699905396, -0.031622111797332764, 0.00988788902759552, 0.11227455735206604, 0.11170972883701324, 0.0435570627450943, -0.119947150349617, -0.09522838890552521, -0.11131022870540619, 0.05088938772678375, 0.03530716896057129, -0.014812961220741272, -0.0869629830121994, 0.02102161943912506, 0.0163891464471817, 0.011167183518409729, -0.08713686466217041, -0.11188468337059021, -0.10272063314914703, -0.11600935459136963, 0.050958335399627686, -0.026274025440216064, -0.05424650013446808, -0.022461101412773132, -0.054395198822021484, 0.08218887448310852, 0.10691815614700317, 0.060911357402801514, 0.03534340858459473, -0.07053372263908386, 0.11568190157413483, -0.030538305640220642, -0.09107756614685059, 0.11253756284713745, -0.09421059489250183, -0.00553014874458313, -0.08808957040309906, 0.01647438108921051, -0.004683300852775574, -0.012308403849601746, 0.0383298397064209, 0.06094646453857422, -0.053632721304893494, 0.0168316513299942, 0.01355898380279541, -0.08011335134506226, 0.05848735570907593, -0.06654250621795654, 0.028212949633598328, 0.059190064668655396, 0.03528687357902527, -0.07249398529529572, 0.029384613037109375, 0.07844939827919006, 0.0017499476671218872, -0.005655273795127869, -0.09729030728340149], [-0.08997102081775665, -0.05679699778556824, 0.06303399801254272, 0.11644893884658813, -0.11470560729503632, -0.09173266589641571, 0.06192651391029358, -0.10435996949672699, -0.01009388267993927, 0.1056155413389206, 0.036776185035705566, -0.058386996388435364, 0.0350414514541626, -0.005379706621170044, -0.024282455444335938, 0.12257468700408936, 0.04288659989833832, -0.112539142370224, 0.05572041869163513, -0.04311618208885193, -0.03261829912662506, 0.08127541840076447, 0.005748555064201355, -0.030932411551475525, -0.07946313917636871, -0.07187169790267944, -0.03852258622646332, -0.03530046343803406, -0.0454755574464798, 0.10237497091293335, -0.061313971877098083, 0.07918129861354828, 0.11951218545436859, -0.03852756321430206, -0.07460625469684601, 0.03352406620979309, 0.0543987900018692, -0.10317796468734741, 0.009898573160171509, -0.008826524019241333, 0.1049809604883194, -0.02075040340423584, -0.07276350259780884, -0.002298310399055481, 0.0547976940870285, -0.05992920696735382, 0.02165648341178894, -0.04404084384441376, -0.03731681406497955, 0.06234467029571533, 0.062065452337265015, -0.03577497601509094, -0.010318636894226074, 0.035630181431770325, 0.001204565167427063, -0.02443237602710724, 0.008222520351409912, -0.04030191898345947, 0.0468105673789978, -0.051435887813568115, 0.10557916760444641, -0.03311987221240997, -0.11937461793422699, -0.06843143701553345], [0.022597655653953552, 0.1106354147195816, -0.07500229775905609, -0.010770455002784729, 0.07334557175636292, 0.08778589963912964, -0.10504630208015442, 0.038987621665000916, 0.0976814478635788, -0.016527727246284485, -0.01158761978149414, 0.11655572056770325, 0.0002608448266983032, 0.04693646728992462, 0.07378675043582916, -0.09737950563430786, -0.06193159520626068, 0.042235150933265686, 0.013042211532592773, 0.09310770034790039, -0.10024571418762207, -0.08307346701622009, -0.0409860759973526, -0.11659899353981018, -0.056140974164009094, -0.09864357113838196, -0.08902820944786072, 0.1008092612028122, -0.04724687337875366, 0.02585381269454956, 0.08540230989456177, 0.1118239313364029, 0.050853729248046875, -0.12249593436717987, -0.0798071026802063, 0.08877450227737427, -0.11273182928562164, 0.08882758021354675, 0.0911695659160614, -0.07898496091365814, 0.09632177650928497, 0.06865543127059937, 0.10662859678268433, 0.05870886147022247, 0.05993451178073883, 0.08135265111923218, -0.06137751042842865, -0.06803429126739502, 0.07109798491001129, -0.013764426112174988, -0.11719028651714325, 0.11727176606655121, -0.10234642028808594, 0.08152872323989868, 0.04236385226249695, -0.0018290281295776367, -0.07360832393169403, 0.10502356290817261, 0.11155398190021515, -0.016656115651130676, 0.007359296083450317, 0.014064639806747437, 0.03960910439491272, 0.12446480989456177], [0.006630226969718933, -0.045842960476875305, 0.07985268533229828, -0.0050411224365234375, -0.003704935312271118, -0.021663859486579895, -0.002266615629196167, 0.07812568545341492, -0.10246741771697998, -0.0935169905424118, -0.053232863545417786, -0.06041345000267029, 0.020213454961776733, -0.11627469956874847, -0.05286957323551178, 0.1200261265039444, 0.018441036343574524, 0.0736856609582901, -0.016239464282989502, 0.005592092871665955, 0.05474954843521118, -0.046461448073387146, -0.08624278008937836, -0.10832346975803375, -0.026196226477622986, 0.07057201862335205, 0.0235738605260849, 0.09738028049468994, 0.1226731687784195, 0.022658824920654297, 0.10879482328891754, -0.0919552892446518, 0.002246946096420288, 0.049055978655815125, 0.030358493328094482, 0.06353867053985596, -0.0762946605682373, -0.08108438551425934, 0.015733465552330017, -0.058911293745040894, -0.010157212615013123, -0.08639751374721527, 0.08835235238075256, 0.013787657022476196, -0.00257091224193573, -0.08137679100036621, 0.013229072093963623, -0.12118194997310638, 0.05783596634864807, -0.11757564544677734, 0.007614850997924805, 0.019996732473373413, -0.08043380081653595, -0.1182875782251358, -0.03963252902030945, -0.07852846384048462, -0.0486467182636261, -0.07119883596897125, 0.02371181547641754, -0.06080785393714905, -0.018181100487709045, -0.04054044187068939, 0.012477651238441467, -0.022954925894737244], [0.013521164655685425, -0.0523306280374527, 0.0926809012889862, -0.10953904688358307, 0.06808587908744812, -0.0483151376247406, 0.08278629183769226, 0.02294999361038208, 0.047255709767341614, -0.07186977565288544, 0.0800216794013977, 0.0690857321023941, 0.002269074320793152, -0.06399530172348022, 0.1081179678440094, 0.10657839477062225, 0.0805407166481018, 0.11940936744213104, 0.10779869556427002, 0.032669201493263245, -0.11561854183673859, 0.11552636325359344, -0.0143669992685318, 0.055948227643966675, -0.05961774289608002, -0.030344560742378235, 0.10927234590053558, -0.010951340198516846, 0.02539810538291931, 0.0888470709323883, -0.07340410351753235, -0.10503076016902924, -0.09098891913890839, -0.10109730064868927, 0.00676611065864563, 0.0929458737373352, 0.06857961416244507, 0.10679534077644348, 0.08600498735904694, 0.040995433926582336, 0.09639014303684235, -0.05256074666976929, 0.09356093406677246, 0.018491506576538086, -0.06546404957771301, 0.10043716430664062, -0.02700500190258026, 0.07846501469612122, 0.04281039535999298, -0.014903798699378967, -0.07292734086513519, -0.12239190936088562, 0.02895776927471161, 0.06099909543991089, -0.04761546850204468, 0.12327161431312561, 0.08115537464618683, -0.028992757201194763, -0.0580766499042511, -0.01639251410961151, 0.0029537826776504517, 0.08227460086345673, -0.028587818145751953, 0.021541759371757507], [0.028236225247383118, 0.04731200635433197, 0.011947199702262878, 0.11398376524448395, 0.09066946804523468, -0.04427675902843475, 0.12477231025695801, -0.016950562596321106, -0.11708815395832062, -0.05862998962402344, -0.0394282191991806, 0.0709952861070633, -0.05341726541519165, -0.10358844697475433, -0.04769785702228546, -0.003536224365234375, 0.08632607758045197, -0.12053851783275604, 0.08645977079868317, 0.002937987446784973, 0.0246497243642807, -0.09282529354095459, -0.11073148250579834, -0.010580554604530334, 0.07969562709331512, -0.0396224707365036, -0.05278626084327698, 0.11025190353393555, 0.07689356803894043, -0.05248089134693146, 0.0788300633430481, 0.05827160179615021, -0.08452494442462921, 0.07020549476146698, -0.0834130197763443, -0.0938410609960556, 0.05549804866313934, 0.040599092841148376, 0.013287171721458435, -0.009113669395446777, -0.10861903429031372, 0.12181836366653442, -0.09522919356822968, 0.08024062216281891, 0.019149288535118103, 0.027650073170661926, -0.12329727411270142, -0.09357959032058716, 0.01190592348575592, -0.012886002659797668, -0.10912379622459412, 0.06876157224178314, -0.06875015795230865, 0.03944432735443115, 0.0868152529001236, -0.01549491286277771, 0.07801643013954163, -0.04754006862640381, -0.006259620189666748, 0.11160331964492798, -0.07198885083198547, -0.07732349634170532, 0.06421129405498505, -0.03941754996776581], [0.07776522636413574, 0.08835682272911072, 0.10976488888263702, -0.08956778049468994, 0.004130169749259949, -0.04775393009185791, -0.02591647207736969, 0.027589276432991028, 0.049644917249679565, 0.0021248459815979004, 0.04655343294143677, 0.11362487077713013, 0.08272664248943329, -0.02459515631198883, 0.06639142334461212, -0.099594846367836, -0.08708076179027557, 0.09940575063228607, -0.04314295947551727, 0.037459954619407654, -0.12368848919868469, 0.012308284640312195, 0.07034707069396973, -0.04639481008052826, 0.09755147993564606, -0.039030492305755615, -0.05895927548408508, -0.0972076952457428, 0.06178247928619385, -0.04864417016506195, -0.013219282031059265, 0.08534230291843414, 0.02970479428768158, 0.1147124320268631, -0.05891235172748566, 0.05216674506664276, 0.11673551797866821, 0.031873881816864014, 0.10295620560646057, 0.04272732138633728, -0.03265435993671417, 0.11306522786617279, 0.0735916793346405, 0.05333919823169708, -0.03196622431278229, -0.054066553711891174, -0.0008040964603424072, 0.0221250057220459, 0.11320360004901886, 0.03834526240825653, 0.09930913150310516, -0.1121848076581955, -0.11929140985012054, -0.08195741474628448, -0.07437530159950256, -0.06181642413139343, 0.06454017758369446, 0.10090431571006775, -0.06552526354789734, 0.013422966003417969, -0.07550930976867676, -0.09253065288066864, 0.02325679361820221, 0.02684357762336731], [0.12016886472702026, 0.06641344726085663, -0.018084049224853516, 0.11694365739822388, 0.021973565220832825, 0.09659461677074432, 0.021794110536575317, 0.10523185133934021, 0.01312209665775299, -0.11436134576797485, -0.08323894441127777, 0.06085418164730072, -0.015598967671394348, -0.061620697379112244, 0.12065491080284119, 0.018892228603363037, -0.084266796708107, -0.011244088411331177, -0.06044885516166687, 0.081759512424469, 0.05477188527584076, -0.08415648341178894, -0.1111605167388916, -0.033171817660331726, -0.057490408420562744, 0.09559386968612671, -0.09107200801372528, -0.04231977462768555, -0.026398375630378723, 0.02474208176136017, -0.008149296045303345, -0.0679851770401001, 0.07328544557094574, -0.0813254714012146, -0.012650609016418457, -0.05734260380268097, 0.0423302948474884, 0.04812583327293396, -0.014814838767051697, 0.07189808785915375, -0.01486186683177948, -0.08044584095478058, 0.05245523154735565, 0.028125658631324768, 0.03689362108707428, -0.10056781768798828, -0.0378367155790329, -0.018557816743850708, 0.05278703570365906, -0.03497150540351868, -0.04570411145687103, 0.06868802011013031, -0.06874680519104004, -0.0928727239370346, 0.05811578035354614, -0.04631221294403076, -0.08449281752109528, -0.003637939691543579, -0.09167797863483429, 0.046778321266174316, 0.018914058804512024, -0.11455051600933075, -0.11600467562675476, 0.06070259213447571], [-0.031291812658309937, -0.12268230319023132, -0.029127180576324463, 0.11087501049041748, 0.06802651286125183, 0.06413346529006958, -0.0745057612657547, -0.060864344239234924, 0.052130624651908875, 0.0018750280141830444, 0.02413615584373474, -0.0665351003408432, -0.06911882758140564, 0.016211390495300293, 0.024782642722129822, -0.019775375723838806, 0.10858632624149323, -0.024647757411003113, 0.02348555624485016, -0.08311165869235992, -0.03920885920524597, 0.046909913420677185, 0.04351989924907684, 0.09549121558666229, -0.07811631262302399, 0.09820641577243805, -0.09992736577987671, 0.032019197940826416, 0.038624852895736694, 0.03439384698867798, 0.10362958908081055, 0.02169080078601837, -0.055390387773513794, 0.06586624681949615, 0.022899284958839417, 0.05759565532207489, 0.023136258125305176, -0.07738602161407471, -0.11773782968521118, -0.07719388604164124, -0.014737188816070557, -0.11196692287921906, 0.11795447766780853, 0.08207382261753082, 0.10074025392532349, 0.10362063348293304, -0.11324441432952881, -0.08718246221542358, -0.0730632096529007, -0.110484778881073, -0.030387654900550842, 0.08968287706375122, 0.09239661693572998, 0.07971517741680145, -0.02057507634162903, -0.026531174778938293, 0.08489817380905151, 0.02036425471305847, 0.044450968503952026, 0.10444818437099457, 0.04512329399585724, 0.11976549029350281, -0.11624974012374878, -0.06366021931171417], [0.013044387102127075, -0.08368507027626038, -0.03527916967868805, 0.09715847671031952, 0.035855621099472046, -0.0492011159658432, 0.03440217673778534, 0.013594985008239746, 0.12229084968566895, 0.08254733681678772, 0.1163763552904129, 0.003422871232032776, -0.055943772196769714, 0.044776394963264465, 0.04664085805416107, 0.03452180325984955, -0.02521499991416931, 0.07581393420696259, -0.07779696583747864, 0.062837615609169, -0.11533607542514801, 0.08423224091529846, 0.020783886313438416, 0.009868428111076355, 0.10916019976139069, -0.019074350595474243, -0.04126735031604767, -0.02976757287979126, 0.08476954698562622, -0.12007099390029907, 0.03503841161727905, 0.06132924556732178, -0.026773884892463684, -0.08137714862823486, -0.1027427464723587, 0.08236156404018402, -0.12368696928024292, 0.05201466381549835, 0.028225451707839966, 0.09772561490535736, 0.04309648275375366, -0.09696544706821442, -0.031627312302589417, -0.09126327931880951, -0.013096600770950317, -0.03514561057090759, -0.03652578592300415, -0.09198881685733795, 0.038726210594177246, 0.09225760400295258, -0.09334728121757507, -0.013618186116218567, 0.01099790632724762, 0.012105613946914673, 0.08265650272369385, 0.11856138706207275, 0.06004561483860016, 0.09340976178646088, 0.0034690797328948975, -0.04496651887893677, -0.12169143557548523, 0.09744733572006226, -0.0070214420557022095, -0.002194717526435852], [0.055054545402526855, 0.0054738521575927734, -0.030619874596595764, -0.027016371488571167, -0.0855550765991211, 0.09726856648921967, 0.04887714982032776, 0.09630638360977173, 0.10339759290218353, 0.01372729241847992, 0.09762102365493774, -0.01427873969078064, 0.10733169317245483, 0.011498689651489258, -0.00892728567123413, -0.027139633893966675, -0.0005190819501876831, -0.028911590576171875, -0.04396061599254608, 0.029906034469604492, 0.09429867565631866, 0.0994093269109726, -0.11500930786132812, 0.07078292965888977, 0.041829466819763184, 0.053914397954940796, -0.06098957359790802, -0.07343912124633789, 0.014439180493354797, -0.10451303422451019, 0.10928912460803986, -0.07517889142036438, -0.04499363899230957, -0.015846550464630127, -0.06261327862739563, -0.09250611066818237, 0.06447294354438782, -0.10540646314620972, 0.02463090419769287, 0.07835952937602997, 0.07077257335186005, -0.036856189370155334, -0.049084246158599854, 0.04657314717769623, 0.10663716495037079, 0.10646626353263855, 0.04655012488365173, 0.05652695894241333, -0.1188884824514389, -0.11473160982131958, -0.048241034150123596, -0.056587547063827515, 0.11957506835460663, -0.10270874202251434, -0.04686710238456726, -0.003816366195678711, 0.10913495719432831, -0.01248827576637268, 0.011764287948608398, 0.035905420780181885, 0.09481818974018097, -0.10074213147163391, 0.06886884570121765, -0.09569545090198517], [-0.06542515754699707, 0.012380436062812805, -0.00287570059299469, -0.025837048888206482, 0.06302788853645325, -0.04931214451789856, -0.051736533641815186, 0.004809349775314331, 0.007648557424545288, 0.033053308725357056, -0.015116900205612183, -0.07131168246269226, 0.004979535937309265, -0.11600255966186523, -0.07269878685474396, -0.03429074585437775, 0.06067512929439545, -0.11538287997245789, 0.10954244434833527, 0.09116892516613007, -0.03402593731880188, -0.06276275217533112, 0.00466977059841156, -0.06997351348400116, 0.07976335287094116, 0.020580396056175232, 0.08255073428153992, -0.060654133558273315, -0.0984790027141571, -0.10841389000415802, -0.09690874814987183, -0.1228223443031311, 0.052999868988990784, 0.07721838355064392, 0.0620398223400116, 0.09401915967464447, 0.06760706007480621, -0.07629355788230896, 0.04750390350818634, -0.06126032769680023, 0.06853094696998596, 0.0032070279121398926, 0.04578468203544617, -0.04821336269378662, -0.09398838877677917, 0.0413646399974823, -0.010847896337509155, 0.012618035078048706, -0.03196142613887787, -0.0700337290763855, 0.060715556144714355, 0.03822919726371765, 0.08185392618179321, 0.0821603387594223, 0.0173444002866745, -0.04106445610523224, 0.06247669458389282, -0.12126901745796204, 0.11031652987003326, -0.01568661630153656, -0.12010836601257324, -0.08631570637226105, -0.026783227920532227, 0.027721062302589417], [-0.07324163615703583, -0.049439772963523865, 0.040351152420043945, 0.05605249106884003, -0.05292186141014099, 0.07440581917762756, -0.0778481662273407, 0.1063566654920578, -0.09158848226070404, 0.06759186089038849, 0.06179112195968628, 0.03328423202037811, 0.054251328110694885, -0.0656830221414566, -0.08742727339267731, 0.0017073452472686768, -0.029220297932624817, -0.007931768894195557, -0.08195808529853821, 0.031625449657440186, -0.04508794844150543, 0.04732237756252289, 2.549588680267334e-05, -0.11014391481876373, -0.08777867257595062, 0.11231045424938202, -0.01289452612400055, 0.10103289783000946, 0.08332720398902893, 0.0044108182191848755, 0.0539415180683136, -0.10509899258613586, -0.05671417713165283, 0.03868180513381958, -0.01044386625289917, 0.02884155511856079, 0.11948709189891815, -0.09472149610519409, -0.08705687522888184, 0.022426098585128784, 0.10668244957923889, -0.017915531992912292, 0.05718661844730377, -0.013033002614974976, -0.06710359454154968, -0.06890776753425598, 0.005919173359870911, -0.032784536480903625, -0.04685191810131073, -0.07142411172389984, -0.0030517876148223877, 0.08749198913574219, -0.045527100563049316, 0.015972986817359924, -0.01214347779750824, 0.012686625123023987, -0.020490720868110657, 0.029458343982696533, 0.06918472051620483, 0.06882540881633759, -0.12275612354278564, 0.09016917645931244, 0.10570754110813141, -0.09565915167331696], [0.03586311638355255, -0.02821315824985504, -0.06784404814243317, -0.03969021141529083, 0.050712600350379944, -0.07325884699821472, -0.07341530919075012, 0.05622527003288269, 0.060037761926651, -0.05577194690704346, -0.12338688969612122, 0.03148384392261505, -0.03733758628368378, 0.09753978252410889, -0.1051909327507019, -0.0005213171243667603, -0.03686094284057617, -0.04439827799797058, 0.08091792464256287, 0.05470539629459381, -0.043992236256599426, -0.07816366851329803, -0.10706932842731476, 0.014747664332389832, -0.11138162016868591, -0.07958686351776123, 0.052644938230514526, 0.09154140949249268, -0.11138215661048889, 0.017455756664276123, 0.0914057195186615, -0.02933478355407715, -0.03084665536880493, -0.06770017743110657, 0.09397250413894653, -0.07336761057376862, -0.012039154767990112, 0.04485592246055603, -0.08279867470264435, 0.018008708953857422, -0.09396606683731079, 0.00722193717956543, 0.05941428244113922, 0.10141418874263763, 0.011866167187690735, 0.12344937026500702, -0.12400920689105988, 0.011869102716445923, 0.03879489004611969, 0.04312466084957123, 0.09234359860420227, -0.03647477924823761, 0.09454913437366486, 0.09066323935985565, 0.08721555769443512, 0.028682038187980652, -0.012676611542701721, 0.10424458980560303, 0.04184316098690033, 0.030862033367156982, 0.10369640588760376, -0.07369926571846008, 0.10525587201118469, 0.07381123304367065], [0.0885271430015564, 0.11239925026893616, 0.10308945178985596, 0.09124027192592621, 0.09778016805648804, 0.09260204434394836, -0.011461257934570312, 0.06591060757637024, -0.05039544403553009, -0.06224416196346283, 0.12130796909332275, 0.05014057457447052, -0.10786435008049011, 0.02544642984867096, 0.002619713544845581, -0.014946356415748596, -0.042548030614852905, -0.10224020481109619, 0.0060218870639801025, -0.035555824637413025, 0.10711956024169922, 0.10762126743793488, -0.002407386898994446, 0.02824358642101288, 0.12175637483596802, 0.065884530544281, -0.07834090292453766, -0.025463446974754333, -0.09526108205318451, 0.006767049431800842, 0.05097869038581848, 0.08179286122322083, -0.00471225380897522, -0.04607534408569336, 0.0904121845960617, -0.04032057523727417, -0.1207735687494278, -0.11745497584342957, -0.10706891119480133, 0.032221242785453796, 0.06888741254806519, 0.05854007601737976, 0.06839998066425323, 0.10372264683246613, 0.012226313352584839, 0.10138861835002899, -0.07355444133281708, -0.06299406290054321, -0.11858423054218292, 0.07219332456588745, -0.10541030764579773, 0.0055669695138931274, 0.024243146181106567, 0.06392227113246918, 0.07431142032146454, 0.10635732114315033, -0.07252460718154907, 0.03898996114730835, 0.03648848831653595, 0.05069628357887268, -0.12381128966808319, 0.09446820616722107, 0.020940080285072327, 0.024409502744674683], [0.05042929947376251, -0.11161185801029205, -0.04606941342353821, 0.12223556637763977, 0.1087929904460907, 0.09320440888404846, 0.024100065231323242, 0.1082354187965393, 0.04901662468910217, 0.04221583902835846, 0.03307494521141052, 0.1235761046409607, -0.10529278218746185, -0.006648510694503784, -0.022166013717651367, -0.12400762736797333, 0.05052079260349274, 0.11463029682636261, -0.0236378014087677, 0.003575637936592102, 0.1174607127904892, 0.09755964577198029, 0.014361247420310974, -0.009704828262329102, -0.04451580345630646, -0.007284700870513916, 0.009911462664604187, -0.07571515440940857, 0.008255243301391602, -0.012865692377090454, 0.06694699823856354, 0.007257595658302307, -0.06063012778759003, -0.11374467611312866, 0.02578507363796234, 0.05118006467819214, -0.008354216814041138, -0.10307300090789795, 0.08576253056526184, 0.010167926549911499, 0.04919244349002838, 0.09073561429977417, -0.08969277143478394, -0.06151449680328369, -0.055804550647735596, -0.10905607044696808, 0.008093774318695068, -0.09924693405628204, 0.091986745595932, 0.11098502576351166, 0.05674786865711212, 0.0921681672334671, -0.06822094321250916, 0.12106949090957642, -0.07821471989154816, -0.04354228079319, -0.025418147444725037, -0.11010679602622986, 0.06953777372837067, -0.0715692788362503, -0.06345082819461823, -0.11693693697452545, 0.07249408960342407, 0.09631103277206421], [0.033716052770614624, 0.0125235915184021, 0.03557927906513214, -0.07437355816364288, 0.10756342113018036, 0.11392992734909058, -0.12232457101345062, 0.007887333631515503, -0.010563984513282776, -0.047216951847076416, 0.0030764639377593994, 0.09787562489509583, 0.045984283089637756, -0.0856163501739502, 0.0367431640625, -0.014023587107658386, 0.11139412224292755, 0.08557003736495972, 0.06640665233135223, -0.0778341293334961, 0.07012687623500824, -0.08555085957050323, -0.08121833205223083, -0.005280539393424988, 0.05077981948852539, 0.04151582717895508, 0.10368241369724274, -0.05143669247627258, -0.07322424650192261, -0.01119212806224823, -0.1246187686920166, -0.02577953040599823, -0.056530341506004333, -0.0400322824716568, -0.0017022937536239624, 0.03159213066101074, -0.01897113025188446, -0.014883264899253845, 0.0006012618541717529, 0.03390437364578247, 0.013990089297294617, -0.08359125256538391, -0.10884076356887817, -0.10458339750766754, -0.02074509859085083, 0.07131645083427429, 0.11413422226905823, -0.00801578164100647, -0.009861648082733154, -0.061379119753837585, -0.07709084451198578, -0.1098848432302475, 0.06612066924571991, -0.006797105073928833, -0.024376854300498962, 0.12316454946994781, 0.09362718462944031, 0.11005131900310516, -0.005636483430862427, -0.059318915009498596, 0.061757758259773254, -0.02126745879650116, -0.07574798166751862, -0.07971811294555664], [-0.03328314423561096, -0.10807137191295624, -0.07961995899677277, -0.11934345960617065, 0.0034250766038894653, -0.06920488178730011, 0.10519970953464508, 0.11928972601890564, 0.07197076082229614, -0.0747186690568924, 0.06177784502506256, 0.08577506244182587, -0.09178738296031952, -0.020679235458374023, -0.10358846187591553, 0.09886842966079712, -0.09814982116222382, -0.12327085435390472, 0.11409856379032135, -0.021135598421096802, -0.0690104067325592, -0.027318790555000305, 0.03572140634059906, -0.056007444858551025, -0.025063201785087585, -0.004505768418312073, -0.10541728138923645, -0.10361167788505554, -0.11660179495811462, 0.0955103188753128, 0.06123778223991394, 0.07500679790973663, 0.014598309993743896, -0.04706144332885742, -0.03880152106285095, 0.04203890264034271, -0.0005857795476913452, -0.04925625026226044, 0.1148156225681305, 0.07574713230133057, -0.0365687757730484, -0.1086721271276474, 0.0792212188243866, 0.021612942218780518, -0.09983281791210175, -0.02237492799758911, -0.05325870215892792, 0.059341639280319214, -0.010379508137702942, 0.04777860641479492, -0.08290405571460724, 0.07769696414470673, 0.12037241458892822, -0.03227122128009796, -0.07382319867610931, 0.0959845781326294, 0.0679592490196228, 0.02533319592475891, -0.00400388240814209, -0.055703625082969666, 0.02750547230243683, 0.07275979220867157, -0.06624099612236023, -0.09601789712905884], [-0.08489273488521576, -0.10422675311565399, -0.060085639357566833, -0.11720821261405945, 0.11442001163959503, -0.09681041538715363, -0.03533084690570831, 0.11352285742759705, -0.05262625217437744, -0.020506367087364197, -0.025141164660453796, -0.04286862909793854, -0.057638198137283325, 0.07761064171791077, -0.08845743536949158, -0.042923226952552795, 0.050931915640830994, 0.07197792828083038, -0.057247281074523926, 0.12314395606517792, 0.10603474080562592, 0.03371955454349518, 0.10321830213069916, -0.06511780619621277, -0.015222698450088501, 0.009646102786064148, -0.0665552020072937, 0.09894010424613953, -0.023012280464172363, -0.03254462778568268, -0.06636181473731995, -0.02249544858932495, -0.08673350512981415, -0.041488125920295715, -0.1100831925868988, 0.030845895409584045, 0.04513216018676758, 0.10608725249767303, 0.0359044075012207, -0.11724422872066498, 0.1123306155204773, 0.07746683061122894, 0.02076609432697296, 0.02178645133972168, -0.015580430626869202, -0.049389854073524475, -0.012413561344146729, -0.0381903350353241, -0.03246265649795532, 0.09432926774024963, -0.09228907525539398, -0.08922095596790314, 0.035554125905036926, 0.09415104985237122, -0.06384637951850891, 0.10730142891407013, -0.030223920941352844, 0.12419788539409637, -0.07049006223678589, 0.09190294146537781, -0.022458508610725403, -0.04756365716457367, 0.05196739733219147, 0.0831277072429657], [0.04673057794570923, 0.04614369571208954, 0.11573845148086548, 0.06831906735897064, 0.03280080854892731, -0.10045070946216583, 0.08312076330184937, 0.12009942531585693, 0.022878259420394897, -0.08568206429481506, -0.09965157508850098, 0.11828713119029999, -0.004529789090156555, -0.01284034550189972, -0.03224639594554901, -0.11778676509857178, 0.07250100374221802, 0.08771583437919617, 0.01591324806213379, -0.03312508761882782, -0.06302976608276367, 0.07276692986488342, -0.0377822071313858, 0.04575558006763458, 0.11529549956321716, 0.033391356468200684, 0.09927020967006683, -0.09647859632968903, -0.10578379034996033, -0.10361860692501068, -0.028796613216400146, -0.03067612648010254, 0.11060680449008942, -0.07405391335487366, 0.02269671857357025, 0.030543506145477295, 0.11225710809230804, 0.10817122459411621, -0.11164465546607971, -0.007809937000274658, 0.031895339488983154, -0.11166691780090332, -0.08141715824604034, 0.014680042862892151, -0.11220291256904602, -0.12252731621265411, 0.09369882941246033, 0.058312028646469116, 0.10020367801189423, -0.030747264623641968, -0.10335981845855713, -0.07185278832912445, -0.03989793360233307, 0.08603774011135101, -0.011747971177101135, -0.06843192875385284, 0.12079936265945435, -0.021200820803642273, -0.11659546196460724, -0.10336360335350037, -0.09844891726970673, -0.010516375303268433, -0.0697418749332428, 0.10052002966403961], [-0.04858770966529846, -0.11601200699806213, 0.11946213245391846, -0.09900234639644623, -0.022804930806159973, 0.03768108785152435, 0.11878298223018646, 0.0784393846988678, 0.06970645487308502, -0.046639516949653625, 0.014023780822753906, -0.12283594906330109, -0.10034841299057007, 0.009621143341064453, -0.03822833299636841, 0.09272757172584534, 0.005921587347984314, -0.05328051745891571, 0.11146153509616852, 0.0849122554063797, 0.11198747158050537, 0.022837728261947632, -0.09970638155937195, 0.048953086137771606, -0.06100444495677948, -0.0886387974023819, 0.01679779589176178, 0.04934602975845337, 0.04429146647453308, -0.09314385056495667, -0.02000570297241211, -0.06483304500579834, 0.03291560709476471, 0.048863485455513, 0.10494869947433472, 0.023317724466323853, -0.07075600326061249, 0.07875797152519226, 0.12435489892959595, -0.048756688833236694, 0.0767623633146286, -0.01754581928253174, 0.055928707122802734, -0.12144921720027924, -0.08523809909820557, 0.05158670246601105, 0.08767524361610413, 0.06683948636054993, 0.10008837282657623, 0.03060707449913025, -0.030984461307525635, 0.049579963088035583, 0.04298502206802368, -0.07230336964130402, -0.03650087118148804, 0.04257155954837799, -0.013038530945777893, -0.03884974122047424, -0.0966523289680481, 0.0771886557340622, -0.0703694075345993, -0.0018331706523895264, -0.10807991027832031, 0.07646766304969788], [0.09703917801380157, 0.08075679838657379, 0.04000113904476166, 0.05883306264877319, -0.04863917827606201, 0.10463006794452667, -0.051732808351516724, 0.03926624357700348, 0.06959947943687439, -0.058498114347457886, -0.11835607886314392, -0.04460050165653229, 0.0959150642156601, -0.06928639113903046, 0.06030024588108063, -0.06052243709564209, 0.02323533594608307, -0.09873388707637787, 0.058398544788360596, -0.12108954787254333, 0.11225727200508118, -0.03845217823982239, -0.04171191155910492, -0.01578710973262787, 0.0023315846920013428, -0.033678531646728516, 0.04358123242855072, 0.0949772447347641, -0.037119269371032715, -0.10255396366119385, 0.000139579176902771, 0.11849114298820496, -0.12253063917160034, -0.09191478788852692, -0.1240372508764267, -0.0011928677558898926, -0.08510872721672058, -0.007494911551475525, -0.03311122953891754, 0.09097819030284882, -0.02706429362297058, 0.030399158596992493, 0.011708378791809082, 0.09840576350688934, -0.07950888574123383, 0.07418899238109589, 0.06570382416248322, 0.10579347610473633, 0.04101572930812836, -0.12295831739902496, 0.052719250321388245, -0.1088397204875946, -0.11532364785671234, -0.11680072546005249, -0.0997629314661026, 0.07071129977703094, 0.08059278130531311, 0.07618199288845062, 0.060650214552879333, 0.002762913703918457, 0.05045093595981598, 0.07797703146934509, 0.07217735052108765, 0.028056755661964417], [0.08668623864650726, 0.04354991018772125, 0.027181774377822876, 0.11141431331634521, -0.044919997453689575, -0.123146191239357, -0.08260807394981384, 0.04830716550350189, -0.023594990372657776, -0.05867499113082886, 0.03350640833377838, 0.08666516840457916, 0.0565192848443985, 0.025374308228492737, -0.03298439085483551, -0.06164373457431793, 0.027316153049468994, -0.03471311926841736, -0.05118635296821594, -0.0633602887392044, 0.029937341809272766, -0.09724578261375427, 0.037376269698143005, 0.07671688497066498, 0.011469647288322449, 0.01618531346321106, 0.023873478174209595, 0.09555824100971222, 0.10369323194026947, 0.12261390686035156, 0.11711446940898895, 0.11184215545654297, 0.121938556432724, 0.004624903202056885, -0.03241552412509918, 0.01972407102584839, -0.036638855934143066, 0.09162135422229767, 0.10394859313964844, -0.06440117955207825, 0.029035598039627075, -0.11434382200241089, 0.10174500942230225, 0.054805055260658264, 0.09592187404632568, -0.12294080853462219, -0.037309616804122925, -0.10368616878986359, 0.06038150191307068, 0.07013855874538422, 0.07838068902492523, -0.0696435272693634, 0.007322415709495544, 0.11112844944000244, -0.10452558100223541, 0.07904590666294098, -0.052883654832839966, -0.09246434271335602, -0.03948067128658295, 0.01688544452190399, -0.03531542420387268, 0.09549233317375183, -0.07757580280303955, -0.035157158970832825], [0.06864725053310394, -0.023039251565933228, -0.0017611831426620483, 0.048127323389053345, 0.09820140898227692, -0.053872495889663696, -0.04601980745792389, 0.07783074676990509, -0.10331621766090393, 0.0068772584199905396, 0.12331525981426239, 0.05801105499267578, 0.06933888792991638, 0.1014857292175293, 0.033314451575279236, 0.02754199504852295, 0.015909641981124878, -0.08145052194595337, -0.00583997368812561, -0.11483480036258698, 0.05366313457489014, 0.021477997303009033, 0.10768099129199982, -0.10033977031707764, 0.008245736360549927, -0.057395339012145996, -0.08891335129737854, -0.03025829792022705, -0.08039255440235138, 0.092005655169487, 0.09918229281902313, -0.03259855508804321, -0.09723159670829773, -0.06117840111255646, 0.10080751776695251, 0.02257135510444641, -0.034762367606163025, -0.02965901792049408, 0.09036688506603241, -0.09108750522136688, -0.12141455709934235, 0.05254051089286804, 0.09913995862007141, -0.0226781964302063, -0.11497408151626587, 0.10766060650348663, -0.12448543310165405, 0.048667699098587036, 0.02420172095298767, 0.06449441611766815, 0.041046008467674255, 0.08543290197849274, 0.018254637718200684, -0.028798669576644897, -0.006866723299026489, 0.07309839129447937, 0.06161898374557495, -0.06780599057674408, -0.029497534036636353, -0.09926092624664307, -0.12398354709148407, -0.07308448851108551, -0.028261125087738037, 0.07267677783966064], [0.011558696627616882, 0.10487347841262817, 0.11812441051006317, -0.08267548680305481, 0.030920863151550293, -0.05402138829231262, 0.06954677402973175, 0.043379172682762146, -0.0837198793888092, 0.1051548570394516, 0.11027736961841583, -0.10861851274967194, 0.016957983374595642, 0.047199562191963196, 0.008778586983680725, -0.06971834599971771, 0.06102019548416138, -0.08303338289260864, -0.032197415828704834, 0.05210283398628235, 0.1083792895078659, -0.08264566957950592, -0.07142044603824615, 0.08373065292835236, -0.028913289308547974, 0.06120096147060394, -0.0955568253993988, 0.031442344188690186, 0.11929008364677429, -0.10447129607200623, 0.00297701358795166, -0.045939430594444275, -0.05263696610927582, 0.10509723424911499, 0.018517985939979553, -0.09919486939907074, 0.10022732615470886, 0.09086142480373383, -0.002728372812271118, 0.0678660124540329, -0.1019585132598877, 0.053614065051078796, 0.042255088686943054, 0.06757809221744537, -0.03593382239341736, 0.08706007897853851, -0.10533580183982849, 0.013626039028167725, -0.073065385222435, 0.09730462729930878, -0.06992660462856293, -0.01834838092327118, 0.08963391184806824, -0.06510938704013824, -0.08967761695384979, -0.0083838552236557, 0.10652574896812439, 0.06887760758399963, -0.03073926270008087, -0.08739084005355835, -0.060895681381225586, 0.10977740585803986, -0.03404136002063751, 0.024265214800834656], [0.08363504707813263, 0.07733437418937683, -0.06462113559246063, 0.10467325150966644, 0.09454160928726196, -0.028406813740730286, 0.11237215995788574, -0.02419884502887726, -0.07451207935810089, 0.016562476754188538, -0.11254636943340302, 0.10315491259098053, 0.06430932879447937, -0.04473663866519928, -0.11210887134075165, -0.0906175971031189, 0.049476251006126404, -0.07187271118164062, 0.058674395084381104, 0.10507020354270935, -0.08832000195980072, 0.00927133858203888, 0.07102510333061218, -0.03529651463031769, 0.023282870650291443, -0.07507678866386414, -0.02069796621799469, -0.01665361225605011, 0.0011967867612838745, 0.0009307563304901123, -0.0635637491941452, 0.10878299176692963, -0.018964558839797974, -0.026155367493629456, 0.03278909623622894, 0.0870320200920105, 0.03824886679649353, -0.11496511101722717, 0.03672581911087036, 0.11852248013019562, -0.09990149736404419, 0.12181119620800018, -0.018790453672409058, 0.08978046476840973, 0.06713537871837616, 0.048886507749557495, -0.06948740780353546, 0.06201837956905365, 0.044133931398391724, -0.07864789664745331, 0.021393179893493652, -0.04216517508029938, 0.039397940039634705, 0.06892301142215729, -0.05832965672016144, -0.017521202564239502, -0.039928823709487915, -0.113226518034935, -0.010710164904594421, -0.0799119621515274, 0.0755920559167862, -0.014769494533538818, -0.007005661725997925, -0.11007764935493469], [-0.06276099383831024, 0.1098228394985199, -0.017156481742858887, 0.07415200769901276, -0.06908926367759705, 0.07129411399364471, 0.0968470573425293, -0.11661848425865173, -0.03069080412387848, 0.09456172585487366, -0.08262139558792114, -0.07164864242076874, 0.011016204953193665, -0.011300459504127502, 0.010157555341720581, -0.055603787302970886, 0.10892719030380249, -0.08954532444477081, -0.05838021636009216, -0.022723853588104248, -0.018783167004585266, -0.04749538004398346, -0.045429423451423645, 0.07849916815757751, -0.002138003706932068, -0.07333202660083771, -0.11593295633792877, 0.056396618485450745, 0.11004205048084259, -0.050242602825164795, 0.10672056674957275, 0.07143935561180115, 0.12486246228218079, -0.11214546859264374, 0.02897438406944275, 0.08964003622531891, 0.0943412184715271, 0.08446499705314636, 0.01282915472984314, 0.0009556561708450317, 0.07588332891464233, 0.10542859137058258, -0.0828251987695694, 0.019905775785446167, -0.037946686148643494, 0.026632949709892273, -0.003948509693145752, 0.06809923052787781, 0.07685898244380951, 0.03222762048244476, -0.07633458077907562, -0.042355284094810486, 0.0007055401802062988, -0.039055973291397095, -0.044279277324676514, 0.05584132671356201, -0.05938580632209778, 0.08470648527145386, -0.08388468623161316, 0.040925636887550354, -0.07779574394226074, -0.06329599022865295, -0.08489327132701874, -0.03512999415397644], [0.08129771053791046, -0.1179465651512146, -0.01111537218093872, -0.11603519320487976, 0.025900915265083313, -0.052849963307380676, 0.013015300035476685, 0.068819060921669, 0.06437474489212036, 0.038104668259620667, -0.010663822293281555, 3.8295984268188477e-05, 0.08403134346008301, -0.07172062993049622, 0.0778716504573822, 0.04103247821331024, -0.080294668674469, -0.1153942346572876, 0.09076753258705139, -0.05658784508705139, 0.048471033573150635, -0.1187836229801178, 0.09599423408508301, 0.05254413187503815, 0.07469406723976135, 0.08034445345401764, 0.009849056601524353, 0.10520428419113159, 0.11242592334747314, -0.12454913556575775, 0.09981189668178558, -0.036497533321380615, -0.004194095730781555, 0.07737007737159729, 0.05655872821807861, -0.11837992072105408, -0.053268641233444214, -0.038783490657806396, -0.05030013620853424, 0.06669795513153076, -0.09478747844696045, 0.013246715068817139, -0.07675778865814209, 0.05631104111671448, 0.00845937430858612, -0.01951579749584198, 0.09379932284355164, -0.015561416745185852, -0.08734285831451416, 0.04478675127029419, -0.06155826151371002, -0.01823250949382782, -0.08241721987724304, 0.08974866569042206, 0.022871240973472595, -0.12330667674541473, 0.09301099181175232, -0.07291710376739502, -0.10954287648200989, -0.06545151770114899, 0.09101299941539764, 0.12195758521556854, 0.08004337549209595, 0.1190011203289032], [0.028534919023513794, -0.09802207350730896, 0.022036880254745483, 0.04743117094039917, 0.03848317265510559, -0.029806509613990784, 0.025546640157699585, -0.06387095153331757, -0.09718617796897888, -0.12380437552928925, 0.11188311874866486, 0.06632262468338013, 0.03732135891914368, 0.05726078152656555, -0.12278808653354645, 0.09610848128795624, 0.0201103538274765, -0.06794661283493042, -0.07531879842281342, -0.11516304314136505, 0.03727017343044281, 0.07050396502017975, -0.051321908831596375, 0.048590973019599915, -0.012126356363296509, -0.034067362546920776, -0.07504555583000183, -0.10494911670684814, -0.012448295950889587, 0.11824090778827667, 0.06048238277435303, 0.03254324197769165, -0.04655641317367554, -0.03320285677909851, 0.08666631579399109, -0.12173791229724884, -0.05613577365875244, -0.10067898035049438, 0.06740471720695496, -0.10354803502559662, -0.10317546129226685, 0.1219174712896347, -0.06667886674404144, -0.11834187805652618, 0.0649658590555191, 0.12158486247062683, 0.06520365178585052, -0.0026535093784332275, 0.04681968688964844, -0.017676234245300293, 0.03458169102668762, -0.029093220829963684, 0.03668496012687683, 0.11384156346321106, -0.06037822365760803, -0.09538844227790833, 0.038832440972328186, 0.010953500866889954, -0.07823298871517181, 0.04610376060009003, -0.04575596749782562, 0.05077260732650757, -0.012696728110313416, 0.008785054087638855], [0.07790672779083252, 0.10521093010902405, 0.0023203641176223755, -0.08022308349609375, 0.027594879269599915, 0.041854262351989746, 0.06757771968841553, -0.08616015315055847, 0.09895451366901398, 0.04091276228427887, 0.08232711255550385, -0.018752828240394592, -0.030344977974891663, -0.024381056427955627, 0.06427709758281708, -0.08910095691680908, 0.10519188642501831, 0.0014393329620361328, -0.10390840470790863, -0.07004150748252869, 0.009776607155799866, -0.09363235533237457, -0.1157979965209961, -0.008922293782234192, -0.07196420431137085, -0.009454503655433655, 0.1034315824508667, -0.018280640244483948, -0.03423266112804413, 0.04608216881752014, 0.11360198259353638, -0.03867010772228241, 