{"lstm.weight_ih_l0": [[-0.016295498237013817], [-0.00018676291801966727], [0.007010305766016245], [0.03221793472766876], [0.015872471034526825], [0.18344520032405853], [-0.002005648100748658], [0.05946008488535881], [0.009281665086746216], [-0.054986629635095596], [-0.013780983164906502], [-0.012740247882902622], [0.02977840229868889], [0.0002963562437798828], [-0.041235633194446564], [-0.01739305630326271], [-0.01663394644856453], [-0.03587073087692261], [0.001420784741640091], [0.04223657771945], [0.07847447693347931], [0.0068456376902759075], [0.0009729339508339763], [0.0775495171546936], [-0.015983471646904945], [0.0910482332110405], [-0.00983644463121891], [0.004160149022936821], [0.01278756558895111], [0.002696387469768524], [-0.07827278226613998], [-0.02636636607348919], [0.11249867081642151], [-0.10285439342260361], [-0.035761211067438126], [0.2617871165275574], [-0.15925484895706177], [-2.368417739868164], [0.2074572592973709], [0.27476587891578674], [0.20349393784999847], [2.3297438621520996], [0.18929682672023773], [0.024394283071160316], [-0.13338534533977509], [-0.16029296815395355], [6.351799011230469], [-0.04260330647230148], [-0.016320854425430298], [-0.00887817982584238], [0.0021192568819969893], [0.039439715445041656], [0.07214118540287018], [0.1123160794377327], [-0.005105884280055761], [0.05967850610613823], [0.008399488404393196], [0.09938666969537735], [-0.04159856215119362], [-0.021862363442778587], [0.013021600432693958], [0.007003210484981537], [-0.07222503423690796], [-0.008018957450985909]], "lstm.weight_hh_l0": [[-0.001796112977899611, 0.0035797073505818844, 0.001411494449712336, -0.0032819025218486786, 0.0015829933108761907, 0.003681083442643285, 0.0013119736686348915, 0.009006130509078503, -0.004841817542910576, -0.03206281736493111, -0.010127934627234936, 0.0021551602985709906, 0.00011630583321675658, -0.0038345479406416416, -0.021448733285069466, -0.0043511404655873775], [0.0023776404559612274, 0.04729880392551422, -0.03767387196421623, 0.04503221437335014, -0.06962433457374573, 0.05311647057533264, 0.0021082847379148006, -0.004354653414338827, -0.08359383791685104, 0.10677122324705124, 0.0537392720580101, 0.007070993073284626, -0.054706595838069916, -0.023339271545410156, -0.06782539188861847, -0.00671275844797492], [-0.0042856717482209206, -0.01111318077892065, 0.03117416426539421, -0.006077101919800043, -0.0017503999406471848, -0.056596238166093826, -0.01376910787075758, 0.016795828938484192, 0.03115103580057621, 0.09961870312690735, 0.009081704542040825, -0.00790367741137743, 0.02894638478755951, 0.015358609147369862, 0.01907310262322426, -0.010009641759097576], [-0.0064705065451562405, 0.01878959871828556, -0.0032531486358493567, 0.020695120096206665, -0.030373254790902138, 0.017943555489182472, -0.005496009718626738, -0.02854996733367443, 0.00936492532491684, 0.057184718549251556, 0.033094681799411774, 0.0026245154440402985, -0.015392770059406757, -0.005011666566133499, -0.04046153649687767, -0.015601092018187046], [-0.005799506790935993, -0.022456517443060875, -0.03695109114050865, 0.09646991640329361, -0.0025204357225447893, 0.19036418199539185, 0.007512432988733053, -0.07892078906297684, 0.025519365444779396, 0.061054475605487823, 0.020979641005396843, 0.019022546708583832, -0.03342071548104286, 0.003141326131299138, 0.01330784521996975, 0.014637733809649944], [0.0012801076518371701, -0.02530154585838318, -0.12051749229431152, 0.26088470220565796, -0.1523580551147461, -0.0037915974389761686, -0.06316285580396652, -0.16608020663261414, 0.05611361563205719, 0.47360947728157043, 0.3101597726345062, -0.08105076849460602, -0.1855229288339615, 0.0564882718026638, 0.3916304409503937, 0.00816382747143507], [0.000784779607784003, 0.003658809931948781, -0.007144578266888857, 0.019604846835136414, -0.011150751262903214, 0.005683832801878452, 0.002673622453585267, 0.022927377372980118, -0.008810426108539104, 0.002984482329338789, 0.004977005533874035, -0.005274120252579451, -0.014638119377195835, -0.006248012650758028, 0.0038445526733994484, -0.008108084090054035], [0.00023487805447075516, -0.04099829122424126, -0.004837548825889826, 0.07237053662538528, 0.017901139333844185, -0.09439391642808914, -0.0004261770809534937, 0.003957368899136782, 0.05752968788146973, 0.06407289206981659, 0.052678048610687256, -0.02941892109811306, -0.026912426576018333, 0.016514765098690987, 0.14187607169151306, -0.007831115275621414], [-0.005866941995918751, -0.02822664938867092, -0.06779429316520691, 0.11919151246547699, -0.14446969330310822, 0.10640808194875717, -0.022773677483201027, -0.0517597533762455, -0.0256909541785717, 0.23523427546024323, 0.1328904926776886, -0.028784342110157013, -0.09857659786939621, 0.020702878013253212, -0.035630952566862106, 0.006250662729144096], [-0.005701796617358923, 0.13129545748233795, -0.14997334778308868, 0.22633115947246552, -0.1749410778284073, 0.4442756474018097, 0.0027278719935566187, -0.11993860453367233, -0.2444268763065338, -0.029852245002985, 0.2047312706708908, 0.041436802595853806, -0.20671994984149933, -0.06619533151388168, -0.49671587347984314, -0.00489305704832077], [0.0030502225272357464, 0.06711842119693756, -0.050471797585487366, 0.044830214232206345, -0.0549192950129509, 0.08932574093341827, 0.02003290131688118, 0.030618393793702126, -0.08925897628068924, -0.03457772359251976, 0.04330071434378624, 0.0027049079071730375, -0.07213371247053146, -0.0469575971364975, -0.09081579744815826, -0.025309480726718903], [-0.007070345338433981, -0.013976827263832092, 0.012011314742267132, 0.027101309970021248, -0.01810574345290661, -0.04832740128040314, 0.009690825827419758, 0.04344597086310387, 0.005353262647986412, -0.0013394734123721719, 0.014515194110572338, -0.002846780465915799, -0.00702666025608778, -0.007996953092515469, -0.01438667718321085, -0.02471812814474106], [-0.008922716602683067, 0.029101060703396797, 0.005874656140804291, -0.008178109303116798, -0.07147663831710815, -0.01998714543879032, -0.008702389895915985, 0.01031534094363451, -0.01370791532099247, 0.08779165893793106, 0.05785929784178734, 0.0007592071196995676, -0.016400279477238655, -0.007445293944329023, -0.0264079999178648, -0.020290376618504524], [-0.0038045705296099186, 0.012905492447316647, -0.00837677251547575, 0.02215544879436493, -0.0312089491635561, 0.00791219063103199, 0.004240051377564669, 0.021622268483042717, -0.0198814794421196, -0.009353690780699253, 0.008894882164895535, -0.0013605400454252958, -0.023538339883089066, -0.013003642670810223, -0.007364870514720678, -0.019815867766737938], [-0.02733713947236538, 0.009774772450327873, -0.13465194404125214, 0.36177268624305725, -0.17434196174144745, 0.2610361874103546, -0.03761712834239006, -0.13499802350997925, -0.015671180561184883, 0.42117372155189514, 0.318879634141922, -0.06434538960456848, -0.2543186843395233, 0.016258083283901215, 0.017899049445986748, -0.052590884268283844], [-0.0033084149472415447, 0.00896319281309843, -0.012759405188262463, 0.026010680943727493, -0.021769113838672638, 0.025484981015324593, -0.0032723250333219767, -0.000650612753815949, -0.023836644366383553, 0.035161007195711136, 0.02120818942785263, -0.0037507580127567053, -0.0226738303899765, -0.0028672099579125643, -0.0354289673268795, -0.006674380507320166], [-0.001508912188000977, 0.006609232164919376, 0.0026297220028936863, -0.010140769183635712, 0.004676253534853458, 0.0027546738274395466, 0.001464329892769456, 0.006029521115124226, -0.006081440020352602, -0.0335957370698452, -0.015179548412561417, 0.003983147442340851, 0.0031844060868024826, -0.004632793832570314, -0.021980173885822296, -0.003928825259208679], [0.0062896558083593845, 0.03428409621119499, -0.04515409097075462, 0.05624651163816452, -0.0703827515244484, 0.11110726743936539, 0.00134123838506639, -0.013896624557673931, -0.09784650802612305, 0.1155654564499855, 0.07652037590742111, 0.005656844470649958, -0.05765008553862572, -0.018223440274596214, -0.1755046546459198, 0.00826371181756258], [0.00395059073343873, -0.018131526187062263, 0.07658416032791138, -0.10554656386375427, -0.0019340472063049674, -0.01511355210095644, -0.013744384981691837, 0.050769831985235214, 0.049661438912153244, 0.05839642882347107, -0.03063228353857994, -0.006090427748858929, 0.09081792086362839, 0.01948769949376583, 0.032765403389930725, -0.005496166180819273], [-0.008605281822383404, 0.02439184859395027, 0.0011430367594584823, 0.022200357168912888, -0.02863166667521, 0.01132896263152361, -0.004777122754603624, -0.037864893674850464, 0.014082725159823895, 0.06578090041875839, 0.034156203269958496, 0.00867960974574089, -0.008571622893214226, -0.006635081488639116, -0.05022145435214043, -0.017765503376722336], [0.0016356665873900056, 0.00428470503538847, -0.031375251710414886, 0.020143136382102966, 0.028072630986571312, 0.1382371485233307, 0.015674911439418793, -0.030453987419605255, 0.014201780781149864, -0.05430513992905617, -0.04188591241836548, 0.018542014062404633, -0.009265690110623837, -0.009787711314857006, 0.09321155399084091, 0.0024784724228084087], [0.025180630385875702, 0.10251124203205109, -0.01360729057341814, -0.10136204212903976, 0.041169632226228714, 0.065800242125988, -0.07121951133012772, -0.1434497982263565, 0.07951285690069199, 0.2301194965839386, 0.02816776931285858, -0.023041076958179474, 0.020246200263500214, 0.03217557072639465, 0.2813906967639923, 0.02462627738714218], [0.003376897657290101, 0.010022297501564026, 0.009223397821187973, -0.024481533095240593, 0.021309027448296547, -0.023590877652168274, 0.007875611074268818, 0.035664960741996765, -0.002401289762929082, -0.05711512640118599, -0.04191771149635315, 0.0035758314188569784, 0.015521991066634655, -0.0104179373010993, 0.011369298212230206, -0.006238842848688364], [0.005282513331621885, -0.03736086189746857, 0.007505783811211586, 0.008276582695543766, 0.058139096945524216, -0.05561992898583412, 0.0023982252459973097, -0.03447215259075165, 0.07771617919206619, 0.05658595636487007, -0.0003143427602481097, -0.007343024015426636, 0.0062315808609128, 0.016954900696873665, 0.20696903765201569, 0.00794906448572874], [-0.002890810137614608, -0.044879212975502014, 0.00427203206345439, -0.004331291653215885, -0.032469455152750015, 0.031121432781219482, -0.009854068048298359, -0.012060248292982578, 0.028852837160229683, 0.05785888060927391, 0.01211225613951683, 0.0009256295161321759, 0.004958923906087875, 0.02248719148337841, -0.016705146059393883, 0.01507203746587038], [0.05149318277835846, 0.06292883306741714, 0.009652421809732914, -0.07229053974151611, 0.19922403991222382, 0.1958763599395752, 0.05415431782603264, -0.041531093418598175, -0.10200396925210953, 0.0253576822578907, -0.05634073540568352, 0.1061539277434349, 0.057754356414079666, -0.03438156843185425, -0.07090818881988525, 0.1056688204407692], [0.002966497791931033, 0.10407483577728271, -0.07736790925264359, 0.053391747176647186, -0.06389143317937851, 0.12629906833171844, 0.03006364405155182, 0.046198341995477676, -0.12424954026937485, 0.06562674045562744, 0.03461109474301338, 0.011827696114778519, -0.10555227845907211, -0.07014159858226776, -0.12880480289459229, -0.03236725181341171], [-0.0030176325235515833, 0.024065714329481125, 0.01344338245689869, -0.025444159284234047, -0.011311346665024757, -0.0299490075558424, 0.010197926312685013, 0.006913577672094107, -0.01949101872742176, -0.026595763862133026, -0.02264467068016529, 0.0201408751308918, 0.010652278549969196, -0.016898268833756447, -0.002299434971064329, -0.013322634622454643], [-0.015808511525392532, 0.018259994685649872, 0.03642747178673744, 0.04678488150238991, -0.06553201377391815, 0.021379703655838966, -0.013918284326791763, -0.02452443540096283, 0.0024420872796326876, 0.09376842528581619, 0.0864671990275383, 0.0005104216397739947, -0.030894557014107704, -0.004237021319568157, -0.07670105993747711, -0.019872616976499557], [-0.00024909753119572997, 0.019278740510344505, 0.005191285163164139, -0.018874522298574448, -0.004431287292391062, -0.0041221329011023045, 0.007790577132254839, 0.023198895156383514, -0.02176314778625965, -0.06525614112615585, -0.025681229308247566, 0.008127248845994473, 0.004293961450457573, -0.014485771767795086, -0.028230419382452965, -0.010361447930335999], [0.016253527253866196, 0.20725952088832855, 0.05355720967054367, -0.006422830279916525, 0.3093336522579193, 0.3486248552799225, 0.06710036844015121, -0.2090679109096527, -0.04240141063928604, 0.16539578139781952, -0.036652710288763046, 0.07265841215848923, 0.05534076318144798, -0.05495968461036682, 0.018740316852927208, 0.016513612121343613], [0.0013073933077976108, 0.012201162055134773, 0.005855537950992584, -0.02132377400994301, 0.016119908541440964, 0.0033323029056191444, 0.0027752500027418137, 0.008712362498044968, -0.018436694517731667, -0.04037988930940628, -0.017841342836618423, 0.006937256548553705, 0.012622471898794174, -0.004095551557838917, -0.0418303944170475, 0.006082865409553051], [-0.029437072575092316, 0.020321428775787354, -0.011092334985733032, -0.017287012189626694, -0.09199193120002747, -0.1886473298072815, -0.001070988131687045, -0.12572140991687775, -0.023681150749325752, 0.13192714750766754, 0.08728338032960892, 0.008456073701381683, -0.026365205645561218, -0.008706768974661827, -0.08872871100902557, -0.04832645133137703], [0.17419232428073883, 0.22230622172355652, -0.07722215354442596, -0.0006133652641437948, 0.11177889257669449, 0.1951708346605301, 0.12942220270633698, -0.008976483717560768, -0.12055738270282745, -0.12524282932281494, -0.1594865322113037, 0.07189938426017761, 0.06153581663966179, -0.14574116468429565, -0.3448505401611328, 0.029206616804003716], [-0.013992566615343094, -0.11706360429525375, -0.17914055287837982, -0.06184178963303566, 0.13561847805976868, -0.25102561712265015, 0.1005680039525032, -0.0068674515932798386, 0.009076310321688652, -0.14863847196102142, 0.0071569872088730335, 0.0860683023929596, 0.0543917752802372, -0.11724857240915298, 0.1975804567337036, 0.09370143711566925], [-0.010376976802945137, 0.0271909199655056, -0.032243143767118454, 0.054037272930145264, -0.11429809778928757, 0.039701495319604874, -0.005741918459534645, -0.10326067358255386, 0.009751856327056885, 0.21902789175510406, 0.11244212836027145, 0.005460195709019899, -0.05438036099076271, -0.011743922717869282, -0.07273583114147186, -0.021545112133026123], [0.021012822166085243, -0.05358656495809555, 0.123592309653759, -0.06646835058927536, 0.06273021548986435, -0.2730986773967743, -0.06970907747745514, -0.08008158206939697, 0.20914092659950256, 0.043930117040872574, 0.07285349071025848, -0.15274640917778015, 0.17893658578395844, 0.15986327826976776, 0.5776495337486267, -0.04024209827184677], [-0.11485017836093903, 0.3592555522918701, 0.4219781756401062, -0.42515698075294495, -0.024332378059625626, 0.5957911014556885, -0.3984675705432892, -0.09609907865524292, 0.5682616829872131, 0.24573659896850586, 0.2536963224411011, -0.3721920847892761, 0.2514778673648834, 0.25430354475975037, -0.3707597851753235, -0.4550415575504303], [-0.04388329014182091, -0.08489995449781418, 0.08687828481197357, 0.08126739412546158, -0.10917794704437256, -0.20028914511203766, -0.18747444450855255, -0.21958570182323456, 0.10700023919343948, -0.010699879378080368, -0.02256830222904682, -0.08817654103040695, 0.09165258705615997, 0.07471618801355362, -0.38814616203308105, -0.07254619896411896], [-0.046942148357629776, -0.013024237006902695, -0.002602820983156562, -0.0512009859085083, -0.40801939368247986, -0.7492493987083435, 0.11001401394605637, 0.051210545003414154, 0.01576756313443184, -0.0015571641270071268, 0.07044456899166107, -0.025915708392858505, -0.07410141080617905, -0.1253197342157364, -0.2880144417285919, -0.14611856639385223], [-0.01364828646183014, -0.33803409337997437, 0.02021360583603382, 0.1823500543832779, -0.043739430606365204, 0.08369319885969162, 0.07692530006170273, 0.1976778507232666, 0.03639240935444832, -0.1516219824552536, 0.0552242249250412, 0.09923538565635681, -0.08300995826721191, 0.16689340770244598, 1.0097960233688354, 0.20213675498962402], [0.15378417074680328, -0.020326998084783554, -0.24271726608276367, 0.2481081336736679, 0.13722993433475494, -0.027137063443660736, 0.4827289879322052, 0.2969309389591217, -0.4653359353542328, 0.5595743656158447, -0.4029744565486908, 0.36148619651794434, -0.32243451476097107, -0.45604798197746277, 0.8769554495811462, 0.014841433614492416], [0.03875463083386421, 0.05311186984181404, -0.10773709416389465, 0.13746900856494904, -0.005427889991551638, 0.08670543134212494, 0.019492436200380325, 0.00855271890759468, -0.14260978996753693, 0.3929941952228546, 0.0570751428604126, -0.042817454785108566, -0.08982233703136444, -0.014955630525946617, 0.2328120768070221, 0.07018069922924042], [0.17224378883838654, -0.18661653995513916, -0.008884505368769169, -0.08919452875852585, 0.24814806878566742, 0.4031909704208374, -0.10872744768857956, -0.12462934106588364, 0.040928807109594345, -0.13819202780723572, -0.13338442146778107, -0.26191720366477966, 0.04758484289050102, 0.15754550695419312, -0.3069641590118408, 0.08149003982543945], [-0.02435665763914585, -0.15783502161502838, -0.06769370287656784, -0.1370290219783783, 0.0650157481431961, -0.12488914281129837, 0.018108993768692017, 0.11897405236959457, 0.08041848242282867, 0.04003513976931572, 0.001953780883923173, -0.06281140446662903, 0.08611319214105606, 0.08439817279577255, 0.28324416279792786, 0.07164289057254791], [-0.0039431448094546795, 0.06012045964598656, 0.005922094453126192, 0.03967219591140747, -0.051225755363702774, -0.09084299951791763, 0.033939179033041, -0.07810720056295395, 0.011937332339584827, 0.16771754622459412, -0.03353436663746834, 0.01825488731265068, 0.0292489156126976, -0.053131353110075, 0.42042526602745056, 0.004941386170685291], [-0.03300829976797104, -0.12879131734371185, -0.3676230311393738, 0.08387308567762375, 0.24034246802330017, -0.27473917603492737, 0.2816803455352783, -0.06380624324083328, -0.23024381697177887, 0.11200645565986633, -0.29005932807922363, 0.21805450320243835, -0.18215684592723846, -0.14251551032066345, -0.1564461588859558, 0.25750771164894104], [0.030553502961993217, -0.009674876928329468, 0.1383943259716034, -0.1353081613779068, -0.19341158866882324, 0.022498762235045433, -0.14784224331378937, -0.21634317934513092, 0.20318186283111572, 0.3740764260292053, 0.056985318660736084, -0.17048823833465576, 0.24382223188877106, 0.1748763620853424, -0.08224556595087051, -0.17578436434268951], [-0.002033218974247575, 0.005701506044715643, 0.0002117021067533642, -0.003259316785261035, -0.0009032333036884665, 0.008691060356795788, 0.0023791349958628416, 0.008734192699193954, -0.009281516075134277, -0.03933501988649368, -0.011515406891703606, 0.004614265635609627, -0.0010800266172736883, -0.005860872566699982, -0.021161092445254326, -0.0044768452644348145], [-0.00033036951208487153, 0.05359073728322983, -0.03892409801483154, 0.04394635930657387, -0.06800303608179092, 0.06798119843006134, 0.002416594885289669, -0.014137810096144676, -0.08461913466453552, 0.0907064750790596, 0.047290243208408356, 0.00961850956082344, -0.057848576456308365, -0.027514809742569923, -0.1235131323337555, -0.011676047928631306], [-0.0021756943315267563, -0.023702794685959816, 0.03840965777635574, 0.0028458673041313887, -0.01607561856508255, -0.07463806867599487, -0.02101821079850197, -0.03552721068263054, 0.05041159689426422, 0.13295817375183105, -0.012048515491187572, -0.017173683270812035, 0.032163456082344055, 0.028933517634868622, -0.044676534831523895, -0.0069665261544287205], [-0.008596146479249, 0.013190179131925106, 0.018761644139885902, 0.025653820484876633, -0.01571464166045189, 0.03632473573088646, -0.022074053063988686, -0.036957740783691406, 0.04927249252796173, 0.09405942261219025, 0.052413906902074814, -0.02626735158264637, 0.00030115016852505505, 0.018539272248744965, -0.18033581972122192, -0.02320057339966297], [-0.0004289409553166479, 0.005527243949472904, -0.0422760471701622, 0.07979746907949448, 0.03407319262623787, 0.20438502728939056, 0.02679285779595375, -0.04736189544200897, -0.011050526984035969, -0.059181228280067444, -0.033043958246707916, 0.0402870699763298, -0.03168448433279991, -0.022146126255393028, 0.13518047332763672, 0.01687825843691826], [0.0060895225033164024, 0.03708963096141815, -0.1567974090576172, 0.26703527569770813, -0.19290567934513092, 0.1394362449645996, -0.07961691915988922, -0.2347918301820755, 0.010243166238069534, 0.550941526889801, 0.34913063049316406, -0.07611960917711258, -0.21630102396011353, 0.04825964942574501, 0.25588884949684143, 0.012740295380353928], [0.0010236863745376468, 0.003414897480979562, -0.008669646456837654, 0.018834052607417107, -0.01608196832239628, -0.00014703747001476586, 0.0036167181096971035, 0.024793194606900215, -0.01102224737405777, 0.005493006203323603, 0.004825728014111519, -0.0035794461145997047, -0.015967957675457, -0.007740780711174011, 0.022135689854621887, -0.007604687940329313], [0.003263557329773903, -0.029069118201732635, -0.005992303602397442, 0.0641060471534729, 0.007294636685401201, -0.16507494449615479, 0.009758159518241882, 0.022775975987315178, 0.03449764475226402, 0.06640835851430893, 0.04073822870850563, -0.025335412472486496, -0.02915932796895504, 0.0035037046764045954, 0.22195132076740265, -0.013063465245068073], [0.0004967830027453601, -0.04594570770859718, -0.033597350120544434, 0.07563870400190353, -0.10327857732772827, 0.04313666373491287, -0.020625371485948563, -0.020006952807307243, 0.007299972232431173, 0.20646114647388458, 0.09870842844247818, -0.038066353648900986, -0.05038519203662872, 0.02856711857020855, -0.02157183364033699, 0.007555114571005106], [0.013321034610271454, 0.09898649156093597, -0.16955626010894775, 0.24930770695209503, -0.14319142699241638, 0.42783188819885254, 0.013287405483424664, -0.15978118777275085, -0.2412528693675995, 0.142118901014328, 0.2413565218448639, 0.047148995101451874, -0.20206110179424286, -0.04919697344303131, -0.2525288462638855, 0.05105128139257431], [0.0025585368275642395, 0.09628226608037949, -0.05949985608458519, 0.09032833576202393, -0.07097779959440231, 0.09979575872421265, 0.03423675522208214, 0.005728425458073616, -0.11107826232910156, 0.05781691521406174, 0.03268466889858246, 0.022778810933232307, -0.09798695892095566, -0.07771772891283035, -0.013975787907838821, -0.0325007326900959], [-0.00840675923973322, -0.0101293521001935, 0.011210230179131031, 0.029084645211696625, -0.028649834915995598, -0.07839442789554596, 0.009144936688244343, 0.04621734097599983, 0.003520903643220663, 0.02716035395860672, 0.016488533467054367, -0.0028127962723374367, -0.010862689465284348, -0.011184846051037312, 0.02667468786239624, -0.031196340918540955], [-0.012054918333888054, 0.017152784392237663, 0.009432272985577583, -0.03215751424431801, -0.09226874262094498, -0.019189370796084404, -0.023990368470549583, -0.049981534481048584, 0.03746778890490532, 0.15091681480407715, 0.03158148378133774, -0.022551489993929863, -0.004662565886974335, 0.012562236748635769, -0.14064231514930725, -0.030741257593035698], [-0.004785628989338875, 0.014948819763958454, -0.008093036711215973, 0.019806502386927605, -0.03537726029753685, 0.004677438177168369, 0.004840391222387552, 0.027667297050356865, -0.02184751071035862, -0.006547445431351662, 0.004031139891594648, -0.0009705391130410135, -0.024205677211284637, -0.01586592197418213, -0.0010391410905867815, -0.02364622987806797], [-0.0535016730427742, -0.02254517190158367, -0.021341625601053238, 0.2293201982975006, -0.08313421905040741, 0.41692638397216797, 0.028731126338243484, 0.03622028976678848, -0.011379467323422432, 0.2762089967727661, 0.11633505672216415, -0.0024845078587532043, -0.10595913231372833, -0.01813739910721779, -0.3950504660606384, -0.0647963359951973], [-0.0054228901863098145, 0.01345795951783657, -0.013187159784138203, 0.024311715736985207, -0.020154699683189392, 0.03125622496008873, 0.00056553102331236, -0.0019128781277686357, -0.03035338595509529, 0.008725901134312153, 0.012924251146614552, 0.00446211127564311, -0.02306368388235569, -0.009134176187217236, -0.03838428854942322, -0.008274219930171967]], "lstm.bias_ih_l0": [0.011595828458666801, 0.0879698246717453, 0.10694225877523422, 0.08828495442867279, 0.11438142508268356, 0.619976818561554, 0.10125333815813065, 0.255090594291687, 0.22606243193149567, 0.567620038986206, 0.07117346674203873, 0.16978496313095093, 0.11775268614292145, 0.09771724045276642, 1.1550794839859009, 0.10542063415050507, -0.031532593071460724, 0.0821681022644043, 0.04484789818525314, 0.04676331579685211, -0.05022845417261124, -0.27286577224731445, -0.015659525990486145, 0.09337727725505829, -0.05716335028409958, -0.32066094875335693, 0.034569066017866135, -0.12040387094020844, 0.07119028270244598, -0.0361550934612751, -0.19465544819831848, -0.1046786904335022, -0.048963867127895355, 0.1813792884349823, -0.020262816920876503, 0.1616065800189972, -0.17712107300758362, 0.13801781833171844, 0.06449572741985321, -0.06140868738293648, 0.020764313638210297, 0.24489550292491913, 0.15122811496257782, -0.12822255492210388, -0.1531701534986496, -0.03869254142045975, 0.12015843391418457, 0.10544408857822418, 0.013708405196666718, 0.08820575475692749, 0.0964120626449585, 0.1450101137161255, 0.058845046907663345, 0.49173998832702637, 0.09687185287475586, 0.1998777836561203, 0.1708860993385315, 0.4516217112541199, 0.04783140867948532, 0.17519618570804596, 0.04290464147925377, 0.09928208589553833, 0.8204887509346008, 0.11282701045274734], "lstm.bias_hh_l0": [0.010131100192666054, 0.08806569129228592, 0.0827120989561081, 0.10432586073875427, 0.17160861194133759, 0.6164062023162842, 0.08157636225223541, 0.23640607297420502, 0.25097331404685974, 0.5403851270675659, 0.07756192982196808, 0.16790811717510223, -0.004954653326421976, 0.09678851813077927, 1.1556320190429688, 0.10413657873868942, -0.027877144515514374, 0.05549568310379982, -0.04625288397073746, 0.10265181213617325, 0.11142244935035706, -0.32508403062820435, -0.12080897390842438, 0.11516369879245758, -0.06637012213468552, -0.20728254318237305, 0.09718576818704605, -0.12912693619728088, -0.04679980129003525, -0.05226721987128258, -0.15331128239631653, -0.09978486597537994, -0.046608369797468185, -0.14593809843063354, -0.0975223109126091, 0.18459825217723846, -0.1673024445772171, 0.056784193962812424, -0.1275564283132553, -0.016695110127329826, -0.10834899544715881, 0.23144687712192535, 0.17221702635288239, 0.09576468169689178, -0.22786763310432434, 0.030834347009658813, -0.07268890738487244, -0.26263582706451416, 0.01291155070066452, 0.08460521697998047, 0.01717141456902027, 0.07138299942016602, 0.082845538854599, 0.488859623670578, 0.10502348095178604, 0.2014382928609848, 0.17549346387386322, 0.4462222456932068, -0.006957254372537136, 0.16407229006290436, -0.003731433767825365, 0.09833863377571106, 0.789588451385498, 0.10650216042995453], "dense.weight": [[0.208165243268013, -0.1861046552658081, -0.21968428790569305, 0.2309987097978592, 0.22572049498558044, 0.7392533421516418, 0.24242742359638214, 0.4431452751159668, -0.4224644601345062, -0.6375203728675842, -0.07562285661697388, -0.20678043365478516, -0.3342055380344391, -0.008463803678750992, 1.6947888135910034, 0.34307172894477844]], "dense.bias": [0.02105128765106201]}